tree
version=v4
num_class=1
num_tree_per_iteration=1
label_index=0
max_feature_idx=58
objective=binary sigmoid:1
feature_names=track_id race_number track_condition weather temperature humidity track_temperature grade distance post_position handicap_meters trial_time trial_deviation generation is_home_track rider_age trial_time_rank field_avg_trial field_trial_std trial_time_diff_from_best avg_trial_time_30d avg_trial_time_90d trial_time_trend trial_vs_avg_90d computed_trial_deviation trial_deviation_trend predicted_race_time predicted_race_time_rank trial_time_zscore win_rate_10 top2_rate_10 top3_rate_10 win_rate_30 top3_rate_30 avg_finish_10 avg_finish_30 finish_std_10 momentum days_since_last_race total_races avg_start_timing_10 avg_start_timing_30 start_timing_consistency handicap_rank field_size handicap_range_in_field handicap_group handicap_vs_trial is_wet_condition predicted_vs_handicap field_avg_win_rate field_max_win_rate field_avg_finish form_rank_in_field relative_win_strength gap_to_top_rival rider_track_win_rate rider_wet_win_rate rider_wet_top3_rate
feature_infos=-1:2:5:3:6:4 [1:12] -1:0:1:3:4 -1:0:1:3:2:7 [0:39] [0:99] [0:65] none none [1:8] [0:80] [3.2000000000000002:4.3899999999999997] [0:0.217] [2:38] none none [1:8] [3.2662499999999999:4.1385714285714288] [0:0.17274258305351359] [0:0.50999999999999979] [3.23:4.0300000000000002] [3.2696666666666667:4] [-0.44999999999999929:0.48000000000000043] [-0.58000000000000007:0.92441176470588182] [0.0028000000000000026:0.21069999999999997] [-0.21300000000000002:0.16230000000000008] [3.3057000000000003:4.4685999999999995] [1:8] [-2.3909551787238956:2.4517705565139374] [0:1] [0:1] [0:1] [0:1] [0:1] [1:9] [1:9] [0:4.9497474683058327] [-5.9999999999999982:6.9999999999999982] [1:860] [0:768] [0.01:0.42999999999999999] [0.01:0.42999999999999999] [0:0.22920151250228116] [1:7] [5:8] [0:90] [0:4] [0:4294967295] [0:1] [0:4294967295] [0:0.5] [0:1] [2.0249999999999999:6.4428571428571431] [1:7] [0:8] [0:1] [0:1] [0:0.83333333333333337] [0:1]
tree_sizes=3434 3516 3517 3508 3521 3516 3507 3521 3521 3532 3505 3521 3488 3496 3527 3530 3506 3523 3554 3518 3531

Tree=0
num_leaves=31
num_cat=0
split_feature=28 19 27 10 27 19 54 55 54 54 54 19 28 10 28 43 19 28 43 28 21 56 57 30 28 43 18 17 28 43
split_gain=10521.1 2395.4 1161.92 656.041 390.212 352.395 303.027 227.327 157.107 149.985 144.505 108.547 104.204 100.173 86.651 71.5811 70.4836 70.3733 65.8424 59.6318 54.3952 50.295 45.4859 43.2188 42.9243 41.6694 53.8924 41.1125 39.3613 37.3879
threshold=-0.58461282221546562 0.060000000000000282 1.5000000000000002 1.0000000180025095e-35 4.5000000000000009 0.10499999999999977 1.3368794326241138 0.18174603174603179 1.4160272804774088 0.61651583710407254 1.0717948717948722 0.03999999999999982 -0.90958733581045614 1.0000000180025095e-35 -1.0017398137944482 2.5000000000000004 0.044999999999999936 -1.1242374190695077 2.5000000000000004 0.77274607003667539 3.4080851063829796 0.10814059251559253 0.21081871345029243 0.29285714285714287 0.39111638673421839 2.5000000000000004 0.032863353450310016 3.4306250000000005 0.84883474340261222 2.5000000000000004
decision_type=8 8 10 2 10 8 10 10 8 8 10 10 10 2 10 2 10 10 2 10 8 10 8 10 10 2 10 10 10 2
left_child=2 3 8 10 7 9 14 21 17 -3 20 29 -8 -11 -4 16 -9 -1 19 23 -2 -5 -7 -13 -22 -16 -27 -17 -15 -6
right_child=1 5 6 4 11 22 12 15 -10 13 -12 18 -14 28 25 27 -18 -19 -20 -21 24 -23 -24 -25 -26 26 -28 -29 -30 -31
leaf_value=-1.7955342121544597 -1.8299776780653707 -1.8474555025753627 -1.8090292458185686 -1.8260408905712304 -1.8253175831353288 -1.8571278365385855 -1.797847259220327 -1.8213318348069198 -1.7900933041631906 -1.8305964403972177 -1.8075378523797747 -1.8391472896497341 -1.80952292727636 -1.8393453301377543 -1.812766470101286 -1.835938803357311 -1.8367069694362943 -1.8053567110871911 -1.8456264903222601 -1.8464195786295381 -1.8111732986003699 -1.8167574377837477 -1.8468165867346651 -1.8279713352315656 -1.8238557427906252 -1.829466609189301 -1.8180095704306174 -1.8244058390192248 -1.8497613976435123 -1.8358870085716079
leaf_weight=295.3908580057323 58.216263867914677 269.08136386424303 178.37989359535277 106.99017598293722 94.183169422671199 237.99909041076899 208.0995523724705 132.35649207048118 515.45291564799845 133.63217372633517 179.31413836218417 77.508275737985969 190.80573648586869 141.6662450004369 116.35696793720126 209.5586441475898 46.066260259598494 177.6872450299561 127.91678597219288 48.212309474125504 75.340690845623612 270.90837269835174 50.163091044872999 80.088960837572813 74.268648140132427 74.358539631590247 168.6862376537174 41.91332726739347 51.971880739554763 71.826227618381381
leaf_count=6142 2571 14285 5299 4163 3827 13857 4699 4898 8995 5713 5154 3785 5632 6777 3740 9603 2109 4722 6824 2609 2290 9015 2637 3372 2856 3158 5846 1585 2865 3369
internal_value=-1.81966 -1.83288 -1.80197 -1.82592 -1.82936 -1.84624 -1.8101 -1.82504 -1.79434 -1.84186 -1.81443 -1.8364 -1.80329 -1.83731 -1.81524 -1.83018 -1.82514 -1.7991 -1.83981 -1.83628 -1.8206 -1.81929 -1.85529 -1.8333 -1.81718 -1.81846 -1.82137 -1.83388 -1.84207 -1.82971
internal_weight=4504.4 2579.18 1925.22 1694.67 1307.53 884.514 936.687 807.793 988.531 596.352 387.14 499.736 398.905 327.27 537.782 429.895 178.423 473.078 333.726 205.81 207.826 377.899 288.162 157.597 149.609 359.402 243.045 251.472 193.638 166.009
internal_count=162397 114164 48233 68030 55159 46134 28374 31373 19859 29640 12871 23786 10331 15355 18043 18195 7007 10864 16590 9766 7717 13178 16494 7157 5146 12744 9004 11188 9642 7196
is_linear=0
shrinkage=1


Tree=1
num_leaves=31
num_cat=0
split_feature=28 19 27 9 27 19 54 53 54 54 28 27 28 19 10 54 10 54 9 9 28 13 28 19 28 9 19 56 57 10
split_gain=9880.13 2313.37 1050.76 893.868 408.706 355.905 309.395 276.936 155.516 148.776 136.117 126.771 123.481 116.422 84.9349 79.6194 73.6446 66.2814 65.7059 58.6314 65.6138 47.1137 46.6506 46.3334 42.462 42.3791 41.2045 40.2427 39.8882 36.843
threshold=-0.58461282221546562 0.060000000000000282 1.5000000000000002 3.5000000000000004 3.5000000000000004 0.10499999999999977 1.0467391304347828 2.5000000000000004 0.85934065934065951 1.1487481590574378 -0.14264935053936026 4.5000000000000009 -1.0017398137944482 0.044999999999999936 1.0000000180025095e-35 1.4058823529411768 1.0000000180025095e-35 1.0513157894736844 4.5000000000000009 4.5000000000000009 -1.0268812247937358 34.500000000000007 -0.92105189588421876 0.034999999999999927 -1.2349939611324354 4.5000000000000009 0.079999999999999863 0.1064127778771083 0.23413839371286183 1.0000000180025095e-35
decision_type=8 8 10 2 8 8 10 10 8 8 10 10 10 10 2 8 2 10 2 2 10 2 10 10 10 2 10 8 8 2
left_child=2 3 9 6 15 8 11 12 21 22 -6 -2 -4 -8 -10 25 -13 -12 -14 -9 -21 26 -1 -18 -11 -5 -3 -20 -7 -15
right_child=1 5 7 4 10 28 13 19 14 24 17 16 18 29 -16 -17 23 -19 27 20 -22 -23 -24 -25 -26 -27 -28 -29 -30 -31
leaf_value=0.050375757869738649 0.032555617012842028 0.007793559789033077 0.049864270650180266 0.027748068604049402 0.017313068899526479 -0.0063960924675193157 0.043945308243949037 0.039176403234549927 0.021018008399895923 0.060170692160382511 0.0027184352178109502 0.027472621674454759 0.046919276484935754 0.036860637873194199 0.0093575405354398393 0.031112129930816936 0.026039624144357981 0.012524592961987307 0.026519831083609731 0.036711383654023357 0.025119306540097152 0.018922316430399318 0.038629389185547806 0.012476652096072502 0.052827413440102257 0.018155100002040913 0.00015247133341603122 0.038491403099129011 0.0038646287765606979 0.024716597618781089
leaf_weight=308.3090873202309 191.71518316771835 111.30730484891683 231.50639792345464 79.357989923097193 217.0924067357555 245.69255124218762 212.80027481727302 105.3388780253008 111.80481705162674 381.93333522044122 173.94235014263541 116.86738017201424 111.00419744756073 71.451922362670302 158.36795434542 144.33017833530903 37.456714577972889 117.91354222409427 51.9419937254861 89.086601524613798 174.06907008774579 19.072035158053041 69.912286407314241 106.94791115634143 275.29693947080523 178.71637288387865 197.49066108837724 208.19729380402714 42.79165187291801 69.427200396545231
leaf_count=6644 6265 5590 5157 2821 9727 14409 5591 3071 4633 5828 9504 4380 2608 2174 7783 4922 1429 5634 1932 2784 6800 796 2002 5084 5364 7740 10837 6169 2246 2665
internal_value=0.0302626 0.0173979 0.0469389 0.0241661 0.0173232 0.00425783 0.0318537 0.0393316 0.00865977 0.0540193 0.0112968 0.0261909 0.0436267 0.0389841 0.0142795 0.0248735 0.0213761 0.00674363 0.0395854 0.0321812 0.0292056 0.00396919 0.0483385 0.0162184 0.0571949 0.0212393 0.00295527 0.03625 -0.00483145 0.0311628
internal_weight=4611.14 2604.55 2006.6 1718.02 911.353 886.527 806.667 971.144 598.043 1035.45 508.948 452.987 602.65 353.679 270.173 402.405 261.272 291.856 371.143 368.495 263.156 327.87 378.221 144.405 657.23 258.074 308.798 260.139 288.484 140.879
internal_count=162589 114230 48359 67936 40348 46294 27588 28521 29639 19838 24865 17158 15866 10430 12416 15483 10893 15138 10709 12655 9584 17223 8646 6513 11192 10561 16427 8101 16655 4839
is_linear=0
shrinkage=0.01


Tree=2
num_leaves=31
num_cat=0
split_feature=19 19 16 54 9 54 9 9 27 27 27 19 27 19 19 54 54 54 57 10 16 10 18 17 57 27 27 27 18 10
split_gain=8711.28 1907.89 1252.95 552.539 284.266 267.299 237.422 232.837 230.176 212.442 208.945 182.831 145.097 130.233 130.028 98.9498 70.9668 59.9665 58.5508 55.8008 48.5483 48.131 45.2577 44.1151 42.2776 35.2172 34.5362 32.0531 30.9341 29.7105
threshold=0.024999999999999693 0.074999999999999969 1.5000000000000002 1.0717948717948722 3.5000000000000004 1.4775828460038991 3.5000000000000004 3.5000000000000004 2.5000000000000004 4.5000000000000009 3.5000000000000004 0.10499999999999977 1.5000000000000002 0.054999999999999945 0.054999999999999945 0.85934065934065951 1.3924263674614308 1.1686991869918701 0.29745817245817252 1.0000000180025095e-35 4.5000000000000009 1.0000000180025095e-35 0.034615231989895655 3.3946428571428577 0.21461949265687585 1.5000000000000002 4.5000000000000009 2.5000000000000004 0.041403933560541346 1.0000000180025095e-35
decision_type=8 8 10 10 2 8 2 2 8 8 8 8 10 10 10 8 10 10 8 2 10 2 10 10 8 10 10 10 10 2
left_child=2 3 5 4 13 12 14 -4 16 27 23 15 22 21 -5 -3 -9 -10 -17 -15 -12 -2 -1 -6 -13 -7 -23 -8 -14 -16
right_child=1 11 7 6 10 25 9 8 17 -11 20 24 28 19 29 18 -18 -19 -20 -21 -22 26 -24 -25 -26 -27 -28 -29 -30 -31
leaf_value=0.043456070332545976 0.031498927449187406 0.0015668593422714964 0.04325598500110605 0.038537772253085752 0.014433103085640568 0.055938515716461266 0.032220540456418298 0.032024218405605182 0.020676813984371298 0.010382120738520226 0.0073670317703106048 -0.006170383622247139 0.035330275978905347 0.020915533276703858 0.030061244897607201 0.0093364395993480644 0.041960723671363331 0.030073658025792635 0.027045850699785833 0.0099161662289607641 -0.0030553822112288475 0.027233967413035007 0.051998248193158035 0.024740227415181705 0.0037360319914944134 0.048505944068766377 0.017467452105773575 0.023983314454809092 0.045525804803260787 0.018443437701637515
leaf_weight=188.89853001851588 116.71591138467193 215.67029818799347 221.35937491618097 233.58847435191274 115.8601722093299 488.44208331219852 100.80675382073969 208.63174881320447 191.69122296385467 110.22164775617421 233.07148986309767 237.74239602126181 196.36211097054183 95.800675308331847 63.133064521476626 146.34604057762772 165.3402645541355 136.89346932526678 21.959111613221467 104.8329411521554 53.13538212236017 87.864361946471035 245.75793808326125 81.549002394080162 50.527320317924023 187.1458789370954 94.659585008397698 185.77809799928218 67.795380375348032 56.109058767557144
leaf_count=4481 3886 11630 5495 6521 5147 7463 3204 6767 7867 5434 11855 13980 5911 3874 2125 7062 4144 4688 797 5014 3173 3007 4421 3037 2654 3895 4126 7074 1543 2330
internal_value=0.0292364 0.0159172 0.0431587 0.0214617 0.0164766 0.0492532 0.0279579 0.0340384 0.0310625 0.0224595 0.0109323 0.00159749 0.0446091 0.0217881 0.0340325 0.0061202 0.0365442 0.0247014 0.0118522 0.0152955 0.00539335 0.0260425 0.0484171 0.0188446 -0.00439252 0.0539691 0.0223462 0.0270175 0.0381465 0.0248765
internal_weight=4703.69 2405.37 2298.32 1733.13 983.49 1374.4 749.637 923.916 702.557 396.806 483.616 672.245 698.814 499.873 352.831 383.975 373.972 328.585 168.305 200.634 286.207 299.24 434.656 197.409 288.27 675.588 182.524 286.585 264.157 119.242
internal_count=162605 105930 56675 69807 43119 27714 26688 28961 23466 15712 23212 36123 16356 19907 10976 19489 10911 12555 7859 8888 15028 11019 8902 8184 16634 11358 7133 10278 7454 4455
is_linear=0
shrinkage=0.01


Tree=3
num_leaves=31
num_cat=0
split_feature=28 28 16 9 18 54 54 53 27 54 28 9 27 18 9 46 9 28 55 28 56 54 28 9 56 18 28 17 24 27
split_gain=8220.93 1179.05 1170.64 678.432 293.872 271.832 253.274 221.761 192.539 177.941 117.563 111.383 108.244 103.929 103.588 96.4089 93.7385 99.0558 86.7233 78.0622 70.4715 68.3869 66.1915 83.1204 62.4305 68.7771 60.1576 51.0226 46.9649 44.3879
threshold=-0.43241825121604111 -0.90958733581045614 4.5000000000000009 3.5000000000000004 0.039520940802374317 0.88989898989899008 1.1487481590574378 2.5000000000000004 3.5000000000000004 1.1487481590574378 0.08058229640255847 3.5000000000000004 1.5000000000000002 0.037289089429432133 4.5000000000000009 1.0000000180025095e-35 2.5000000000000004 1.3662601021279419 0.21111111111111117 1.0012523486435214 0.099593327933080969 1.5519713261648749 0.9832602935281084 1.5000000000000002 0.26792857142857146 0.029246489410819046 -0.14264935053936026 3.3226785714285723 0.08900000000000001 2.5000000000000004
decision_type=8 10 8 2 8 10 8 10 8 10 10 2 10 10 2 2 2 8 10 8 8 8 10 2 10 10 10 10 8 8
left_child=1 6 3 5 9 10 12 14 21 16 -2 -9 -1 -12 -3 -11 17 -4 26 27 -16 -5 23 -7 25 -8 -10 -6 -13 -22
right_child=2 7 4 8 19 22 24 11 18 15 13 28 -14 -15 20 -17 -18 -19 -20 -21 29 -23 -24 -25 -26 -27 -28 -29 -30 -31
leaf_value=0.04551299759913701 0.028130020471388892 0.042895979302447949 0.015728571996394047 0.016487613378393436 -0.010287908672626663 0.044763888338035678 0.04125955843096394 0.038022321152754099 0.018930080056609844 0.025558769243088992 0.020663359085625374 0.02903575502815722 0.035609826362878655 0.0054623278655032623 0.022714092162308845 0.010205966572187681 -0.00066656550535963092 0.0020445923268022598 0.0037213659599125955 -0.0061285551557406564 0.038773081772768871 0.02758107179490886 0.016966604819921623 0.031685533374394767 0.055634616425640847 0.05069085990618051 0.0092336096747145675 0.0051064105487402039 0.020243677760814035 0.029833706686631815
leaf_weight=336.82750876061618 157.73028208874166 207.80714030377567 133.57752281241119 188.71336729452014 23.237977777607739 76.606380853801966 152.39651236962527 74.733113479800522 107.5056472113356 98.69409996829927 173.03433580789715 120.2679199418053 227.92345355730504 64.515681704506278 65.201858203858137 77.79844287969172 117.40876418165863 90.735560353845358 166.4282811684534 161.10555300209671 200.10358826909214 91.44417430087924 27.595690842717886 258.25303177628666 270.81575559731573 450.07021618355066 184.58723200112581 174.83319820649922 189.94325697422028 131.7327591124922
leaf_count=6901 5320 4706 5930 7913 1413 1685 3522 1979 4495 3609 6753 4038 6536 3080 2414 3753 6724 4898 8860 9482 5080 3081 1085 7979 3797 7490 8899 9093 7574 4348
internal_value=0.028414 0.0413526 0.015165 0.0205428 0.00596849 0.0272068 0.0471734 0.0328466 0.0136659 0.0107809 0.0212958 0.0266516 0.0416039 0.0166171 0.0367223 0.0189432 0.00649316 0.0102714 0.00959852 -0.000957737 0.0333662 0.0202293 0.0335494 0.0348316 0.050712 0.0483941 0.012889 0.00320749 0.0237668 0.0353547
internal_weight=4801.63 2427.82 2373.81 1496.41 877.391 757.735 1438.03 989.79 738.679 518.214 395.28 384.944 564.751 237.55 604.845 176.493 341.722 224.313 458.521 359.177 397.038 280.158 362.455 334.859 873.282 602.467 292.093 198.071 310.211 331.836
internal_count=162437 58385 104052 59150 44902 25902 28246 30139 33248 24914 15153 13591 13437 9833 16548 7362 17552 10828 22254 19988 11842 10994 10749 9664 14809 11012 13394 10506 11612 9428
is_linear=0
shrinkage=0.01


Tree=4
num_leaves=31
num_cat=0
split_feature=28 19 16 9 19 54 27 27 55 54 9 55 54 12 43 19 19 18 9 19 55 57 28 9 56 12 28 12 35 28
split_gain=7611.49 1694.36 1054.05 838.484 300.619 242.465 222.402 197.897 196.006 118.349 104.566 94.377 89.3238 85.8817 85.5523 77.246 70.3964 68.9761 68.5612 61.8559 54.7328 50.7739 47.4721 47.3699 45.7381 39.273 38.3058 36.5117 34.669 34.2357
threshold=-0.43241825121604111 0.060000000000000282 1.5000000000000002 3.5000000000000004 0.094999999999999987 0.99218750000000022 1.5000000000000002 3.5000000000000004 0.15357142857142861 0.61651583710407254 4.5000000000000009 0.13888888888888892 1.1925925925925929 0.095500000000000015 1.5000000000000002 0.044999999999999936 0.044999999999999936 0.031594529363709149 4.5000000000000009 0.13000000000000014 0.2253968253968254 0.21081871345029243 -1.0000000180025095e-35 2.5000000000000004 0.10012531328320803 0.075500000000000012 -0.65808875395406519 0.078500000000000014 3.4058823529411768 -0.72627303920257213
decision_type=8 8 10 2 8 10 10 8 10 8 2 10 8 2 2 10 10 10 2 8 10 8 10 2 10 2 10 2 10 10
left_child=2 3 6 5 9 16 17 20 18 -3 -10 28 -8 26 27 -7 -2 -1 -4 21 25 -6 -13 -18 -20 -5 -12 -11 -9 -26
right_child=1 4 8 7 19 15 12 11 10 14 13 22 -14 -15 -16 -17 23 -19 24 -21 -22 -23 -24 -25 29 -27 -28 -29 -30 -31
leaf_value=0.043434778146351133 0.027144940733466405 0.0033853151795378263 0.042334422699265545 0.030428679994254741 -0.0017733020938626167 0.038498577880420284 0.034189842123978686 0.023841472169221844 0.033958183981118294 0.026517236596999897 0.031279102351450837 0.010042819151548962 0.043854593057219032 0.016113560260313121 0.0082779821756183408 0.028457171697154775 0.021894228583154117 0.050304575232897976 0.024148012171718754 -0.0078893552201331242 0.012683534806796464 0.010334335535257849 0.001572312466026622 0.010949582676429573 0.039230387689403047 0.01960745972409652 0.021583891427844983 0.014385866719425083 0.012430740139186131 0.030686454312557229
leaf_weight=316.31042216531932 206.08964275941253 223.65654688328505 165.84136520605534 61.788069964386523 192.16658525634557 217.53874629922211 229.53370392881334 37.815715589560568 170.30552974529564 49.566113363951445 131.76015555951744 126.06468266621232 251.78436849266291 111.09575915522873 164.57942227926105 167.01190701313317 130.70486172102392 672.02613640390337 60.966013066470623 145.99803653545678 77.16692622564733 41.128268505446613 145.89524528477341 68.160981389693916 152.67207578755915 127.03709345124662 91.602997599169612 72.861962619237602 144.08553479984403 140.02764678001404
leaf_count=6262 6941 11679 3548 1933 10747 5421 6360 1442 4794 1740 4051 6073 5056 4622 7925 5394 4944 9995 2134 8756 3422 1966 8009 3082 3653 4835 3504 3177 6544 4250
internal_value=0.02761 0.0148785 0.0398436 0.0213296 0.0039146 0.0284588 0.0453106 0.013468 0.0319531 0.00892116 0.027295 0.00937868 0.0393468 0.0237812 0.0131736 0.0342486 0.0228653 0.0481622 0.0363986 -0.00280546 0.0203469 0.000353507 0.00555779 0.0182666 0.0334755 0.0233427 0.0274615 0.0195534 0.014975 0.0352954
internal_weight=4893.24 2399.32 2493.93 1509.36 889.957 789.506 1469.65 719.853 1024.27 510.664 504.764 453.861 481.318 334.459 287.007 384.551 404.955 988.337 519.507 379.293 265.992 233.295 271.96 198.866 353.666 188.825 223.363 122.428 181.901 292.7
internal_count=162259 104030 58229 58040 45990 25782 27673 32258 30556 24521 16971 22068 11416 12177 12842 10815 14967 16257 13585 21469 10190 12713 14082 8026 10037 6768 7555 4917 7986 7903
is_linear=0
shrinkage=0.01


Tree=5
num_leaves=31
num_cat=0
split_feature=19 16 19 9 54 55 9 54 19 18 18 54 9 54 56 19 16 16 56 9 49 57 18 10 17 17 56 18 19 10
split_gain=6875.63 1526.26 1199.36 417.353 304.579 207.934 203.67 192.712 169.516 123.108 119.572 113.917 113.697 85.7637 72.1218 63.5246 63.3579 56.2726 52.8892 52.5461 48.4844 47.0413 45.1036 40.2587 38.4912 37.381 35.5715 31.9912 30.9422 30.6277
threshold=0.03999999999999982 1.5000000000000002 0.074999999999999969 2.5000000000000004 1.1487481590574378 0.10555555555555561 4.5000000000000009 1.3368794326241138 0.10499999999999977 0.02964070560178066 0.034121631178560659 1.0717948717948722 3.5000000000000004 1.2727272727272732 0.099593327933080969 0.059999999999999838 3.5000000000000004 3.5000000000000004 0.23538406188163341 3.5000000000000004 4294967290.5000005 0.21081871345029243 0.026049403612586345 1.0000000180025095e-35 3.3938750000000004 3.3738750000000004 0.091005392912172592 0.028504385627478306 0.044999999999999936 1.0000000180025095e-35
decision_type=8 10 8 2 10 8 2 8 8 10 10 8 2 8 10 10 10 10 10 2 10 8 10 2 10 10 10 10 10 2
left_child=1 7 3 11 6 17 23 10 13 -8 -1 15 -6 25 -14 -2 24 -5 -9 -18 -11 -10 -16 -3 -7 -4 -19 -25 -13 -15
right_child=2 4 8 5 12 16 9 18 21 20 -12 28 14 29 22 -17 19 26 -20 -21 -22 -23 -24 27 -26 -27 -28 -29 -30 -31
leaf_value=0.034583199159580094 0.026354516812565877 0.036977024904736394 -0.0016857088368774026 0.02381217672611028 0.041329348856432364 0.0097750986279429245 0.01320793720209967 0.044402632332350464 -0.006069788668695824 0.017745081820395026 0.043594720614506699 0.039210384098359363 0.021963944380646618 0.019436667314257115 0.026812716349459326 0.016181438753232972 0.011940678553065834 0.0072714500611729188 0.050960090930102071 0.0028542454405029501 0.027953128243566862 0.0043147917851195511 0.035436819168952825 0.023620493211623704 0.018825762263626439 0.0058113081899816921 0.01803020063017341 0.031715451440977781 0.028392743807190791 0.0081773482392589122
leaf_weight=330.09945596754551 135.75587540864944 91.807732702232897 104.31722076702863 178.33839148003608 183.99815877713263 124.03724455274642 172.76148446649313 495.11900788359344 233.5781471747905 86.603572575375438 375.05678789131343 55.758174138143659 82.310943553224206 49.328833358362317 114.42733917944133 141.69323459174484 103.84004117175937 46.437586470507085 323.86356393061578 174.57158383261412 161.82456671819091 51.667923106811941 312.30382429249585 129.98083660658449 89.762746919877827 173.00292481668293 138.9683027593419 146.15008648484945 139.03910568915308 60.468802599236369
leaf_count=8312 4538 2352 5788 6078 3836 5662 7593 8386 13852 3517 6870 1248 2922 1928 3747 5887 4671 2201 4196 9395 5121 2685 7982 4523 3500 8668 5606 4144 4373 2884
internal_value=0.0269597 0.0365195 0.012578 0.0180843 0.0292324 0.0138665 0.0248612 0.0435755 0.00167508 0.0199461 0.0394453 0.0256626 0.0341523 0.00598923 0.0314626 0.0212718 0.00955759 0.0196275 0.0470669 0.00630964 0.02452 -0.00414534 0.0332158 0.0303913 0.0136915 0.00295936 0.0154426 0.02804 0.0317247 0.0134559
internal_weight=5006.87 3006.31 2000.57 1328.2 1482.17 855.956 789.128 1524.14 672.364 421.19 705.156 472.246 693.04 387.118 509.042 277.449 492.212 363.744 818.983 278.412 248.428 285.246 426.731 367.939 213.8 277.32 185.406 276.131 194.797 109.798
internal_count=162465 73501 88964 53159 45737 37113 27250 27764 35805 16231 15182 16046 18487 19268 14651 10425 23228 13885 12582 14066 8638 16537 11729 11019 9162 14456 7807 8667 5621 4812
is_linear=0
shrinkage=0.01


Tree=6
num_leaves=31
num_cat=0
split_feature=28 19 28 9 19 27 54 19 54 54 28 9 54 10 12 9 27 27 9 54 31 13 28 27 12 10 56 18 58 54
split_gain=6553.04 1525.98 905.56 684.252 278.152 209.227 190.756 178.495 161.265 134.695 100.42 93.4856 89.7581 83.7306 81.2668 76.7848 68.0098 67.113 56.655 55.0568 53.6978 51.0414 49.6794 43.1054 42.5727 40.6435 38.2539 45.0098 37.9968 37.9492
threshold=-0.43241825121604111 0.074999999999999969 -0.97794771487082344 3.5000000000000004 0.054999999999999945 3.5000000000000004 0.99218750000000022 0.10499999999999977 1.1487481590574378 0.99218750000000022 0.070710678118652934 3.5000000000000004 0.85934065934065951 1.0000000180025095e-35 0.096500000000000016 4.5000000000000009 1.5000000000000002 2.5000000000000004 1.5000000000000002 1.1487481590574378 0.47222222222222227 31.500000000000004 1.0223972648864981 4.5000000000000009 0.082500000000000018 1.0000000180025095e-35 0.28593406593406595 0.02984084768360647 0.60510071474983762 1.1383577052868394
decision_type=8 8 10 2 10 8 8 8 8 10 10 2 10 2 2 2 10 10 2 8 10 2 10 10 2 2 10 10 8 10
left_child=2 3 8 4 9 19 11 12 16 18 20 -4 -3 21 -13 -8 -1 -17 -2 -5 -7 -6 24 -20 -15 -14 27 -10 -9 -12
right_child=1 7 6 5 13 10 15 28 26 -11 29 14 25 22 -16 17 -18 -19 23 -21 -22 -23 -24 -25 -26 -27 -28 -29 -30 -31
leaf_value=0.040872631229436476 0.032370093352778191 0.0015856355983677592 0.035048612744574811 0.014744159422722575 0.018755817134207015 0.0085446644584934693 0.039420678066319458 -0.0059637460170979609 0.037965163980173813 0.033585205749687638 0.00062189010758980962 0.0267430686358128 0.01675952698743003 0.021290927708285608 0.016759593749591874 0.034710807032023942 0.0323401290888762 0.026099271964824422 0.026154777610812752 0.024037163677537665 0.017770656327293799 0.032487857563196602 -0.00048205425660744562 0.017064448889195352 0.009559102327227828 0.0066364088561271829 0.049622423606303 0.045561498059713018 0.0043230396738095644 0.008764406249822115
leaf_weight=337.3749545365572 70.758444980718195 217.16243743523955 98.419250990264118 153.27514297980815 126.15772223938257 153.57202882319689 227.7756513049826 244.37614060658962 173.47147941589355 316.32614653743804 152.22999761998653 283.4508310277015 77.295352514833212 55.921951062977314 134.61494206078351 299.57332110498101 193.31355416588485 178.57012735586613 116.19632061012089 135.56118923984468 120.19814699795097 41.895449236035347 25.183008523657918 134.49746145214885 86.479688835330307 94.83632013015449 257.52598536387086 450.54294239543378 40.164780859835446 93.853522954508662
leaf_count=6216 1983 11546 2353 6329 4812 7300 4625 14528 3520 8099 8373 8898 3129 2068 5167 7139 5112 5697 3596 4504 4946 1188 1354 5335 3886 4618 3134 6541 2096 4449
internal_value=0.0261297 0.0143629 0.0370851 0.0192081 0.024868 0.0123607 0.0306953 0.00152441 0.0425833 0.0287858 0.0085075 0.0258644 0.00592919 0.0173304 0.0236 0.034174 0.03785 0.0315767 0.0239423 0.0192081 0.0126816 0.0224103 0.0120742 0.0214047 0.0143523 0.0113105 0.0453753 0.0435299 -0.00446662 0.00379073
internal_weight=5090.57 2455.94 2634.63 1782.11 973.416 808.69 1222.4 673.835 1412.23 637.778 519.854 516.485 389.294 335.638 418.066 705.919 530.689 478.143 321.452 288.836 273.77 168.053 167.585 250.694 142.402 172.132 881.54 624.014 284.541 246.084
internal_count=162541 104139 58402 68222 32321 35901 33879 35917 24523 19013 25068 16418 19293 13308 14065 17461 11328 12836 10914 10833 12246 6000 7308 8931 5954 7747 13195 10061 16624 12822
is_linear=0
shrinkage=0.01


Tree=7
num_leaves=31
num_cat=0
split_feature=28 19 28 10 27 27 27 19 53 54 54 28 45 43 45 54 43 43 19 57 13 18 19 12 28 19 27 12 13 43
split_gain=6070.2 1697.69 634.239 517.287 333.285 165.229 149.811 145.763 145.049 122.206 110.388 106.041 74.8494 73.9385 72.8539 71.0081 70.0292 69.6643 60.1952 52.9647 49.9463 49.6905 49.3123 47.397 41.5958 37.0702 35.2039 32.1543 29.5507 28.7229
threshold=-0.53781592427630753 0.074999999999999969 -0.90958733581045614 1.0000000180025095e-35 4.5000000000000009 1.5000000000000002 5.5000000000000009 0.13000000000000014 2.5000000000000004 0.99218750000000022 0.85934065934065951 0.1239313884106647 1.0000000180025095e-35 2.5000000000000004 1.0000000180025095e-35 0.73098330241187404 2.5000000000000004 2.5000000000000004 0.044999999999999936 0.23739406779661018 31.500000000000004 0.034121631178560659 0.044999999999999936 0.081500000000000017 0.96583426160782737 0.054999999999999945 2.5000000000000004 0.078500000000000014 34.500000000000007 2.5000000000000004
decision_type=8 8 10 2 10 10 10 8 10 10 8 10 2 2 2 8 2 2 10 8 2 10 10 2 10 10 10 2 2 2
left_child=2 3 5 6 8 21 14 10 17 23 28 13 -8 -6 -2 -7 24 -5 29 -12 25 -1 -16 -4 -13 -14 -11 -19 -3 -10
right_child=1 7 9 4 11 15 12 -9 18 26 19 16 20 -15 22 -17 -18 27 -20 -21 -22 -23 -24 -25 -26 -27 -28 -29 -30 -31
leaf_value=0.039571052016182121 0.01902743191934058 -0.0011004042914564275 0.032952467821713162 0.028624284938616854 0.02106282918181944 0.029464388733351193 0.0053069837936234937 -0.0075557195479193321 0.022691969213594648 0.035524049072064474 0.0064499753638162672 0.012199864110559153 0.025904277293813473 0.010093246019211351 0.039487871858723253 0.038256613884304104 0.00033278023463299789 0.025825454745397668 0.0096450073649903233 0.018820749133470746 0.032452560041982749 0.045035787901241749 0.02912389621435665 0.022794577904871546 0.0019169915302416354 0.014990125100182694 0.028859010546260559 0.01781113452556073 0.010917831016984646 0.015118321553946967
leaf_weight=427.65808221697807 39.737380132079124 281.45957391057163 69.559154303744435 218.22223310824484 133.5618313504383 166.9108058437705 26.573168931528926 145.17756896652281 110.2068177703768 300.62696608528495 180.49745942465961 201.07123719993979 71.729387016035616 128.96890990342945 142.35337116196752 390.72998643107712 105.3727841982618 93.087119768373668 122.50067012384534 44.385264297947288 56.339343955740333 638.50840646773577 113.96534313634038 288.34229724481702 52.356112819164991 78.533592192456126 194.23256175592542 189.674506386742 21.022468167357147 141.61848480626941
leaf_count=7565 1521 15591 1747 6259 4918 4560 1319 8793 3753 6552 8794 8819 2246 5927 2896 7690 5645 2871 5460 1764 1514 8504 3248 9470 2725 3201 5427 6865 970 5714
internal_value=0.0254377 0.0150471 0.0367443 0.0196156 0.0165733 0.0404521 0.0281527 0.00126195 0.0205656 0.0296333 0.00371799 0.010909 0.0218356 0.0157707 0.0330042 0.0357003 0.00728995 0.0241463 0.0156952 0.00900839 0.0238775 0.0428923 0.0350498 0.024883 0.0101307 0.020403 0.0329917 0.0205665 -0.000198964 0.018549
internal_weight=5174.98 2698.41 2476.57 2025.87 1496.64 1623.81 529.232 672.542 875.31 852.761 527.365 621.331 233.175 262.531 296.056 557.641 358.8 500.984 374.326 224.883 206.602 1066.17 256.319 357.901 253.427 150.263 494.86 282.762 302.482 251.825
internal_count=162328 110813 51515 74901 58956 28319 15945 35912 30922 23196 27119 28034 8280 10845 7665 12250 17189 15995 14927 10558 6961 16069 6144 11217 11544 5447 11979 9736 16561 9467
is_linear=0
shrinkage=0.01


Tree=8
num_leaves=31
num_cat=0
split_feature=19 16 19 10 54 27 27 19 53 27 43 27 13 45 54 10 56 56 54 18 27 45 18 27 56 18 57 10 27 1
split_gain=5731 1200.99 1082.94 343.542 258.552 244.675 157.493 143.931 91.1279 89.5555 89.8507 81.0324 74.3969 69.3757 64.3684 61.3813 60.7212 57.7937 57.6565 50.4764 50.1822 48.2173 43.46 43.2668 43.2391 39.7872 36.7364 34.9466 34.8396 34.5399
threshold=0.03999999999999982 1.5000000000000002 0.074999999999999969 1.0000000180025095e-35 1.1487481590574378 4.5000000000000009 1.5000000000000002 0.10499999999999977 2.5000000000000004 2.5000000000000004 2.5000000000000004 5.5000000000000009 34.500000000000007 15.000000000000002 0.74051407588739304 1.0000000180025095e-35 0.21460207341211518 0.26353970249319092 0.85934065934065951 0.034121631178560659 2.5000000000000004 1.0000000180025095e-35 0.032950178841916533 2.5000000000000004 0.1405093717927943 0.039339789623472364 0.21081871345029243 1.0000000180025095e-35 6.5000000000000009 7.5000000000000009
decision_type=8 10 8 2 10 10 10 8 8 10 2 10 2 2 8 2 10 10 10 10 8 2 10 10 8 10 8 2 8 2
left_child=1 6 3 11 9 8 17 12 23 -3 13 -2 18 -11 -7 -6 22 19 -4 -1 -17 -13 -8 -5 -23 -12 -9 -15 -28 -10
right_child=2 4 7 5 15 14 16 26 29 10 25 21 -14 27 -16 20 -18 -19 -20 -21 -22 24 -24 -25 -26 -27 28 -29 -30 -31
leaf_value=0.03573003555936493 0.029685405281449275 0.027128846670721608 0.0001578364013753972 0.028228466650480816 0.038835874970305752 0.0040596871586527881 0.027175512092684637 -0.0059625986937038898 0.015963220362256732 0.016186961418979059 0.012132376771685967 0.0022696599497260732 0.01947693317916805 0.035693994412119852 0.011704746944415905 0.032871574313140639 0.039842349703892645 0.045900926665990459 0.0083062343322506931 0.041891331061289325 0.026431671094089993 0.016805225340558796 0.035253621134747413 0.019055502532548323 0.027641376942768772 0.021347707150696674 0.014276969946484964 0.024308154807161548 -0.0025420942631466936 0.0073319508189421713
leaf_weight=312.12901579029858 185.44921382516623 309.55678568221629 203.17634447850287 85.250322026200593 106.55488005653024 220.99882716313004 174.52503897249699 231.69149985630065 150.52728729974478 90.02379226218909 161.42462932877243 15.812842564657329 32.28349837474525 50.006056072190404 233.19320472795516 306.89317687414587 164.00394644960761 282.23039464093745 154.13808029703796 516.86728306859732 317.1183201270178 108.49887429829687 189.61687371321023 221.44519183412194 73.404859621077776 78.005454380996525 17.676010876893997 134.37902764230967 33.536522041074932 78.511795845814049
leaf_count=5895 5001 8886 11002 2332 2052 11187 4626 13877 5822 3564 6740 824 1231 1106 10223 6951 2824 3221 7117 7183 9306 4112 3856 7723 2204 2652 742 4228 1945 3659
internal_value=0.0246431 0.0330148 0.0115597 0.0166492 0.0266588 0.0134902 0.0390136 0.00114401 0.0180822 0.022704 0.0199713 0.0247283 0.00509245 0.0239819 0.00802391 0.0310653 0.034176 0.0412711 0.00371417 0.0396294 0.0296624 0.0199025 0.0314944 0.0217212 0.0213599 0.0152526 -0.00425709 0.0276259 0.00323374 0.0130927
internal_weight=5238.93 3193.33 2045.59 1373.09 1553.96 989.927 1639.37 672.502 535.735 823.396 513.839 383.166 389.598 274.409 454.192 730.566 528.146 1111.23 357.314 828.996 624.011 197.717 364.142 306.696 181.904 239.43 282.904 184.385 51.2125 229.039
internal_count=162091 73090 89001 53087 45485 40946 27605 35914 19536 27176 18290 12141 19350 8898 21410 18309 11306 16299 18119 13078 16257 7140 8482 10055 6316 9392 16564 5334 2687 9481
is_linear=0
shrinkage=0.01


Tree=9
num_leaves=31
num_cat=0
split_feature=28 19 27 55 19 55 13 12 56 23 56 28 19 55 56 12 30 19 57 30 26 12 18 55 19 4 47 56 12 55
split_gain=5413.77 1497.61 544.821 316.356 266.147 143.86 105.879 85.6702 81.4839 75.825 72.743 72.6266 62.06 61.1181 41.3263 39.2764 38.5251 38.3453 37.9971 34.9431 33.8828 33.3284 30.22 27.0531 26.8444 26.7162 25.7933 24.6476 24.205 23.8498
threshold=-0.52621168190873957 0.060000000000000282 1.5000000000000002 0.19444444444444448 0.094999999999999987 0.13095238095238096 34.500000000000007 0.076500000000000012 0.11431774503523383 -0.082285714285714059 0.1668600154679041 -0.95510944009217635 0.13000000000000014 0.38750000000000007 0.096175357081397364 0.076500000000000012 0.18333333333333338 0.050000000000000051 0.1393876950250221 0.29285714285714287 3.558850000000001 0.090500000000000011 0.034121631178560659 0.55634920634920648 0.03999999999999982 20.500000000000004 2.5000000000000004 0.037094369911707378 0.068500000000000019 0.38750000000000007
decision_type=8 8 10 10 8 10 2 2 8 8 10 10 8 10 10 2 10 10 8 10 8 2 10 10 10 8 10 10 2 10
left_child=2 3 10 8 6 11 7 27 21 23 22 -4 18 19 -7 -10 -9 26 28 -11 -20 -2 -1 -5 -15 -18 -17 -3 -6 -29
right_child=1 4 5 9 12 14 -8 16 15 13 -12 -13 -14 24 -16 17 25 -19 20 -21 -22 -23 -24 -25 -26 -27 -28 29 -30 -31
leaf_value=0.032357943561808079 0.022347304915688402 0.0017913305248936351 0.03711265041523517 0.022409643750150306 0.0050996031216772831 0.020591383848566257 0.023769773103955675 -0.00031049958086720616 0.032405315310026467 0.013742174586166148 0.04141698432453824 0.029776380708385796 -0.007772662932829068 0.014413669288326552 0.027542211581968467 0.022271525597457559 0.0032781084010472393 0.018316869773684671 0.00072048232045680025 0.019012577056908123 0.015035739537268953 0.014220469991304711 0.038233914433569986 0.0029488625799339893 0.0070447675927754905 0.010250448414485278 0.02917249033615308 0.016990032560358616 -0.0040917809347924489 0.0039451097710868971
leaf_weight=237.08245915547013 159.38097354397178 17.918112338520586 291.55208641663194 183.73622901923954 34.974201614968479 142.96420665644109 40.73602900840342 117.59897744376212 115.21089568827301 331.28814158868045 713.70513100363314 390.05833545699716 142.97877312544733 85.821580338291824 468.95582146756351 130.32498017791659 123.67117057088763 91.193991252221167 42.661315749399364 261.67717296350747 27.873625730164349 99.851961201056838 375.85392024368048 9.0123042594641429 147.70738757867366 109.43043230567127 204.27727553620934 105.91878370754421 129.69166332669556 19.356970733962953
leaf_count=4863 5060 884 5095 6075 1796 4586 1358 6218 2803 13329 9538 9447 8755 3409 12833 4101 6144 3214 2264 9545 1222 3718 5850 433 6918 4984 5476 4198 7486 983
internal_value=0.0241339 0.014271 0.0344056 0.0195141 0.00379928 0.029694 0.00833902 0.00700063 0.0242575 0.0157599 0.0389664 0.0329788 -0.00259722 0.0143681 0.0259708 0.0265639 0.00427586 0.0248877 0.000526188 0.0161129 0.00664841 0.0193221 0.0360338 0.0215712 0.00984538 0.00662382 0.0265888 0.0135287 -0.00206022 0.0151008
internal_weight=5352.46 2732.29 2620.17 1819.48 912.81 1293.53 534.63 493.894 800.24 1019.24 1326.64 681.61 378.18 826.494 611.92 541.007 350.701 425.796 235.201 592.965 70.5349 259.233 612.936 192.749 233.529 233.102 334.602 143.194 164.666 125.276
internal_count=162585 110373 52212 64081 46292 31961 24769 23411 24372 39709 20251 14542 21523 33201 17419 15594 17346 12791 12768 22874 3486 8778 10713 6508 10327 11128 9577 6065 9282 5181
is_linear=0
shrinkage=0.01


Tree=10
num_leaves=31
num_cat=0
split_feature=19 19 19 9 27 19 9 54 54 27 27 54 18 53 54 9 19 57 54 54 27 13 17 9 27 18 17 19 17 6
split_gain=4917.56 1364.71 668.946 373.266 359.656 161.538 155.486 142.217 142.18 141.269 126.105 114.526 97.8429 72.2843 71.9955 54.6656 58.0858 53.9535 45.4717 41.7223 40.6402 39.199 36.8818 35.3411 34.5408 32.6755 31.5313 29.1551 25.3604 25.0268
threshold=0.024999999999999693 0.074999999999999969 1.0000000180025095e-35 2.5000000000000004 3.5000000000000004 0.13000000000000014 3.5000000000000004 1.1383577052868394 1.607692307692308 2.5000000000000004 4.5000000000000009 0.84529505582137177 0.033354160160316018 2.5000000000000004 0.99218750000000022 4.5000000000000009 0.044999999999999936 0.23739406779661018 0.9545454545454547 1.3924263674614308 2.5000000000000004 34.500000000000007 3.3738750000000004 3.5000000000000004 4.5000000000000009 0.02722262714308513 3.4173214285714288 0.054999999999999945 3.4106250000000005 24.500000000000004
decision_type=8 8 10 2 8 8 2 10 8 8 10 8 10 10 10 2 10 8 10 10 10 2 10 2 8 10 10 10 10 8
left_child=2 3 8 10 13 11 -4 15 12 19 21 22 20 -5 27 16 -6 29 25 -8 -1 -2 -3 -9 -25 -11 -15 -12 -17 -13
right_child=1 5 6 4 7 -7 9 23 -10 18 14 17 -14 26 -16 28 -18 -19 -20 -21 -22 -23 -24 24 -26 -27 -28 -29 -30 -31
leaf_value=0.031592117742915413 0.028481520063386678 -0.005001017959897729 0.033297854317803292 0.02400123578141769 0.014886516167204371 -0.0080763906479880045 0.024692584310636971 0.020648245800341629 0.039952959182172822 0.0095785161702383551 0.020710094864339511 0.0025513221016568383 0.036833357230664762 0.013661454043679798 0.025732583880029063 0.00030188700513505322 0.0054168923665045814 0.018642068610131693 0.022805088041902257 0.031761573198330194 0.022724241952328854 0.04259072406061172 0.0023253138913733175 0.01762374061401532 0.0090829774293891274 0.01901662004514414 0.023009461687425462 0.012798714725580031 0.0087515071841276579 0.010064911814619697
leaf_weight=336.67871081456542 173.86679485626519 104.67799173947424 260.63867462053895 336.40284926258028 119.99299449566752 142.49058350548148 240.74663943983614 102.6120565040037 765.87134583853185 71.91403728723526 110.28227883391082 90.729907495900989 531.78517151996493 162.98113616090268 183.51014887355268 140.22955483291298 153.9719779510051 47.35513427387923 197.04530294984579 201.96041852980852 88.161906722933054 31.705088075250387 194.75955748092383 95.039417432621121 118.2629648912698 101.89238335937262 56.860335501842201 113.4539476679638 47.877944088540971 96.944525768049061
leaf_count=6827 4397 6102 5461 9630 4675 8809 6733 3311 9915 3067 3707 4516 8421 6330 5243 7460 7327 1806 5968 4217 2465 464 10281 3417 5350 3493 1799 4659 2213 4447
internal_value=0.0234229 0.0135755 0.0326506 0.0178264 0.0148183 0.00132618 0.0263665 0.0103805 0.0365461 0.0240955 0.0243246 0.00386201 0.0337693 0.0209776 0.0209125 0.006783 0.00963988 0.00907206 0.0193397 0.0280043 0.029833 0.0309016 -0.000210676 0.0155728 0.0129996 0.0152459 0.0162178 0.0168176 0.00254031 0.00651829
internal_weight=5420.7 2624.01 2796.69 1947.05 1334.23 676.958 1074.2 777.987 1722.5 813.559 612.818 534.467 956.626 556.244 407.246 462.072 273.965 235.03 370.852 442.707 424.841 205.572 299.438 315.914 213.302 173.806 219.841 223.736 188.107 187.674
internal_count=162510 105943 56567 69982 51512 35961 28939 33753 27628 23478 18470 27152 17713 17759 13609 21675 12002 10769 12528 10950 9292 4861 16383 12078 8767 6560 8129 8366 9673 8963
is_linear=0
shrinkage=0.01


Tree=11
num_leaves=31
num_cat=0
split_feature=28 16 28 9 18 32 9 54 54 9 54 54 27 12 27 9 28 18 28 56 28 18 27 12 11 56 28 18 28 18
split_gain=4688.24 783.561 658.927 498.636 231.779 181.39 154.572 128.403 126.908 123.185 121.604 110.111 68.4657 66.6818 62.2832 62.159 73.5132 61.5263 46.4278 44.3653 44.2906 40.7789 40.1617 40.0064 39.4629 36.7912 35.6748 34.3265 34.2501 33.0786
threshold=-0.394676108688161 4.5000000000000009 -0.92105189588421876 3.5000000000000004 0.034121631178560659 0.067816091954023008 3.5000000000000004 1.1487481590574378 0.99218750000000022 2.5000000000000004 1.607692307692308 0.85934065934065951 6.5000000000000009 0.096500000000000016 3.5000000000000004 1.5000000000000002 0.51754916950676944 0.031622776601683958 0.44095855184408772 0.11431774503523383 0.96583426160782737 0.035050983275386617 5.5000000000000009 0.08950000000000001 3.3250000000000006 0.28593406593406595 0.84883474340261222 0.054894378500947603 0.9832602935281084 0.029246489410819046
decision_type=8 8 10 2 8 8 2 8 10 2 10 8 10 2 8 2 10 10 10 10 8 10 8 2 10 10 10 10 10 10
left_child=2 3 7 5 9 18 -4 17 13 12 14 20 -3 -8 -5 28 -17 -1 27 -12 -6 -20 -11 -10 -13 29 -26 -2 -7 -9
right_child=1 4 6 10 11 15 8 25 23 22 19 24 -14 -15 -16 16 -18 -19 21 -21 -22 -23 -24 -25 26 -27 -28 -29 -30 -31
leaf_value=0.027228625632483319 0.020148729835052719 0.020317509912793838 0.033052951669611974 0.013222673511626875 0.00079866980700578393 0.034375751491648052 0.022324922314271686 0.031504557738984328 0.02974934953247349 0.01017042265146032 0.0090241722693947621 -0.0099034919099087061 0.0098540943337432317 0.013403472539011344 0.0060921385204644705 0.025630195061756057 0.014110689773779772 0.034251597612864802 0.014098822484787011 0.020947730621673658 -0.0068375730157360275 6.9830920698226359e-05 -0.00061844709508255451 0.023787400799212512 0.01171713710980816 0.04120779484404534 0.0028909578380556297 0.0052032124128574657 0.018771762010887358 0.037538745766170764
leaf_weight=258.80198591202497 172.6251355111599 125.96313955448568 245.10251401271671 193.29102269001305 144.24558247067034 115.96915229596198 293.86704746820033 195.85496360994875 311.50089433602989 52.732134405523539 47.512751696631312 12.578762331977485 141.98529627546668 135.87058691866696 368.29135438147932 326.20187623798847 77.14096035156399 400.09261422976851 69.293455769307911 138.50209749676287 154.27906904835254 31.440125199966133 91.79302545171231 280.72325078397989 99.145891018211842 306.55359918437898 92.817579067312181 19.816107938997447 24.318603022955358 568.05676351301372
leaf_count=6036 5504 4225 4823 7412 7780 2364 8828 3654 7007 2317 1964 800 6359 5017 17439 9047 2848 6879 2530 4511 9352 1534 5024 7622 4284 3366 4867 861 778 7620
internal_value=0.0228191 0.0126936 0.0312566 0.0169508 0.00530484 0.0222665 0.0257006 0.0353043 0.0238969 0.0108536 0.0109657 0.000722999 0.0148674 0.0195651 0.00858331 0.0257331 0.0234921 0.0315537 0.0157388 0.0180202 -0.00312405 0.00986223 0.00329215 0.026985 0.00637421 0.037572 0.00753845 0.0186963 0.0318936 0.036048
internal_weight=5496.37 2499.94 2996.42 1584.4 915.54 836.805 1267.06 1729.36 1021.96 412.474 747.597 503.067 267.948 429.738 561.582 543.631 403.343 658.895 293.175 186.015 298.525 100.734 144.525 592.224 204.542 1070.47 191.963 192.441 140.288 763.912
internal_count=162652 101800 60852 56792 45008 25466 33297 27555 28474 17925 31326 27083 10584 13845 24851 15037 11895 12915 10429 6475 17132 4064 7341 14629 9951 14640 9151 6365 3142 11274
is_linear=0
shrinkage=0.01


Tree=12
num_leaves=31
num_cat=0
split_feature=28 16 28 9 18 54 9 55 27 9 54 54 18 27 28 27 18 10 28 33 28 28 56 11 9 56 28 9 10 9
split_gain=4617.9 825.185 587.982 462.945 210.141 179.644 151.327 145.22 135.654 113.971 110.764 109.403 89.0666 75.2847 74.7725 62.5382 56.1501 52.3317 50.0234 48.9165 46.261 45.6386 43.6166 41.3943 40.9073 39.2934 37.6206 33.0111 30.3798 28.7723
threshold=-0.42347317511024157 4.5000000000000009 -1.0017398137944482 3.5000000000000004 0.033094381626464962 0.88989898989899008 4.5000000000000009 0.2253968253968254 1.5000000000000002 3.5000000000000004 1.3368794326241138 0.72570532915360519 0.02964070560178066 4.5000000000000009 0.22528177844477651 6.5000000000000009 0.030118812346154402 1.0000000180025095e-35 -1.3686300260290187 0.62828947368421062 0.91497154260502156 0.54179523287307507 0.15716674629718111 4.035000000000001 2.5000000000000004 0.14896303460133251 0.88191710368819665 2.5000000000000004 1.0000000180025095e-35 3.5000000000000004
decision_type=8 8 10 2 8 8 2 10 8 2 10 8 10 8 10 10 10 2 10 10 8 10 10 8 2 8 10 2 2 2
left_child=2 3 12 5 9 14 24 13 -8 15 25 20 19 22 27 -3 28 -7 -14 -1 -6 -19 -5 26 -4 -10 29 -2 -16 -13
right_child=1 4 6 7 11 17 8 -9 10 -11 -12 23 18 -15 16 -17 -18 21 -20 -21 -22 -23 -24 -25 -26 -27 -28 -29 -30 -31
leaf_value=0.02864117109924752 0.025279261550407012 0.017969238740758012 0.036814536325300941 0.013556445091605519 0.00097193283753928825 0.030487044062457423 0.030175007269094667 0.0049424927813545242 0.01457035266898515 0 0.026055341681608012 0.013893985247835252 0.039784627168226984 0.0085834729056310059 0.021764560654284528 0.0085850725255785382 0.0061922373689345276 0.024634962958839903 0.034589172989931173 0.03665611675967257 -0.0070215198579991443 0.010866683270556007 0.021096595828463818 -0.010063110335093984 0.02881544324137587 0.021282787739526101 0.0022696039740744858 0.016759998689916122 0.010671725135336587 0.003012150545258341
leaf_weight=339.67765316739678 113.70774981286377 149.00731636397541 114.93897783942521 206.33455044776201 128.64482717681676 200.67264347989112 252.35779237560928 260.91333446186036 218.08326200209558 80.951230389997363 301.65313201956451 82.81854690797627 449.26618527621031 175.46365866810083 65.85586725641042 153.12632902152836 88.166948651894927 195.55556957796216 629.47691419534385 142.21722381189466 158.48561365250498 33.260996733792126 150.60272936057299 14.313387352973221 370.03854652587324 190.05909247137606 106.91736643388867 113.96269044745713 52.676181455142796 38.815065869130194
leaf_count=6904 3112 5215 1808 7689 6896 4357 4899 12428 7670 4384 7364 3377 4920 7855 1987 6948 3890 5218 9415 1986 9655 1256 4714 914 8123 5723 5650 3926 2083 1966
internal_value=0.0223534 0.0124968 0.0307659 0.0167037 0.00484077 0.0217832 0.026102 0.0111394 0.0236922 0.0104751 0.021334 0.000737308 0.0350648 0.0141426 0.017104 0.0132902 0.0125184 0.0264417 0.036797 0.0310983 -0.00341451 0.0227331 0.0168159 0.00568075 0.0308036 0.0177649 0.00674984 0.0211505 0.017049 0.0105559
internal_weight=5578.02 2570.25 3007.77 1657.17 913.08 863.859 1447.13 793.314 962.153 383.085 709.795 529.995 1560.64 532.401 434.369 302.134 206.699 429.489 1078.74 481.895 287.13 228.817 356.937 242.864 484.978 408.142 228.551 227.67 118.532 121.634
internal_count=162332 103520 58812 58515 45005 25829 35587 32686 25656 16547 20757 28458 23225 20258 14998 12163 7960 10831 14335 8890 16551 6474 12403 11907 9931 13393 10993 7038 4070 5343
is_linear=0
shrinkage=0.01


Tree=13
num_leaves=31
num_cat=0
split_feature=28 27 28 9 18 9 9 56 28 28 27 28 12 18 12 11 28 56 53 55 55 13 28 28 55 56 57 55 43 18
split_gain=4266.5 615.091 554.461 351.652 300.743 184.956 137.278 135.819 114.275 111.566 109.515 95.8773 93.5778 88.2019 72.1289 61.338 57.7278 51.6968 51.06 50.792 48.5935 44.1726 43.9515 43.812 43.1979 38.2143 37.459 36.4534 34.93 34.2046
threshold=-0.43241825121604111 5.5000000000000009 -0.89871703427291172 3.5000000000000004 0.034537764010675889 2.5000000000000004 4.5000000000000009 0.12223963775687914 0.032185949078361115 0.84883474340261222 1.5000000000000002 0.91497154260502156 0.090500000000000011 0.041989225250497933 0.080500000000000016 4.0150000000000006 0.50401612877417989 0.15295784035994006 1.5000000000000002 0.17083333333333336 0.15357142857142861 34.500000000000007 0.60996591346162965 0.28203803740887939 0.21111111111111117 0.13876574553266285 0.21461949265687585 0.087301587301587311 2.5000000000000004 0.026049403612586345
decision_type=8 8 10 2 8 2 2 10 10 8 10 8 2 10 2 8 8 10 10 8 10 2 10 10 10 10 8 10 2 10
left_child=2 3 10 7 5 9 -4 13 14 -3 27 15 25 23 -5 21 28 -12 -16 -11 -14 -6 -15 -2 -9 -8 -13 -1 -7 -21
right_child=1 4 6 8 11 16 12 24 -10 19 17 26 20 22 18 -17 -18 -19 -20 29 -22 -23 -24 -25 -26 -27 -28 -29 -30 -31
leaf_value=0.037484562986809432 0.023962608815209934 0.023215576710391272 0.029097681638073435 0.020659912066731519 0.0052023696651036979 0.013778348687642841 0.020563362423808358 0.027986994355698434 0.0061621412702049429 0.017766536781832508 0.025833689252685282 -0.0055887512366188472 0.021556493195638488 0.01215612257861767 0.018999615092057675 -0.010494352875705349 0 0.032312771139402709 0.0096294056445073977 0.012749325611868737 0.013546606281710645 0.020379516575437819 -0.0040276337356126074 0.015449322133537757 0.019527105203423049 0.027768523433748561 0.0046125982789122022 0.033194206801919458 0.001949997878307698 0.0029064003791848337
leaf_weight=544.43821463733912 152.84375060535967 132.59392437152565 413.19058216921985 139.59527832549065 194.23017974663526 73.496434568427503 155.494061101228 268.48454136680812 262.97318246867508 83.884008050896227 271.06475097686052 197.94760937336832 168.84018976986408 99.79395860619843 80.519937200471759 21.24933417327702 131.41691079549491 376.90535935200751 266.0354329040274 71.010826698504388 173.22932296991348 21.241533104330301 18.586897778324783 132.7070762552321 106.20588242728263 242.53103057295084 42.074288099072874 681.68324215523899 41.325487811118364 77.248639784753323
leaf_count=6003 4058 3907 8590 4478 9553 2916 4453 6362 11900 2893 6123 11890 4553 3724 2596 1360 6944 6539 11086 2777 6171 726 965 4574 3400 5472 2159 10196 2069 3857
internal_value=0.0217935 0.0124248 0.0298774 0.0165205 0.0066531 0.0112931 0.0243388 0.0212462 0.0115735 0.0158175 0.0332657 0.000674536 0.0216328 0.017061 0.0144615 0.00519701 0.004514 0.0296618 0.0118837 0.0114676 0.0175806 0.00683198 0.0095189 0.0201088 0.025674 0.0250374 -0.00374731 0.0351364 0.00966115 0.00774163
internal_weight=5642.84 2615.47 3027.38 1527.75 1087.72 610.976 1153.29 778.622 749.124 364.737 1874.09 476.743 740.095 403.932 486.151 236.721 246.239 647.97 346.555 232.143 342.07 215.472 118.381 285.551 374.69 398.025 240.022 1226.12 114.822 148.259
internal_count=162294 104194 58100 53143 51051 25363 29239 23083 30060 13434 28861 25688 20649 13321 18160 11639 11929 12662 13682 9527 10724 10279 4689 8632 9762 9925 14049 16199 4985 6634
is_linear=0
shrinkage=0.01


Tree=14
num_leaves=31
num_cat=0
split_feature=19 19 28 10 9 55 28 54 28 54 13 12 54 54 12 49 18 32 17 31 28 19 19 18 19 31 28 19 17 19
split_gain=4044.07 869.789 828.135 285.004 227.231 165.745 145.463 119.983 113.314 94.2268 91.6277 91.5636 82.7422 79.6046 73.2236 59.5797 57.081 54.2766 53.6207 48.7341 48.6798 46.7662 41.9673 40.18 38.0041 34.2634 27.8639 27.2467 27.2443 28.2323
threshold=0.03999999999999982 0.084999999999999978 -0.87701946984788415 1.0000000180025095e-35 4.5000000000000009 0.20000000000000007 -0.35639322248362021 1.3368794326241138 0.7865900135218965 0.82555780933062894 32.500000000000007 0.081500000000000017 0.88989898989899008 0.99218750000000022 0.080500000000000016 4.5000000000000009 0.024397501823713117 0.23205128205128209 3.3886607142857144 0.38750000000000007 -1.287733735528789 0.13000000000000014 0.059999999999999838 0.042236578595200767 0.054999999999999945 0.47222222222222227 -0.18244870523563847 0.13000000000000014 3.3286607142857148 0.069999999999999632
decision_type=8 8 10 2 2 8 10 8 10 8 2 2 10 8 2 8 10 10 10 10 10 8 10 10 10 10 10 8 10 10
left_child=2 3 7 10 12 8 11 16 14 27 15 -6 26 23 22 -2 -1 -8 24 -20 -18 -11 -5 -13 -7 -16 -4 -3 -17 -30
right_child=1 9 4 5 6 18 17 -9 -10 21 -12 13 -14 -15 25 28 20 -19 19 -21 -22 -23 -24 -25 -26 -27 -28 -29 29 -31
leaf_value=0.023452994504374148 0.022444624793156932 -0.0023747836361285961 0.024545586777100507 0.024083295575204607 0.027444334342243151 0.0065066715178179867 0.0064139966628111705 0.034640229836459854 0.0031192796656946136 0.0069173211661355347 0.028697602679832134 0.01055900393887522 0.029624339362418598 0.022121478479591301 0.010463155625046721 0.0042289469135849533 0.0342421618334766 0.019336221751553397 0.0049467401689275194 0.01660278020954805 0.028241022236177513 -0.0041455944856453346 0.014169568037199128 0.020315708975343277 -0.0012602972002176654 0.016311118036779634 0.017291114003190972 -0.0089841562370822133 0.019216634557390921 0.01044021156470421
leaf_weight=168.47716001048684 171.87940618023276 211.02698244992644 243.88998763263226 131.98751251213253 169.72530446387827 143.78828419651836 119.7504146900028 1058.7732627335936 86.609190504997969 158.70324358716607 111.3605589568615 148.00429469347 418.39776885136962 287.51012971624732 256.0178841566667 28.252374803647399 292.36314245685935 46.979735217988491 77.463984391652048 73.778517519123852 453.05351371131837 48.281606839969754 81.867293422110379 67.776034168899059 107.78636624198407 200.05162407457829 99.186459925025702 92.410295457579195 98.982287826016545 76.825780129991472
leaf_count=3917 4780 11867 6067 3664 3765 6402 5178 13406 4096 7355 2668 5551 8337 7505 10060 1263 4048 1574 3547 2771 8711 2887 3026 1966 5661 6916 3203 5863 3187 3278
internal_value=0.0213287 0.0105017 0.027856 0.0140356 0.0224615 0.0113013 0.0187816 0.0322161 0.0140705 -0.000884424 0.0204838 0.0208723 0.0264765 0.0185862 0.0154646 0.0179545 0.029362 0.0102083 0.00605388 0.0107701 0.0306509 0.00428116 0.0204183 0.0137493 0.00314753 0.0130803 0.0225337 -0.00444338 0.0140327 0.0155188
internal_weight=5730.96 2157.07 3573.89 1646.65 1601.22 1159.35 839.746 1972.67 756.534 510.422 487.3 673.016 761.474 503.29 669.924 375.94 913.894 166.73 402.817 151.243 745.417 206.985 213.855 215.78 251.575 456.07 343.076 303.437 204.06 175.808
internal_count=162519 89291 73228 61319 43146 46143 25539 30082 27762 27972 15176 18787 17607 15022 23666 12508 16676 6752 18381 6318 12759 10242 6690 7517 12063 16976 9270 17730 7728 6465
is_linear=0
shrinkage=0.01


Tree=15
num_leaves=31
num_cat=0
split_feature=19 19 28 10 27 54 19 27 54 45 27 54 10 53 21 28 27 21 27 57 28 43 53 43 45 56 28 17 43 1
split_gain=3874.48 793.986 781.175 268.852 183.378 163.443 150.178 120.849 87.9982 78.4183 63.7145 61.9121 61.0614 53.9019 53.1774 47.1815 45.968 41.6003 39.9012 49.8784 39.6854 39.6556 36.2296 31.9861 31.4988 31.1607 29.1491 28.4701 28.2087 27.4393
threshold=0.03999999999999982 0.074999999999999969 -0.87701946984788415 1.0000000180025095e-35 3.5000000000000004 0.94427244582043357 0.10499999999999977 1.5000000000000002 0.99218750000000022 1.0000000180025095e-35 5.5000000000000009 0.73098330241187404 1.0000000180025095e-35 1.5000000000000002 3.4203077651515161 -0.46061271535880705 2.5000000000000004 3.4387179487179491 6.5000000000000009 0.19905660377358494 0.50401612877417989 2.5000000000000004 2.5000000000000004 2.5000000000000004 1.0000000180025095e-35 0.11123484286067807 0.77274607003667539 3.3764583333333342 2.5000000000000004 10.500000000000002
decision_type=8 8 10 2 10 10 8 10 10 2 10 8 2 10 8 10 10 8 8 8 10 2 10 2 2 8 10 10 2 2
left_child=2 3 7 9 25 14 11 22 21 -2 -11 -3 24 -9 15 -4 -14 -13 19 -8 23 26 -1 -10 -7 -5 -6 29 -17 -27
right_child=1 6 5 4 8 12 18 13 20 10 -12 17 16 -15 -16 28 -18 -19 -20 -21 -22 -23 -24 -25 -26 27 -28 -29 -30 -31
leaf_value=0.034422703544596769 0.0050106785686857705 0.0013027513183020232 0.018732678081926999 0.012962022694813842 0.010063458180893761 0.020815815082634574 -0.0027789273682187789 0.032010892410936909 0.018662142595589324 0.026659879494309872 0.018000957530033994 0.0035884737255716058 0.026527913077895669 0.025520162772385113 0.021782195533395221 0.014946235569631939 0.021106647156068147 0.012985371413246658 -0.0072849678759418857 0.014188588584616284 0.006579589180166932 0.0016079772316736766 0.029766692596968174 0.010698345355557802 0.034356801591732843 0.017343791040631187 0.0014198262302826581 0.023156252420383182 0.0062648314103120493 0.001410361482690885
leaf_weight=972.0869209356606 29.981879478320479 204.84062923491001 257.12371844612062 117.14230546914041 181.28916592802852 33.091849647462368 90.437869635410607 241.68519812822342 118.45995674468577 195.31646572984755 193.26046376209706 85.119141983799636 350.69130815193057 463.79139386303723 292.10460280254483 105.33288022875786 419.01550296507776 118.85209004674107 168.66763020213693 20.334885748103261 86.862832359038293 161.04384425189346 333.2511329408735 113.8820011401549 107.05592107027769 84.697775766253471 53.683893216773868 134.05563796404749 69.153313864953816 14.172501932829617
leaf_count=11254 1361 10721 7547 4070 7507 904 4949 3537 3783 4479 6268 4020 7209 9961 8000 3676 11465 4724 10807 825 3755 7994 5309 4524 1599 2623 2674 3608 2939 651
internal_value=0.0208697 0.0102838 0.0271717 0.0143998 0.0116907 0.0219847 0.00138717 0.0313677 0.00873918 0.0212268 0.0224363 0.0052549 0.0248633 0.0278001 0.0183225 0.015913 0.0236209 0.00914938 -0.00423409 0.000345457 0.0126685 0.00552285 0.0332654 0.0148641 0.0314005 0.0176503 0.00814543 0.0198999 0.0116179 0.0151969
internal_weight=5816.48 2172.1 3644.38 1483.85 1065.29 1633.57 688.252 2010.81 715.222 418.559 388.577 408.812 909.855 705.477 723.715 431.61 769.707 203.971 279.44 110.773 319.205 396.017 1305.34 232.342 140.148 350.068 234.973 232.926 174.486 98.8703
internal_count=162743 89343 73400 53297 41189 43339 36046 30061 30237 12108 10747 19465 21177 13498 22162 14162 18674 8744 16581 5774 12062 18175 16563 8307 2503 10952 10181 6882 6615 3274
is_linear=0
shrinkage=0.01


Tree=16
num_leaves=31
num_cat=0
split_feature=28 16 28 9 18 56 9 53 28 9 18 12 28 28 53 17 28 53 12 56 56 57 28 18 56 18 18 34 28 9
split_gain=3619.6 644.903 519.975 405.398 175.455 144.868 126.939 122.674 98.1176 97.4871 96.3883 95.2588 67.1764 62.9114 62.7472 60.2652 53.0821 51.3398 51.1727 48.6315 47.2184 41.4898 40.8604 40.6404 38.4603 38.0485 36.5346 34.6289 33.1401 32.7946
threshold=-0.394676108688161 4.5000000000000009 -1.0017398137944482 3.5000000000000004 0.033354160160316018 0.10012531328320803 2.5000000000000004 2.5000000000000004 0.91497154260502156 2.5000000000000004 0.029246489410819046 0.078500000000000014 -0.14264935053936026 0.27072807728494452 2.5000000000000004 3.3079166666666673 1.2990381056766545 1.5000000000000002 0.081500000000000017 0.10228725877702861 0.23816119245482129 0.22276159654800434 -1.3498527422930344 0.041989225250497933 0.26353970249319092 0.041804533816549715 0.038521793460696875 3.8166666666666669 -0.72627303920257213 4.5000000000000009
decision_type=8 8 10 2 8 8 2 10 8 2 10 2 10 10 10 10 8 10 2 8 10 8 10 10 10 10 10 10 10 2
left_child=2 3 10 5 9 13 -4 19 15 16 24 27 -13 23 -7 -6 -3 -17 -9 -8 -14 -10 -12 -2 -1 29 -15 -5 -21 -20
right_child=1 4 6 11 8 14 7 18 21 -11 22 12 20 26 -16 17 -18 -19 25 28 -22 -23 -24 -25 -26 -27 -28 -29 -30 -31
leaf_value=0.025132413362177721 0.021457073911015093 0.017381688329647125 0.03286168137301327 0.020438014671984025 -0.010464216848642457 0.025927640537173537 0.019451906523714844 0.024930437683456125 -0.005118235291632761 0.002918351857593727 0.035339936200147692 0.011753639065626766 0.0034919844635639091 0.011946202747559694 0.01873084519255807 0.016168355188517544 0.0079670517610421262 0.0043915687941251712 0.019507613134865986 0.028175801444563931 0.016065492360790502 0.0055157378927488529 0.030896626488947098 0.0099875713787625879 0.032342177654556006 0.021025946309668347 0 0.011356370800679239 0.023237891931587904 0.011865953612475083
leaf_weight=352.90107813663781 125.75348537135869 149.51055891532451 133.66774324886501 98.221778684295714 21.02440189756453 330.96691132988781 179.72827738150954 109.27615122683346 216.7639685915783 138.49642060790211 530.2242315299809 256.71322931349277 296.31177351810038 105.10722715687007 241.51603290438652 46.207684174180031 113.15908025298268 201.81866696011275 95.215224618092179 384.2684906385839 33.138298738747835 42.415229541249573 662.75555708631873 49.680680355988443 135.79510783031583 156.74178306292742 34.630962593480945 95.744286863133311 352.98035022616386 196.10640703514218
leaf_count=6818 3328 5063 2022 3004 1364 7444 4634 2550 12962 6893 5443 9764 13740 3661 7522 1706 4873 9914 2550 6818 1220 2127 9223 1796 1755 4204 1640 3676 8292 6827
internal_value=0.0203851 0.0115468 0.0273542 0.0152683 0.00484862 0.0199033 0.0232281 0.0223262 0.00103621 0.00982862 0.0312775 0.00996286 0.00789512 0.0142882 0.0229469 0.00527121 0.0134094 0.00668187 0.0184685 0.0246373 0.00483176 -0.00332502 0.0329078 0.0183408 0.0272182 0.0168182 0.00903526 0.0160877 0.0258599 0.0144559
internal_weight=5886.84 2597.18 3289.66 1667.78 929.396 887.655 1607.98 1474.32 528.23 401.166 1681.68 780.129 586.163 315.172 572.483 269.051 262.67 248.026 557.34 916.977 329.45 259.179 1192.98 175.434 488.696 448.063 139.738 193.966 737.249 291.322
internal_count=162833 101697 61136 56795 44902 25391 37897 35875 28073 16829 23239 31404 24724 10425 14966 12984 9936 11620 16131 19744 14960 15089 14666 5124 8573 13581 5301 6680 15110 9377
is_linear=0
shrinkage=0.01


Tree=17
num_leaves=31
num_cat=0
split_feature=19 28 19 9 10 27 27 27 54 13 54 55 9 28 55 54 54 19 18 28 56 58 28 39 55 19 56 56 27 26
split_gain=3496.1 911.797 569.998 339.697 224.425 208.687 143.83 106.492 97.614 63.9808 63.2099 60.2816 57.3098 60.4374 55.7283 55.4309 50.049 48.8067 41.0243 40.298 40.1746 40.0067 33.5491 33.3981 32.7207 31.8252 31.5753 31.1899 24.012 23.8004
threshold=0.044999999999999936 -0.79883121692340053 0.084999999999999978 3.5000000000000004 1.0000000180025095e-35 3.5000000000000004 1.5000000000000002 4.5000000000000009 0.85934065934065951 31.500000000000004 1.0790020790020793 0.2253968253968254 3.5000000000000004 0.8189230248533298 0.20000000000000007 1.3368794326241138 0.92605459057071982 0.13000000000000014 0.034016802570830479 -0.14264935053936026 0.027118955690384267 0.63730876966171091 -0.47001980982994535 110.50000000000001 0.28730158730158734 0.1199999999999999 0.15716674629718111 0.10147090633787585 4.5000000000000009 3.5555500000000007
decision_type=8 10 8 2 2 8 10 10 8 2 10 10 2 10 8 8 10 8 10 10 8 8 10 2 10 8 10 10 10 8
left_child=1 6 4 16 9 15 18 14 25 20 19 26 13 27 -6 22 28 21 -1 -7 -2 23 -5 -10 -22 -4 -8 -9 -3 -23
right_child=2 3 8 5 7 10 11 12 17 -11 -12 -13 -14 -15 -16 -17 -18 -19 -20 -21 24 29 -24 -25 -26 -27 -28 -29 -30 -31
leaf_value=0.028686956585607139 0.0034015845708311723 0.024762218467314547 -0.0015549889711558792 0.019448403298539876 0.015179949237698798 0.010836770154790572 0.024433861396287289 0.0061695048214848204 0.01569450821343504 0.025156578505302809 0.015469292920577917 0.020744135359559303 0.00092598995591073512 0.00037563543579339088 0.0065130268814399617 0.023124761385704053 0.028028649970175099 -0.0043195735041296167 0.032824974369263495 0.0024872880213775753 0.019280852493537021 0.0082519990367940187 0.013165495896185705 0.0023388398963059475 0.011372269908135817 -0.0081582097283522757 0.02965320222448126 0.015200647107469727 0.018444374349376486 0.030067890598583214
leaf_weight=540.70035066828132 28.066548730246723 198.00412117876112 170.08152749855071 294.82025193236768 255.85981089156121 167.42650928534567 289.39464777708054 72.698531014844775 22.352385028265417 97.637140500359237 206.44790268968791 212.07579442486167 186.68823087308556 70.26545575261116 114.37186139915138 329.24573366902769 384.7637219466269 47.706367251463234 863.98114841431379 94.491851480677724 174.30795599892735 14.014694754965605 153.21778445877135 112.57071254216135 94.859880147501826 134.18056038208306 373.63966861739755 100.29636261891574 143.03627536632121 10.334398831240831
leaf_count=8089 1160 4413 9371 7989 8332 6378 5855 3140 878 2454 6862 5213 9580 3458 4845 7518 7210 2885 9561 4605 5282 594 5333 5520 3643 8477 5850 3621 4306 275
internal_value=0.0200217 0.0248755 0.00791523 0.0198581 0.0116935 0.0166384 0.0291993 0.00860675 -0.000902742 0.0178858 0.0112743 0.025847 0.00516308 0.00835675 0.0125543 0.0198391 0.0253395 0.00435833 0.0312608 0.00788349 0.0153876 0.00703073 0.0173562 0.0047242 0.0165831 -0.00451698 0.0274304 0.0115202 0.0222033 0.0187266
internal_weight=5957.54 4251.25 1706.29 1971.45 1195.05 1245.65 2279.79 800.18 511.241 394.872 468.366 875.11 429.949 243.26 370.232 777.284 725.804 206.979 1404.68 261.918 297.234 159.272 448.038 134.923 269.168 304.262 663.034 172.995 341.04 24.3491
internal_count=162697 89182 73515 54614 45515 38685 34568 32976 28000 12539 17845 16918 19799 10219 13177 20840 15929 10152 17650 10983 10085 7267 13322 6398 8925 17848 11705 6761 8719 869
is_linear=0
shrinkage=0.01


Tree=18
num_leaves=31
num_cat=0
split_feature=28 28 28 9 18 54 10 54 28 9 18 18 28 12 54 18 28 55 54 56 54 18 12 57 12 56 18 10 18 56
split_gain=3365.11 519.787 401.948 391.517 254.929 165.521 137.924 132.658 127.929 81.4002 81.2473 75.4428 72.1185 71.3495 64.6547 60.1023 56.7306 51.798 45.8539 44.3922 42.5779 39.5064 39.4538 38.6167 36.9722 36.4068 34.2271 30.8244 30.2263 30.2904
threshold=-0.43241825121604111 0.77274607003667539 -1.1094003924504479 3.5000000000000004 0.033266599866332493 0.61651583710407254 1.0000000180025095e-35 1.3368794326241138 -1.0000000180025095e-35 4.5000000000000009 0.033266599866332493 0.046827952580239383 -0.75813652813936894 0.080500000000000016 0.82555780933062894 0.034016802570830479 -0.052270837348932793 0.38750000000000007 1.8708333333333338 0.26353970249319092 1.1383577052868394 0.040970372570571519 0.076500000000000012 0.23739406779661018 0.097500000000000017 0.047678870543192156 0.057763887219150149 1.0000000180025095e-35 0.10458904788152898 0.087010599178022938
decision_type=8 8 10 2 10 10 2 10 10 2 8 8 10 2 8 10 10 10 8 10 8 10 2 8 2 8 8 2 8 8
left_child=2 3 15 5 6 11 17 9 13 -4 27 -2 21 -5 -6 19 -12 25 -15 -1 -10 -11 -8 -16 -14 -3 -22 -7 29 -18
right_child=1 4 7 8 14 10 22 -9 20 12 16 -13 24 18 23 -17 28 -19 -20 -21 26 -23 -24 -25 -26 -27 -28 -29 -30 -31
leaf_value=0.025764911116835092 0.015298436347351592 0.0050336501551093912 0.024849749694038914 0.018870641635662381 -0.0056601255294410407 0.028048170096027284 0.0096251843273060453 0.026333592639620537 0.0023456495192437838 0.018481472588489416 0.023904559703493033 0.0041945239831374425 0.016812254912291661 0.0084124605942444784 0.00037881459466444691 0.032391361388653478 0.0073568879130090949 0.0033279516930783226 0.017330219256716021 0.032351565242006573 0.010168969905118546 0.025468309458195445 -0.0011435169315904996 0.013911222475137673 0.0081886018001161472 0.017341900799174217 -0.0056641616432501164 0.021198904453482145 -0.0078764858638780133 0.017066809932496405
leaf_weight=448.49173312447965 302.42626479454339 31.322257004678249 352.37826064787805 139.0894381608814 208.69062586408108 180.07438119500875 46.688764227554202 814.21368280053139 242.49863364640623 233.7320138271898 91.121967075392604 81.159579113125801 223.58636412583292 301.53595497272909 101.99203731492162 791.05096593685448 50.697053320705891 43.062738770619035 76.285389119759202 187.59080380760133 163.01888255961239 170.72093251720071 114.04226973280311 26.173678020015359 74.60320639796555 193.31092140171677 13.425484363920985 175.07977216690779 5.0494820512831202 134.31594533007592
leaf_count=7643 9988 1306 7154 4205 12555 3436 1955 14477 11964 5920 2050 3708 6586 12184 5348 8495 2000 1964 2367 2114 6386 3270 5799 1057 2752 6184 785 4524 329 4333
internal_value=0.0195197 0.0112761 0.0263159 0.0140116 0.00426302 0.0183092 0.00937649 0.0232085 0.00930282 0.0207646 0.0214732 0.0129921 0.0186693 0.0126431 -0.00221941 0.0303599 0.0172023 0.0137667 0.0102804 0.0277708 0.00513726 0.0215108 0.00196289 0.00330609 0.0147227 0.0156999 0.00888275 0.0247688 0.0138284 0.0145137
internal_weight=6017.43 2721.06 3296.37 1955.78 765.283 1019.92 428.427 1869.23 935.854 1055.02 636.339 383.586 702.643 516.911 336.856 1427.13 281.184 267.696 377.821 636.083 418.943 404.453 160.731 128.166 298.19 224.633 176.444 355.154 190.062 185.013
internal_count=162838 104427 58411 68259 36168 30368 17208 40159 37891 25682 16672 13696 18528 18756 18960 18252 8712 9454 14551 9757 19135 9190 7754 6405 9338 7490 7171 7960 6662 6333
is_linear=0
shrinkage=0.01


Tree=19
num_leaves=31
num_cat=0
split_feature=19 16 19 9 27 10 55 55 54 54 12 9 19 32 27 58 55 19 16 45 31 27 27 56 45 55 17 56 27 56
split_gain=3234.86 865.993 480.562 234.538 236.044 195.458 101.067 100.506 96.8797 91.0639 59.0293 53.1714 52.1641 50.8504 42.8435 42.7893 40.4777 35.935 35.8968 34.8829 34.6923 33.1947 29.0253 28.2878 26.9193 26.1525 25.4595 25.1447 24.4645 24.4414
threshold=0.044999999999999936 1.5000000000000002 0.084999999999999978 2.5000000000000004 2.5000000000000004 1.0000000180025095e-35 0.20000000000000007 0.13888888888888892 0.99218750000000022 1.3924263674614308 0.078500000000000014 4.5000000000000009 0.13000000000000014 0.10172413793103451 2.5000000000000004 0.63730876966171091 0.21111111111111117 0.10499999999999977 3.5000000000000004 1.0000000180025095e-35 0.38750000000000007 4.5000000000000009 4.5000000000000009 0.012232530300763133 15.000000000000002 0.55277777777777792 3.3726785714285721 0.23538406188163341 6.5000000000000009 0.10012531328320803
decision_type=8 10 8 2 8 2 8 10 8 8 2 2 8 8 10 8 10 8 10 2 10 8 8 10 2 10 10 10 10 10
left_child=1 9 5 24 16 13 10 21 17 14 -7 29 15 28 -1 -10 -5 26 -12 -15 -8 23 -13 -6 -3 -22 -4 -11 -2 -9
right_child=2 3 8 4 7 6 20 11 12 27 18 22 -14 19 -16 -17 -18 -19 -20 -21 25 -23 -24 -25 -26 -27 -28 -29 -30 -31
leaf_value=0.027094158323368998 0.015660206792677118 0.020213312765290824 -0.0061211220191592051 0.023739157434920149 0.0050335774466679986 0.0159683609336362 -0.00038417360526880775 0.010835193806784176 0.005303813503164603 0.029047686361481792 0.012695168768294178 0.01146862481960665 -0.0044348087494477549 0.0030984076380044714 0.020446957020007966 0.019861811183529754 0.017907136749954946 -0.0067806860305615535 0.0059462301235628 0.021687993309638935 0.0080468114139788764 0.013928757887133348 0.0047989447431154046 0.020728448109994441 0.027899077193423803 -0.004297172620539436 0.0029417777806707186 0.032975316114806995 0.007868566656084857 0.017708889379255514
leaf_weight=789.99972334504128 133.36716456059366 81.575146339833736 45.196904746815562 593.17780640535057 14.399964885786174 156.88878518529236 132.87582918815315 92.746401379816234 121.91351216379553 663.11610971204937 130.79844904039055 236.59242924395949 42.463271343149245 12.415525322780011 146.25701271928847 24.656798402778804 193.93171400204301 183.78511528018862 231.08445906452835 181.12771303299814 135.11945000104606 143.38075995538384 101.35794880706817 354.16271731071174 336.62010270729661 17.887483859434724 93.179933810606599 435.81364863552153 72.095160610042512 194.92430531978607
leaf_count=12011 4135 2030 2624 12150 504 5183 6599 3180 5654 8343 4386 8478 2575 571 3285 826 5280 11468 9904 4829 5831 4704 4567 8769 6101 969 4719 4133 2992 5788
internal_value=0.0192146 0.0237754 0.00755785 0.0195985 0.0180861 0.0110057 0.00812655 0.0151172 -0.000546551 0.0285669 0.0107633 0.0123383 0.00509778 0.0167521 0.0260894 0.00793859 0.0223395 -0.00389492 0.00844138 0.020569 0.00328613 0.0184631 0.00951782 0.0201576 0.0264755 0.00652026 0 0.030643 0.013026 0.0155726
internal_weight=6092.91 4378.06 1714.86 2342.87 1924.67 1203.66 804.654 1137.56 511.196 2035.19 518.772 625.621 189.034 399.006 936.257 146.57 787.11 322.162 361.883 193.543 285.883 511.943 337.95 368.563 418.195 153.007 138.377 1098.93 205.462 287.671
internal_count=162588 89323 73265 61551 53420 45399 32872 35990 27866 27772 19473 22013 9055 12527 15296 6480 17430 18811 14290 5400 13399 13977 13045 9273 8131 6800 7343 12476 7127 8968
is_linear=0
shrinkage=0.01


Tree=20
num_leaves=31
num_cat=0
split_feature=19 28 19 9 10 28 28 55 54 13 28 19 12 12 54 56 12 54 54 18 19 9 28 56 28 12 12 9 18 58
split_gain=3003.46 824.639 501.06 291.49 178.922 138.515 124.19 115.211 86.6695 81.5265 73.805 70.5608 68.1039 58.5662 54.2978 53.0207 50.3189 46.946 42.5243 41.3558 40.4186 40.2052 42.7417 36.0724 34.0926 33.9286 33.4342 32.5924 52.1478 30.2427
threshold=0.044999999999999936 -0.79883121692340053 0.090000000000000094 4.5000000000000009 1.0000000180025095e-35 -0.35639322248362021 -1.1846977555181792 0.20000000000000007 0.72570532915360519 31.500000000000004 0.46573142025551234 0.13000000000000014 0.091500000000000012 0.081500000000000017 1.3879598662207362 0.027118955690384267 0.076500000000000012 0.99218750000000022 0.94427244582043357 0.029246489410819046 0.069999999999999632 2.5000000000000004 -0.22140372138502634 0.26353970249319092 -0.21182963643407673 0.080500000000000016 0.070500000000000021 4.5000000000000009 0.02984084768360647 0.63730876966171091
decision_type=8 10 8 2 2 10 10 8 10 2 10 8 2 2 10 8 2 8 8 10 10 2 10 10 10 2 2 2 10 8
left_child=1 6 4 8 9 12 19 10 24 15 16 17 -5 -7 27 -2 -6 -4 -14 -1 -17 -10 -23 -15 -3 -22 -9 -8 -29 -19
right_child=2 3 11 5 7 13 14 26 21 -11 -12 -13 18 23 -16 20 -18 29 -20 -21 25 22 -24 -25 -26 -27 -28 28 -30 -31
leaf_value=0.026237436918840524 0.00055370041532928362 0.020967039469857254 -0.0020652216837674709 0.019690303721258857 0.02007169125902097 0.01483397726679761 0.026948543644125633 0.012355880780276217 0.027609575299166661 0.02354646762664369 0.0052527497603576372 -0.0076172789443845271 0.0081894040360736085 0.0034214809341531365 0.027111367399386528 0.018146660043159426 0.011075683767900343 0.0035479634346801338 0.016528076232829862 0.03080277002891477 0.016102450394564753 0.024497383603637166 0.017167988160879732 0.016564715557235883 0.014643111920711429 0.0056741579341813347 0.0017561604889354105 0.014561377106430807 0.022866727713212777 0.017514463742175818
leaf_weight=387.91768403165042 31.349340593442321 220.11443368718028 185.01988125499338 377.38503993302584 87.566426393575966 96.355255229398608 142.75097335875034 33.18922021239996 262.83835160918534 109.61120994575322 175.95740487519652 136.73423775006086 122.15162551775575 170.96157249063253 534.33765061758459 158.00630167406052 284.78085728455335 95.858166731894016 146.82101590186357 862.10289156250656 58.703276081942022 276.62307424470782 147.48187447246164 23.73590977024287 189.90592726599425 78.203860688954592 270.3551610102877 118.35189598985016 331.39688206836581 18.595770973712206
leaf_count=5895 1351 5251 10471 9353 2473 3209 2321 1319 4484 2722 7704 8719 4453 7502 7588 4491 10318 4601 3950 9109 1998 5523 4220 787 6015 3344 12989 3158 6399 644
internal_value=0.0187627 0.0231373 0.00755598 0.0184294 0.0106928 0.0142736 0.0271532 0.00798663 0.0219554 0.0159282 0.010727 -0.00168449 0.0168721 0.00843092 0.0246103 0.0132741 0.0132662 0.00100736 0.0128225 0.0294161 0.0145861 0.0242093 0.0220185 0.00515135 0.0181051 0.0103025 0.00298472 0.0222959 0.0207405 0.00603582
internal_weight=6135.16 4411.23 1723.93 2034.37 1287.72 937.41 2376.86 851.849 1096.96 435.874 548.305 436.208 646.358 291.053 1126.84 326.263 372.347 299.474 268.973 1250.02 294.913 686.943 424.105 194.697 410.02 136.907 303.544 592.5 449.749 114.454
internal_count=162361 89217 73144 54747 48709 29254 34470 34803 25493 13906 20495 24435 17756 11498 19466 11184 12791 15716 8403 15004 9833 14227 9743 8289 11266 5342 14308 11878 9557 5245
is_linear=0
shrinkage=0.01


end of trees

feature_importances:
trial_time_zscore=89
relative_win_strength=72
trial_time_diff_from_best=68
predicted_race_time_rank=60
post_position=55
field_trial_std=47
rider_track_win_rate=39
trial_deviation=28
handicap_meters=26
gap_to_top_rival=26
handicap_rank=14
rider_wet_win_rate=14
trial_time_rank=13
field_avg_trial=13
generation=11
form_rank_in_field=11
handicap_range_in_field=8
top3_rate_10=4
rider_wet_top3_rate=4
trial_time=3
avg_trial_time_90d=3
top2_rate_10=3
win_rate_30=3
race_number=2
predicted_race_time=2
predicted_vs_handicap=2
temperature=1
track_temperature=1
trial_vs_avg_90d=1
computed_trial_deviation=1
top3_rate_30=1
avg_finish_10=1
avg_finish_30=1
total_races=1
handicap_group=1
handicap_vs_trial=1

parameters:
[boosting: gbdt]
[objective: binary]
[metric: binary_logloss]
[tree_learner: serial]
[device_type: cpu]
[data_sample_strategy: bagging]
[data: ]
[valid: ]
[num_iterations: 2000]
[learning_rate: 0.01]
[num_leaves: 31]
[num_threads: 0]
[seed: 42]
[deterministic: 0]
[force_col_wise: 0]
[force_row_wise: 0]
[histogram_pool_size: -1]
[max_depth: -1]
[min_data_in_leaf: 100]
[min_sum_hessian_in_leaf: 0.001]
[bagging_fraction: 0.8]
[pos_bagging_fraction: 1]
[neg_bagging_fraction: 1]
[bagging_freq: 1]
[bagging_seed: 400]
[bagging_by_query: 0]
[feature_fraction: 0.8]
[feature_fraction_bynode: 1]
[feature_fraction_seed: 30056]
[extra_trees: 0]
[extra_seed: 12879]
[early_stopping_round: 0]
[early_stopping_min_delta: 0]
[first_metric_only: 0]
[max_delta_step: 0]
[lambda_l1: 1]
[lambda_l2: 1]
[linear_lambda: 0]
[min_gain_to_split: 0]
[drop_rate: 0.1]
[max_drop: 50]
[skip_drop: 0.5]
[xgboost_dart_mode: 0]
[uniform_drop: 0]
[drop_seed: 17869]
[top_rate: 0.2]
[other_rate: 0.1]
[min_data_per_group: 100]
[max_cat_threshold: 32]
[cat_l2: 10]
[cat_smooth: 10]
[max_cat_to_onehot: 4]
[top_k: 20]
[monotone_constraints: ]
[monotone_constraints_method: basic]
[monotone_penalty: 0]
[feature_contri: ]
[forcedsplits_filename: ]
[refit_decay_rate: 0.9]
[cegb_tradeoff: 1]
[cegb_penalty_split: 0]
[cegb_penalty_feature_lazy: ]
[cegb_penalty_feature_coupled: ]
[path_smooth: 0]
[interaction_constraints: ]
[verbosity: -1]
[saved_feature_importance_type: 0]
[use_quantized_grad: 0]
[num_grad_quant_bins: 4]
[quant_train_renew_leaf: 0]
[stochastic_rounding: 1]
[linear_tree: 0]
[max_bin: 255]
[max_bin_by_feature: ]
[min_data_in_bin: 3]
[bin_construct_sample_cnt: 200000]
[data_random_seed: 175]
[is_enable_sparse: 1]
[enable_bundle: 1]
[use_missing: 1]
[zero_as_missing: 0]
[feature_pre_filter: 1]
[pre_partition: 0]
[two_round: 0]
[header: 0]
[label_column: ]
[weight_column: ]
[group_column: ]
[ignore_column: ]
[categorical_feature: 0,2,3,7]
[forcedbins_filename: ]
[precise_float_parser: 0]
[parser_config_file: ]
[objective_seed: 16083]
[num_class: 1]
[is_unbalance: 1]
[scale_pos_weight: 1]
[sigmoid: 1]
[boost_from_average: 1]
[reg_sqrt: 0]
[alpha: 0.9]
[fair_c: 1]
[poisson_max_delta_step: 0.7]
[tweedie_variance_power: 1.5]
[lambdarank_truncation_level: 30]
[lambdarank_norm: 1]
[label_gain: ]
[lambdarank_position_bias_regularization: 0]
[eval_at: ]
[multi_error_top_k: 1]
[auc_mu_weights: ]
[num_machines: 1]
[local_listen_port: 12400]
[time_out: 120]
[machine_list_filename: ]
[machines: ]
[gpu_platform_id: -1]
[gpu_device_id: -1]
[gpu_use_dp: 0]
[num_gpu: 1]

end of parameters

pandas_categorical:[]
