tree
version=v4
num_class=1
num_tree_per_iteration=1
label_index=0
max_feature_idx=110
objective=rank_xendcg
feature_names=track_id race_number track_condition weather temperature humidity track_temperature grade distance post_position handicap_meters trial_time trial_deviation generation is_home_track rider_age trial_time_rank field_avg_trial field_trial_std trial_time_diff_from_best avg_trial_time_30d avg_trial_time_90d trial_time_trend trial_vs_avg_90d computed_trial_deviation trial_deviation_trend predicted_race_time predicted_race_time_rank trial_time_zscore win_rate_10 top2_rate_10 top3_rate_10 win_rate_30 top3_rate_30 avg_finish_10 avg_finish_30 finish_std_10 momentum days_since_last_race total_races avg_start_timing_10 avg_start_timing_30 start_timing_consistency finish_position_prev1 race_time_prev1 start_timing_prev1 handicap_prev1 track_id_prev1 is_wet_prev1 finish_position_prev2 race_time_prev2 start_timing_prev2 handicap_prev2 track_id_prev2 is_wet_prev2 finish_position_prev3 race_time_prev3 start_timing_prev3 handicap_prev3 track_id_prev3 is_wet_prev3 finish_position_prev4 race_time_prev4 start_timing_prev4 handicap_prev4 track_id_prev4 is_wet_prev4 finish_position_prev5 race_time_prev5 start_timing_prev5 handicap_prev5 track_id_prev5 is_wet_prev5 form_score prev_best_finish prev_worst_finish prev_win_count prev_top3_count ewm_race_time prev_best_time prev_time_std ewm_start_timing finish_improvement handicap_rank field_size handicap_range_in_field handicap_group handicap_vs_trial is_wet_condition predicted_vs_handicap field_avg_win_rate field_max_win_rate field_avg_finish form_rank_in_field relative_win_strength gap_to_top_rival rider_track_win_rate rider_wet_win_rate rider_wet_top3_rate race_month time_zscore_prev1 time_zscore_prev2 time_zscore_prev3 time_zscore_prev4 time_zscore_prev5 rest_interval_group st_vs_field_avg st_rank_in_field temp_x_condition humidity_x_condition home_x_track_wr
feature_infos=-1:2:5:3:6:4 [1:12] -1:0:1:3:4 -1:0:1:3:2:7 [0:39] [0:99] [0:65] none none [1:8] [0:80] [3.2000000000000002:4.3899999999999997] [0:0.217] [2:38] none none [1:8] [3.2662499999999999:4.1385714285714288] [0:0.17274258305351359] [0:0.50999999999999979] [3.23:4.0300000000000002] [3.2696666666666667:4] [-0.44999999999999929:0.48000000000000043] [-0.58000000000000007:0.92441176470588182] [0.0028000000000000026:0.21069999999999997] [-0.21300000000000002:0.16230000000000008] [3.3057000000000003:4.4685999999999995] [1:8] [-2.3909551787238956:2.4517705565139374] [0:1] [0:1] [0:1] [0:1] [0:1] [1:9] [1:9] [0:4.9497474683058327] [-5.9999999999999982:6.9999999999999982] [1:860] [0:768] [0.01:0.42999999999999999] [0.01:0.42999999999999999] [0:0.22920151250228116] [1:8] [3.3039999999999998:4.4189999999999996] [0.01:0.81000000000000005] [0:90] -1:2:5:3:6:4 [0:1] [1:8] [3.3039999999999998:4.4009999999999998] [0.01:0.81000000000000005] [0:90] -1:2:5:3:6:4 [0:1] [1:8] [3.3039999999999998:4.4189999999999996] [0.01:0.81000000000000005] [0:90] -1:2:5:3:6:4 [0:1] [1:8] [3.3039999999999998:4.4189999999999996] [0.01:0.81000000000000005] [0:90] -1:2:5:3:6:4 [0:1] [1:8] [3.3039999999999998:4.4189999999999996] [0.01:0.81000000000000005] [0:90] -1:2:5:3:6:4 [0:1] [1:8] [1:8] [1:8] [0:5] [0:5] [3.3236774193548384:4.1602258064516136] [3.3039999999999998:3.984] [0:0.40154680922652092] [0.01:0.51645161290322583] [-7:7] [1:7] [5:8] [0:90] [0:4] [0:4294967295] [0:1] [0:4294967295] [0:0.5] [0:1] [2.0249999999999999:6.4428571428571431] [1:7] [0:8] [0:1] [0:1] [0:0.83333333333333337] [0:1] [1:12] [-1.2696191075974264:1.269710758897044] [-2.0465753207503243:2.0473768742091258] [-2.3408330126668648:2.3403411278090989] [-2.4736832860730633:2.4747676718750382] [-2.5390771325080004:2.5392470310235331] [0:4] [-0.17314285714285718:0.22599999999999998] [1:8] [0:128] [0:368] none
tree_sizes=7041 6989 7022 7014 7029 7030 7024 7044 7044 7074 7036 7065 7055 7090 7062 7113 7102 7082 7083 7087 7090 7114 7113 7129 7101 7151 7149 7122 7143 7131 7117 7122 7150 7130 7148 7125 7162 7120 7124 7143 7157 7161 7146 7103 7122 7148 7144 7155 7126 7152 7128 7137 7160 7131 7140 7163 7157 7144 7178 7161 7204 7159 7166 7172 7160 7134 7162 7135 7170 7128 7171 7181 7174 7157 7156 7168 7165 7137 7156 7173 7184 7166 7167 7147 7184 7171 7145 7183 7174 7144 7166 7125 7184 7120 7143 7165 7144 7132 7151 7147 7157 7180 7163 7150 7201 7152 7148 7128 7146 7134 7151 7193 7175 7176 7158 7140 7165 7165 7134 7174 7163 7161 7129 7166 7169 7163 7207 7140 7116 7141 7172 7159 7172 7169 7156 7115 7146 7117 7141 7141 7134 7157 7117 7112 7101 7129 7136 7151 7121 7138 7118 7137 7111 7106 7120 7081 7106 7139 7151

Tree=0
num_leaves=63
num_cat=0
split_feature=28 19 28 9 86 28 28 27 96 18 28 94 9 19 9 12 28 85 84 84 18 27 96 28 28 86 35 32 34 18 12 35 27 84 84 84 94 85 9 18 31 84 18 94 86 18 94 34 32 12 18 35 28 33 84 84 12 73 28 24 94 28
split_gain=476.426 96.6188 68.8417 27.4326 19.7725 21.8949 18.1519 13.5837 11.0867 9.71629 7.69491 7.08772 6.62699 6.03339 5.96229 4.92618 4.6343 4.61646 5.35508 4.53518 4.02202 3.9089 3.863 3.822 3.81752 3.38547 3.21343 2.96531 2.84514 2.6584 2.65448 2.45038 2.30288 2.25355 2.21428 2.17068 2.14793 2.12276 2.10405 2.03696 1.88658 1.82051 1.81036 1.79563 1.78908 1.78804 1.77837 1.71542 1.70247 1.62496 1.55403 1.52144 1.50163 1.49976 1.48501 1.45032 1.44415 1.43854 1.43852 1.39829 1.30119 1.27961
threshold=-0.62924535808410409 0.060000000000000282 -1.1542128084574232 7.5000000000000009 1.0000000180025095e-35 -0.18244870523563847 1.0223972648864981 1.5000000000000002 0.33079814921920186 0.033523268393900914 0.64123229939594018 1.2727272727272732 3.5000000000000004 0.10499999999999977 3.5000000000000004 0.081500000000000017 0.34159945599740138 1.0000000180025095e-35 7.5000000000000009 7.5000000000000009 0.030705978943149592 3.5000000000000004 0.31905722670579612 -1.4142135623730929 -1.0000000180025095e-35 1.0000000180025095e-35 2.5690476190476197 0.30217391304347835 3.9500000000000006 0.034226138716317057 0.090500000000000011 3.5375000000000001 4.5000000000000009 7.5000000000000009 6.5000000000000009 6.5000000000000009 0.70087719298245632 1.0000000180025095e-35 4.5000000000000009 0.028784916685157039 0.47222222222222227 6.5000000000000009 0.02722262714308513 2.6186224489795924 1.0000000180025095e-35 0.030605010483034815 1.5067567567567568 4.1214285714285728 0.13484848484848486 0.090500000000000011 0.023299294900428744 3.5690476190476197 -0.90958733581045614 0.62828947368421062 6.5000000000000009 6.5000000000000009 0.078500000000000014 4.9193548387096788 -0.44232586846468069 0.085400000000000045 0.94427244582043357 0.36628061740041012
decision_type=8 8 10 2 2 8 8 10 10 10 10 10 2 8 2 2 10 2 2 2 10 8 10 10 10 2 10 8 10 10 2 10 10 2 2 2 8 2 2 10 10 2 10 10 2 10 10 8 8 2 10 8 10 10 2 2 2 10 10 8 8 10
left_child=2 4 3 9 10 14 24 19 20 22 17 30 16 44 34 60 35 46 48 29 53 -14 36 54 -3 33 -13 39 -17 -4 -9 -22 -20 -26 -6 -7 -1 -12 -32 -21 -23 -39 -10 59 -8 -40 -2 -27 -19 -36 -38 -25 -28 -5 -11 -31 -18 -35 -30 -37 -16 -42
right_child=1 6 7 8 5 12 13 11 42 23 37 26 21 -15 15 28 56 18 32 27 31 40 -24 51 25 47 52 -29 58 55 38 -33 -34 57 49 43 50 41 45 -41 61 -43 -44 -45 -46 -47 -48 -49 -50 -51 -52 -53 -54 -55 -56 -57 -58 -59 -60 -61 -62 -63
leaf_value=0.020251165511164734 -0.0067869474287887421 -0.005142536103836812 0.014999723232071029 0.040709710943480269 -0.0028563170751693852 -0.015871552104851316 -0.024185826959778792 0.018516456290414908 0.08737318839688589 0.045909949477311043 -0.020388353224802095 0.057460186500484914 -0.0085767779069864936 -0.040186216084164228 0.0016591105543697596 0.00097201302089014365 -0.0048044492132265923 0.0036688599653595154 0.043966443710116376 0.025970150073586825 0.098157298333658799 -0.024884297688619137 0.060771258987959431 0.058890316597142049 -0.019378323390089259 -0.018833978934338889 0.030280002054476948 0.072719349491617166 -0.0041734587995003163 0.020988712917397623 0.016499160541625434 0.067269234564091465 0.023344568973292859 0.0031254979734138505 0.026110756328826725 0.0088049984138843882 0.025626764266508163 -0.020214683951381974 -0.0052723179407301521 0.047085868249940349 -0.012298925270449746 0.0036404363384575466 0.11891940711377819 0.029900678494349426 -0.034250495620020582 0.0078990491699525954 0.02270220459852719 -0.026607484022191555 0.022134456424550752 0.010241669299503077 0.041251113232194714 0.041935935984168164 0.019182333580925783 0.070363605958539688 0.070979860868411557 0.038164883090834469 -0.018415347098936018 -0.015271803620475345 -0.013166205239957547 -0.0037212053395998014 0.013923821064706885 -0.02384869017998038
leaf_weight=37.25754196383059 25.493750296533111 42.921873707324266 31.296734735369682 15.010230090469124 17.798073999583721 20.252669475972652 123.89019537717104 71.365934271365404 6.6257618367671993 7.2614725008606902 14.506471853703259 7.1474183201789847 78.537216728553176 199.16397948004305 38.782533073797822 120.04339593090117 25.792075257748365 37.764820173382759 22.483196433633566 17.025762811303139 9.8544532060623187 152.27916522324085 11.205816481262444 18.222633605822921 59.50613665021956 117.14083689451218 46.808165721595287 8.0718449652194959 83.196895334869623 17.513084568083286 41.588981674984097 18.427786964923143 34.027126345783472 25.828895132988691 28.153776582330465 33.501377219334245 25.917420331388712 9.1722594015300256 39.304293284192681 34.695582956075668 70.641307795420289 62.458958677947521 14.502046249806879 5.4678281694650641 68.604592595249414 74.808406226336956 6.3949930854141703 180.06234797090292 18.644821809604764 37.77775333635509 41.234705021604896 48.317490832880139 87.391438225284219 5.9555742144584647 31.666551494970918 41.208337616175413 79.739729076623917 18.051865767687559 95.537101024761796 66.509606994688511 48.883377183228731 36.306570086628199
leaf_count=2320 1743 2660 1796 1024 903 1030 7748 4482 448 366 990 473 4873 12322 2422 7588 1607 2159 1532 1161 676 9755 707 1090 3415 7286 2946 550 5230 892 2568 1262 2322 1770 1778 2129 1628 461 2537 2379 4537 4037 997 348 4342 4707 436 11192 1068 2402 2537 2908 5483 407 1962 2454 5016 1237 6043 4255 3032 2335
internal_value=-0.000496105 -0.0130318 0.0320987 0.0515393 -0.00434612 -0.00728702 -0.0262411 0.021165 0.0787275 0.0428847 0.00888716 0.016003 -0.0138841 -0.0340852 0.000697145 -0.00192372 -0.00736311 0.0159262 0.0206704 0.0338595 0.0657291 -0.018349 0.0328733 0.0538593 -0.0193141 -0.0208326 0.024793 0.0445337 -0.00498162 0.0267694 0.0105313 0.0780316 0.0315492 -0.0130392 0.0127934 -0.000878586 0.0298791 -0.00294644 0.00687131 0.0401349 -0.0213096 0.000585828 0.109026 0.00200017 -0.0277728 0.00336238 -0.00087317 -0.0235436 0.00977221 0.017018 0.0352209 0.0465791 0.0230531 0.0491332 0.0663034 0.0330423 -0.0150888 -0.00444287 -0.00898027 0.000474785 0.00849803 -0.0162198
internal_weight=2915 2105.32 809.685 291.459 1270.15 1039.2 835.171 518.226 70.3759 221.084 230.946 368.415 569.028 391.659 470.173 386.443 231.263 144.809 112.92 149.811 49.248 337.764 115.615 105.468 443.512 400.59 141.347 59.7932 298.777 90.0182 227.068 28.2822 56.5103 103.387 83.7296 125.731 104.41 86.1377 155.702 51.7213 259.227 71.6312 21.1278 105.479 192.495 114.113 31.8887 297.203 56.4096 65.9315 67.1521 66.5401 134.2 20.9658 38.928 58.7214 105.532 43.8808 178.734 100.011 87.6659 106.948
internal_count=182763 132003 50760 18332 80031 65283 51972 32428 4814 13518 14748 23196 35885 24412 29398 24315 14385 9260 7081 9232 3369 21500 7192 6326 27560 24900 8902 4090 18861 5142 14294 1938 3854 6422 5083 7762 6485 5488 9812 3540 16627 4498 1445 6732 12090 7244 2179 18478 3227 4180 4165 3998 8429 1431 2328 3346 6623 3007 11273 6384 5454 6872
is_linear=0
shrinkage=0.05


Tree=1
num_leaves=63
num_cat=0
split_feature=28 19 28 9 10 28 28 94 28 94 18 9 28 12 94 9 19 35 12 35 28 28 84 28 28 46 85 84 28 96 84 18 34 84 18 73 10 28 28 12 9 28 18 94 12 18 24 31 12 9 74 9 12 18 84 13 94 28 18 97 12 94
split_gain=428.378 80.1208 71.1775 22.6067 16.961 21.3242 12.2808 12.091 10.6363 9.08225 8.87116 7.33278 6.46657 6.21702 5.81972 4.87909 4.40093 4.11668 4.01304 3.45082 3.33415 3.29426 2.9895 2.87275 2.8042 2.66559 2.51351 3.45998 2.5118 2.44486 2.40675 2.30432 2.06542 2.05873 1.94329 1.89794 1.82051 1.79967 1.79448 1.77108 1.72563 1.6482 1.54195 1.53957 1.50569 1.49098 1.458 1.40929 1.40323 1.40203 1.38865 1.38032 1.3689 1.35889 1.3531 1.34965 1.30164 1.26884 1.24643 1.21566 1.20557 1.14966
threshold=-0.53781592427630753 0.079999999999999863 -1.1242374190695077 7.5000000000000009 1.0000000180025095e-35 1.0000000180025095e-35 1.0223972648864981 0.9545454545454547 0.86602540378443138 1.7405329593267886 0.03359421718944245 3.5000000000000004 -0.87701946984788415 0.080500000000000016 1.0467391304347828 3.5000000000000004 0.115 2.7416666666666671 0.096500000000000016 2.9833333333333338 0.62453835277995384 -1.3686300260290187 7.5000000000000009 -0.33735959998733955 -0.90958733581045614 15.000000000000002 1.0000000180025095e-35 7.5000000000000009 -1.3686300260290187 0.29790877295249202 6.5000000000000009 0.030705978943149592 4.1214285714285728 7.5000000000000009 0.036645015252516185 2.6935483870967745 1.0000000180025095e-35 0.46573142025551234 0.061046769566732002 0.087500000000000008 3.5000000000000004 0.32969023669790137 0.030605010483034815 0.85934065934065951 0.068500000000000019 0.02360387377408343 0.066700000000000023 0.47222222222222227 0.090500000000000011 1.5000000000000002 2.5000000000000004 7.5000000000000009 0.080500000000000016 0.026958963523950958 6.5000000000000009 28.500000000000004 1.0923295454545456 -1.0000000180025095e-35 0.042594432902501624 inf 0.077500000000000013 1.4058823529411768
decision_type=8 8 10 2 2 10 8 8 10 8 10 2 10 2 10 2 8 10 2 10 10 10 2 10 10 10 2 2 10 8 2 10 10 2 10 10 2 10 10 2 2 10 10 10 2 10 10 10 2 2 10 2 2 10 2 2 10 10 10 8 2 8
left_child=2 4 3 10 8 11 33 18 14 31 17 22 19 -13 26 20 46 -1 24 51 30 54 43 50 53 49 -2 -28 45 -11 -7 -5 -32 57 55 59 -35 44 -29 -27 -20 -38 -42 -6 -17 -19 -8 -25 -24 -14 -15 -9 -26 -4 -12 -21 -10 -3 -54 -16 -22 -30
right_child=1 6 7 9 5 15 16 12 56 29 21 13 25 23 35 37 -18 28 40 34 60 -23 48 47 52 39 27 38 61 -31 32 -33 -34 36 -36 -37 41 -39 -40 -41 42 -43 -44 -45 -46 -47 -48 -49 -50 -51 -52 -53 58 -55 -56 -57 -58 -59 -60 -61 -62 -63
leaf_value=0.064479995016012884 -0.011723336550016287 -0.0092373400477075828 0.010156885733351041 0.039856559769406052 -0.0048570058780474596 -0.02265581970969778 -0.018477307677511542 0.042370039880635771 -0.013989952302163204 0.07403485476860576 0.041441472618371528 0.0050861711272016325 0.061121794957626541 -0.00120301167803339 0.0309294682374439 -0.0019412184200942241 -0.041184958012818323 0.025132575776899414 0.017789721765458889 0.030237662734284118 -0.009829314406265657 0.041271329051275805 0.027513610623918827 -0.017090161780928363 0.020030925267782947 0.021134375318636812 -0.0026063176607341726 0.032700363259522934 0.01491068622569347 0.099424779389218468 0.0018227248479143505 0.063863233243273587 -0.010862905018810773 -0.0056677660760851862 0.035912989899434249 0.016154051406077161 -0.010418421289031752 -0.027360349216008186 0.010531876227059828 0.0092044288280199674 -0.0089670022746919965 -0.024413186876178189 0.0043484412251424999 0.0090562773700194991 -0.020159244439038982 0.040969581454706624 -0.031509043909009757 -0.0082829920474306127 0.0099041212513508326 0.024561643558476051 -0.012338855761699465 0.072294905828514597 0.0038106619888878118 0.029166995599108458 0.062005744620728248 0.014583306796689684 -0.0016758327177026596 -0.025786868426631901 0.015958687914812739 0.091825656453942514 -0.02351237133202853 0.029752408574835063
leaf_weight=7.8677874142304054 22.045221484266222 12.472054091282187 12.55637491866946 18.384843742474914 42.065789604559541 22.764292500913143 24.913247755728662 9.8457183223217744 61.875973460264504 18.572468126192689 9.9336284976452571 95.270499323494732 2.7291620429605237 107.11906512081623 22.419827154837552 12.252062487415968 155.7386036850512 25.754557446576655 15.402566906064747 28.599452674388885 21.582270819693804 69.542940954677761 20.396960936486721 110.85761998128146 28.609576297923923 51.177730632014573 44.6637411583215 13.08048648573458 39.611776784993708 19.369768633507192 59.453979784622788 21.906142190098763 69.706247831694782 30.891924222931266 56.189353996887803 55.723978415131569 31.85256127640605 98.02583001088351 30.215736987069249 79.338798163458705 33.152938663028181 61.97002637386322 63.168747591786087 37.704587972722948 152.62241339031607 35.137755007483065 154.98719541728497 76.952067186124623 25.401816377416253 66.965965587645769 37.900652665644884 6.3316520806401959 67.61877713073045 37.402983625419438 41.075017674826086 26.551189693622291 32.85427974909544 162.24776374641806 30.702812951989472 0.8506369749084105 63.347779917530715 19.45693336520344
leaf_count=485 1522 718 784 1200 2372 1166 1593 600 3951 1199 481 5945 169 6776 1409 772 9913 1581 939 1772 1369 4031 1379 7101 1740 3117 2566 877 2428 1227 3822 1415 4475 2135 3352 3519 2216 6407 2044 4894 2130 4333 3905 2141 9884 2095 9959 4915 1729 4167 2388 414 4232 2281 2416 1648 2092 9429 1881 54 4078 1172
internal_value=-0.000587797 -0.0138409 0.0271315 0.0460023 -0.0068957 -0.00981821 -0.0284641 0.0171315 0.00395491 0.0694411 0.0386197 -0.00305958 0.0237034 -0.00617595 0.0108086 -0.017306 -0.0350314 0.0294433 0.00966895 0.032504 -0.012101 0.0483501 0.00756496 -0.00939966 0.0143546 0.0180983 0.0033736 0.00715731 0.0271454 0.0869966 -0.00766557 0.0529089 -0.00502356 -0.0211028 0.0293687 0.0211624 -0.0161956 -0.0219952 0.0172293 0.0138824 0.00225028 -0.019662 -0.000234598 0.0017193 -0.0188054 0.0342713 -0.0297044 -0.0134816 0.0177467 0.0259933 -0.00411335 0.0540823 0.0104051 0.0243892 0.058001 0.0227012 -0.00971918 -0.0246055 0.00760412 0.0331555 -0.0200353 0.0197995
internal_weight=2915.18 1972.23 942.957 326.614 1337.15 1053.42 635.073 616.344 283.73 78.2332 248.38 553.669 327.729 428.1 189 499.755 335.639 127.829 288.615 127.517 236.855 120.552 125.569 332.829 176.891 200.212 110.005 87.96 119.961 37.9422 151.925 40.291 129.16 299.434 111.34 78.9944 124.715 262.9 43.2962 130.517 111.724 93.8226 96.3217 79.7704 164.874 60.8923 179.9 187.81 45.7988 69.6951 145.02 16.1774 126.931 49.9594 51.0086 55.1506 94.7303 174.72 98.3216 23.2705 84.9301 59.0687
internal_count=182804 125049 57755 19730 84753 66719 40296 38025 18034 5041 14689 34746 20133 27125 11991 31973 21465 7761 17892 7786 14910 6928 7621 21180 10918 12347 7009 5487 7276 2426 9463 2615 8297 18831 6772 4982 8684 17063 2921 8011 6974 6549 6035 4513 10656 3676 11552 12016 3108 4336 9164 1014 7853 3065 2897 3420 6043 10147 6113 1463 5447 3600
is_linear=0
shrinkage=0.05


Tree=2
num_leaves=63
num_cat=0
split_feature=28 19 28 96 10 28 28 94 28 18 12 27 83 84 19 27 84 83 27 84 94 28 83 94 94 28 12 10 27 84 83 85 84 85 19 84 18 84 35 27 28 33 106 28 84 73 28 94 10 27 50 12 84 30 96 12 18 28 18 96 46 1
split_gain=377.627 76.977 59.3999 18.9203 15.7495 18.8408 12.1638 10.6657 9.86958 9.75616 6.46532 5.70759 4.43764 4.28658 4.24006 4.11071 3.6109 3.55233 3.54126 3.5167 3.45428 3.34706 2.80508 2.57014 2.54674 2.47592 2.2708 2.26665 2.18394 2.17673 2.03673 1.99516 2.14524 1.99048 2.47676 1.98822 1.95867 1.85259 1.81198 1.77747 1.66081 1.64056 1.56738 1.5519 1.48895 1.47776 1.42772 1.41049 1.3709 1.33335 1.33171 1.3142 1.30767 1.2497 1.22649 1.22639 1.21007 1.39987 1.18889 1.17581 1.16346 1.13833
threshold=-0.52621168190873957 0.074999999999999969 -1.1094003924504479 0.33389639639639646 1.0000000180025095e-35 1.0000000180025095e-35 1.0223972648864981 1.5067567567567568 0.42794805161810862 0.033523268393900914 0.090500000000000011 2.5000000000000004 2.5000000000000004 7.5000000000000009 0.115 1.5000000000000002 7.5000000000000009 2.5000000000000004 1.5000000000000002 6.5000000000000009 1.2034482758620693 0.50401612877417989 2.5000000000000004 2.1380952380952389 1.2828571428571431 1.3662601021279419 0.08450000000000002 1.0000000180025095e-35 4.5000000000000009 6.5000000000000009 2.5000000000000004 1.0000000180025095e-35 7.5000000000000009 1.0000000180025095e-35 0.054999999999999945 7.5000000000000009 0.029439202887759527 6.5000000000000009 2.9833333333333338 4.5000000000000009 -0.88607762956830294 0.62828947368421062 0.0077500000000000147 -0.3179220092715716 7.5000000000000009 4.9516129032258069 -0.27003086243365454 1.0467391304347828 1.0000000180025095e-35 1.5000000000000002 3.3945000000000003 0.079500000000000015 6.5000000000000009 0.29285714285714287 0.11942371475953567 0.076500000000000012 0.017994708216848721 -1.3686300260290187 0.042370250120079556 0.5884438881935754 15.000000000000002 10.500000000000002
decision_type=8 8 10 10 2 8 8 10 10 10 2 10 2 2 8 10 2 2 10 2 8 10 2 10 10 8 2 2 8 2 2 2 2 2 10 2 10 2 10 8 10 10 8 8 2 10 10 8 2 10 10 2 2 10 10 2 10 10 10 8 10 2
left_child=2 4 3 9 8 10 28 11 20 16 17 19 21 37 51 44 56 47 41 -4 31 26 -12 -5 49 29 -7 -17 52 -10 -13 -2 -33 -31 54 -30 -21 -11 -29 -14 -38 -18 43 -19 -9 59 -24 -6 -37 -15 -39 -8 -3 -28 -35 -23 -1 -58 -32 -22 -42 -25
right_child=1 6 7 23 5 12 14 15 25 13 22 30 39 24 -16 27 18 42 -20 36 45 55 46 61 -26 -27 53 38 35 33 58 32 -34 34 -36 48 40 50 -40 -41 60 -43 -44 -45 -46 -47 -48 -49 -50 -51 -52 -53 -54 -55 -56 -57 57 -59 -60 -61 -62 -63
leaf_value=0.0019390458285737826 -0.0066791901625427256 -0.023799180372100822 0.0024099596557737918 0.058398137106993403 0.0046470428776511086 -0.00024491408176054754 -0.024171828423515687 0.029840425364994139 -0.018876043929191372 0.027226494490771153 -0.0022017989452342893 0.012029583518922391 -0.01625445499392322 0.053234811775406392 -0.040594404070624493 0.045620088696249304 0.039155196550260764 0.0080756891614682334 0.023211137352244778 0.011352653002069007 0.028939002320592312 -0.0096901847050229403 -0.0086298956238807425 0.070006047717129427 0.066413341530445189 -0.015619814950944539 -0.017562065824536892 0.035373498295554501 -0.027033246203280032 -0.014195709177882652 -0.0025957348055470637 0.0035070806005974586 0.022688943518052535 0.0049333017279292943 -0.0024397467222023357 -0.0082158533177989681 0.028344924705327332 0.064334911065721548 0.016909768978271896 -0.026275773497268024 0.026279005288425656 0.062209912918249247 -0.0079675689827624265 -0.0033437164141330816 0.046298161426328019 0.0089263177274610007 -0.018310751290902986 0.016805640863537998 -0.021117878409475641 0.030661176490381432 0.040914276343663514 -0.032897528565364098 -0.0080986329455593198 -0.0064331511431864608 0.022580707339232377 -0.020864002743142276 0.029381424736804308 0.014207371622045401 0.0077821102871500382 0.076618415129543038 0.013447521231345339 0.091599145817605698
leaf_weight=8.6759186238050443 17.036519410088658 18.343763586133718 39.024126257747412 21.349356047809124 52.342236119322479 61.884830708615482 75.329239273443818 34.136399959214032 14.570330722257493 24.615469573065639 104.04179470054805 60.610799608752131 71.647818695753813 19.682052598334852 150.56604457739741 8.4962671427056176 37.008150768466294 53.284025219269097 36.694825928658247 61.781132876873016 33.387066722847521 31.762765546329319 88.151758082211018 10.921814247965813 30.069532562978566 35.906941720284522 54.366278144530952 14.969565018080173 124.59884804021567 16.717727619223297 83.071322063915431 30.187783461995423 28.18441182281822 19.03942873608321 53.762456678785384 27.947089607827365 59.971840818412602 6.7370525170117608 118.28226922731847 115.70409582741559 25.576029524207115 9.7491009933873993 64.263751666992903 67.367889951914549 23.00408086925745 9.9456605128943902 67.056145939975977 43.824382995255291 78.196506085805595 9.7979997145012003 61.252228116616607 101.02132207341492 47.872249678708613 47.06188743095845 20.389335260726511 108.23724498879164 30.82742301933467 29.981843241490427 41.326306561008096 1.3451413139700878 57.120206156745553 13.834997219033539
leaf_count=477 1186 958 1932 1253 3282 3939 4930 1862 749 1161 6589 3834 4488 1237 9902 529 2378 3300 2383 3914 2064 2058 5564 619 1863 2323 3486 925 7425 1170 5221 1726 1864 1225 3490 1940 3659 365 7168 7650 1588 610 4008 4248 1480 625 4286 2723 5550 623 3361 6684 3085 3028 1317 7174 1681 1652 2545 84 3540 808
internal_value=-0.00052089 -0.01332 0.0247923 0.041257 -0.00644234 -0.00930019 -0.0277778 0.0155755 0.00406293 0.0367455 -0.00285919 0.0111339 -0.0163932 0.0457096 -0.0344318 0.0251444 0.0278272 0.00239344 0.0348377 0.0161642 0.0149025 -0.0126561 -0.00855418 0.0711104 0.0561751 -0.00405299 -0.00779299 0.0205805 -0.0204525 -0.000716458 0.00451383 0.0083751 0.0127688 0.00169091 0.00454084 -0.0227495 0.0187896 0.0389798 0.018984 -0.0224434 0.0220101 0.0439622 -0.00166011 0.00169948 0.0364661 0.0259195 -0.0128124 0.0101879 -0.0177208 0.0457322 0.043235 -0.0291703 -0.0124481 -0.0123983 0.0140591 -0.0183289 0.0194076 0.0218999 0.000851903 0.0307856 0.017416 0.082073
internal_weight=2913.91 1935.34 978.568 351.198 1311.47 1031 623.875 627.37 280.473 305.092 540.332 428.482 490.665 152.154 326.917 198.889 152.937 281.082 83.4521 243.473 120.087 303.313 259.25 46.1062 59.5496 160.386 163.313 141.748 296.958 124.479 185.008 75.4087 58.3722 109.909 93.1912 230.742 204.449 92.6048 133.252 187.352 142.668 46.7573 184.916 120.652 57.1405 44.6779 155.208 96.1666 106.144 29.4801 67.9893 176.351 66.216 101.428 39.4288 140 69.4852 60.8093 124.398 34.7322 82.6962 24.7568
internal_count=182788 124120 58668 20471 83646 65823 40474 38197 17823 17791 34000 26233 31823 8610 21516 11964 9181 17561 5371 14633 7549 19685 16439 2680 3723 10274 10453 8622 18958 7951 11600 4776 3590 7202 6032 14915 12701 4887 8093 12138 8787 2988 11556 7548 3342 2773 9850 6005 7490 1860 3726 11614 4043 6514 2542 9232 3810 3333 7766 2148 5128 1427
is_linear=0
shrinkage=0.05


Tree=3
num_leaves=63
num_cat=0
split_feature=28 19 28 96 9 19 28 28 94 94 94 94 19 9 12 9 9 28 9 12 10 28 84 9 77 84 84 28 28 12 84 28 10 84 12 12 13 12 10 84 84 94 94 12 28 16 10 28 43 28 84 28 10 106 28 84 10 94 9 84 9 28
split_gain=339.7 63.3606 62.6009 18.1786 17.768 12.3963 11.8786 9.04857 9.00212 6.94942 5.51057 4.76473 4.57566 4.34475 4.22125 3.93271 3.77869 4.0716 3.49728 3.43853 3.16376 2.96909 2.80841 2.56526 2.19514 2.15113 2.10928 2.09202 1.99136 1.97965 1.9503 1.90668 2.07154 1.90185 1.80362 1.6365 1.6018 1.57782 1.55726 1.54904 1.5109 1.4305 1.42781 1.33317 1.29691 1.27204 1.26933 1.3984 1.26311 1.24202 1.20787 1.20403 1.1978 1.19566 1.17548 1.1359 1.13392 1.1295 1.11635 1.1145 1.09024 1.0538
threshold=-0.42347317511024157 0.074999999999999969 -1.0017398137944482 0.30962660548801418 3.5000000000000004 0.044999999999999936 1.0012523486435214 1.0000000180025095e-35 0.99218750000000022 1.1383577052868394 1.0467391304347828 0.85934065934065951 0.115 7.5000000000000009 0.080500000000000016 7.5000000000000009 2.5000000000000004 -0.71857575714794975 3.5000000000000004 0.096500000000000016 1.0000000180025095e-35 -1.3498527422930344 7.5000000000000009 7.5000000000000009 1.5000000000000002 7.5000000000000009 6.5000000000000009 -0.62924535808410409 0.46573142025551234 0.090500000000000011 7.5000000000000009 0.86602540378443138 1.0000000180025095e-35 6.5000000000000009 0.08950000000000001 0.092500000000000013 29.500000000000004 0.08450000000000002 1.0000000180025095e-35 6.5000000000000009 6.5000000000000009 1.607692307692308 0.72570532915360519 0.085500000000000007 -1.5275252316519341 3.5000000000000004 1.0000000180025095e-35 0.08058229640255847 1.5000000000000002 0.32969023669790137 7.5000000000000009 -1.3498527422930344 1.0000000180025095e-35 0.0034999999999999827 0.36628061740041012 7.5000000000000009 1.0000000180025095e-35 1.8441295546558709 2.5000000000000004 6.5000000000000009 4.5000000000000009 -0.74893086189410341
decision_type=8 8 10 10 2 10 8 10 10 8 10 10 8 2 2 2 2 10 2 2 2 10 2 2 10 2 2 10 10 2 2 10 2 2 2 2 2 2 2 2 2 8 10 2 10 8 2 10 10 10 2 10 2 10 10 2 2 10 2 2 2 10
left_child=2 4 3 9 5 10 30 14 18 21 22 25 42 33 -6 41 55 23 39 27 50 53 -2 34 -16 54 -13 -20 37 -23 45 32 -28 -11 -18 40 51 -9 -32 -4 -19 -5 -8 -24 -15 -3 -27 -48 -25 -40 -12 -35 -44 -1 -7 -10 -33 -17 -41 -22 -42 -21
right_child=1 6 8 15 7 11 12 28 16 13 20 26 -14 44 24 57 17 35 19 61 59 29 43 48 -26 46 31 -29 -30 -31 38 56 -34 36 -36 -37 -38 -39 49 58 60 -43 52 -45 -46 -47 47 -49 -50 -51 -52 -53 -54 -55 -56 -57 -58 -59 -60 -61 -62 -63
leaf_value=0.037812042133721115 -0.0052517789128806065 -0.011658788522650891 -0.00042594280193867921 0.033808102599680721 0.0025285768668942324 -0.010200142218449487 -0.032276795386886589 -0.010780655934132161 0.02782702591063348 0.02231773429283522 0.019219547767522761 -0.015544783171115521 -0.040196575750281238 0.065782145212236978 -0.017135617579900814 0.057817980356634602 0.025262566037914796 -0.0011188726056987567 0.011578701519557437 0.0013630095086703837 -0.0072297169609629192 0.028237416684031149 0.020098430986643656 0.058472747932879723 -0.0073997053130393222 0.00015131173757653118 0.015843645733336301 0.00032922811899518115 -0.025272969483690535 0.014851547099553636 -0.0048905356766275002 -0.00088089030410622561 0.00025016869536160412 0.048935147613361117 0.013766936478284737 0.0041808031526689845 0.029696617140605581 -0.020582631259301987 -0.010091164497177348 0.033645420774442998 0.027146375971601706 0.055767660737488761 -0.018650526347083352 0.0045138716278188863 0.04633347283842576 -0.024896838258996603 0.0078879021830045165 -0.015259009852357184 0.030374200294540094 -0.022435553002794515 0.037466558594879788 0.036285883426195861 -0.031608840813109197 0.024280744970756826 -0.021020698443961344 0.053621639528756773 -0.017627361862947638 0.078718679439951103 0.015754380324876974 0.013067419932006977 0.013653890556402294 -0.0090414315047243586
leaf_weight=42.223803662694991 68.759392033331096 20.736408403143287 9.4845147076994163 11.720526441931726 77.00785350240767 40.67455237545073 99.001453769393265 69.254717277362943 9.3538424586877245 29.031066667288542 16.675580831244588 19.955714382231236 148.29384940676391 12.2079717265442 89.513911535963416 9.1156055182218569 60.760099447332323 13.837102407589553 105.54461299907416 43.145378360524774 7.9954249169677487 42.673288783058524 19.718342915177345 5.3683624155819443 163.90964912436903 40.77676138561219 33.768306227400899 67.924998680129647 107.99507866147906 78.303728867322206 29.477790783159435 29.857527553103864 57.675807792693377 29.33160100877285 77.824856715276837 68.511434925720096 53.522906386293471 100.82804037816823 31.267172690480947 13.590270332060753 19.30598674993962 20.193956824019551 50.436991480179131 45.129573555663228 28.778355981223285 145.29326416458935 7.7039687596261492 42.6400007577613 15.686095323413609 58.50156981870532 19.883441446349025 52.457036011852324 27.587243095040321 26.616985792294145 65.54414258338511 7.8496202025562516 15.282021112740038 22.222140511497855 24.325615751557052 43.883006834425032 66.692590063437819 55.826436291448772
leaf_count=2397 3967 1198 470 666 4815 2337 6644 4543 504 1350 926 1036 10053 721 5830 535 3514 683 6381 2680 410 2479 1342 337 10579 2803 2129 4251 7363 4625 2056 1965 3716 1657 4579 4227 3071 6772 2214 850 1188 1089 3412 3086 1722 8749 525 3019 1004 4237 1311 3055 1878 1512 3899 509 1034 1245 1513 2790 4172 3519
internal_value=-0.000608478 -0.0141037 0.0209543 0.0351706 -0.00735891 -0.00106407 -0.0271871 -0.0133167 0.0111551 0.0311869 0.00819655 -0.00687474 -0.0337177 0.0375623 -0.00772335 0.0600574 0.0167548 0.0155567 0.0051117 0.00293087 0.0178781 0.0242905 0.00178813 0.0212775 -0.0108386 -0.0120421 -0.000360602 0.00717378 -0.019963 0.0195733 -0.0197398 0.0018579 0.0060085 0.0339301 0.018807 0.0101318 0.0364215 -0.0165914 -0.0148616 0.0176464 0.0142155 0.0477031 -0.0282904 0.00925268 0.0521264 -0.0232435 -0.00640585 -0.0117169 0.0375386 -0.0181359 0.0291436 0.0408222 -0.0232322 0.0325802 -0.0168772 0.0395966 -0.00655042 0.072639 0.0221671 0.00993926 0.0166828 -0.00450576
internal_weight=2918.46 1795.03 1123.43 458.399 1184.43 575.924 610.596 608.509 665.032 395.147 222.045 353.879 325.32 205.329 330.431 63.2522 345.19 327.987 319.842 272.441 88.4375 189.818 133.607 159.639 253.424 197.339 156.539 173.47 278.078 120.977 285.276 136.584 91.4441 164.343 138.585 168.347 135.312 170.083 119.247 47.4004 99.8357 31.9145 177.026 64.8479 40.9863 166.03 91.1207 50.344 21.0545 89.7687 36.559 81.7886 78.0242 68.8408 106.219 17.2035 45.1395 31.3377 37.9159 51.8784 85.9986 98.9718
internal_count=183143 116638 66505 26124 76197 36295 40441 39902 40381 22589 13832 22463 21987 11576 21224 3535 20717 19704 19664 16831 5437 11013 8395 9434 16409 12583 9880 10632 18678 7104 18454 8844 5845 9133 8093 10270 7783 11315 8507 2833 6043 1755 11934 4428 2443 9947 6347 3544 1341 6451 2237 4712 5290 3909 6236 1013 2999 1780 2363 3200 5360 6199
is_linear=0
shrinkage=0.05


Tree=4
num_leaves=63
num_cat=0
split_feature=28 19 28 35 10 28 28 18 28 94 9 28 12 9 94 27 83 84 27 84 9 19 28 27 84 84 9 12 84 85 19 74 28 84 94 12 12 12 28 96 33 33 28 79 18 28 18 34 84 85 19 19 18 93 24 94 34 46 9 94 96 84
split_gain=304.89 61.3022 51.6729 14.6907 13.7373 15.3741 10.2914 8.90182 8.40509 7.95147 7.25428 4.66057 4.51525 4.33952 4.14225 4.13917 3.24988 3.13166 3.08151 2.9577 2.582 2.49917 2.19889 2.1431 2.11546 2.10009 2.38626 2.08015 1.91823 2.43428 2.92942 1.8439 1.83912 1.78511 1.74567 1.71972 1.7159 1.6878 1.63262 1.56551 1.56244 1.55116 1.48299 1.47882 1.31696 1.27543 1.21814 1.19621 1.17926 1.2667 1.77045 1.16509 1.13882 1.12251 1.10656 1.10563 1.09872 1.06784 1.03817 0.9843 0.972932 0.952278
threshold=-0.42347317511024157 0.084999999999999978 -1.0159811993677292 3.0500000000000003 1.0000000180025095e-35 0.32969023669790137 0.86602540378443138 0.02984084768360647 1.1756352672275785 1.5067567567567568 3.5000000000000004 -1.4142135623730929 0.087500000000000008 2.5000000000000004 1.3924263674614308 2.5000000000000004 2.5000000000000004 7.5000000000000009 1.5000000000000002 6.5000000000000009 7.5000000000000009 0.12499999999999979 -0.16253856986192941 1.5000000000000002 7.5000000000000009 7.5000000000000009 4.5000000000000009 0.082500000000000018 6.5000000000000009 1.0000000180025095e-35 0.050000000000000051 2.5000000000000004 -0.032097036938321222 7.5000000000000009 1.0513157894736844 0.096500000000000016 0.098500000000000018 0.081500000000000017 0.52982286224423836 0.12514236902050116 0.78759398496240618 0.46291208791208799 0.061046769566732002 3.4265000000000003 0.04033343171967526 0.86602540378443138 0.027774602993176783 3.7638888888888893 6.5000000000000009 1.0000000180025095e-35 0.054999999999999945 0.054999999999999945 0.025448360411214094 2.5000000000000004 0.091400000000000106 0.72570532915360519 4.354166666666667 15.000000000000002 6.5000000000000009 1.5909090909090911 0.28307569902250518 7.5000000000000009
decision_type=8 8 10 10 2 10 10 10 8 10 2 10 2 2 10 8 2 2 10 2 2 8 10 10 2 2 2 2 2 2 10 10 10 2 8 2 2 2 10 8 10 10 10 10 10 10 10 10 2 2 10 10 10 10 10 8 10 10 2 8 8 2
left_child=2 4 3 20 6 10 14 23 38 13 17 43 32 -4 28 19 27 34 60 -15 -1 55 47 33 44 -20 -27 51 -2 -30 -31 48 56 -5 -6 57 -26 -19 -3 -16 -28 52 -39 58 -13 -29 -22 -14 -8 -50 -51 -7 -21 -35 -41 -10 -12 -17 -9 -25 -11 -40
right_child=1 8 9 7 5 16 31 11 21 18 12 24 22 15 39 35 -18 37 25 41 46 -23 -24 59 36 26 40 45 29 30 -32 -33 -34 53 -36 -37 -38 42 61 54 -42 -43 -44 -45 -46 -47 -48 -49 49 50 -52 -53 -54 -55 -56 -57 -58 -59 -60 -61 -62 -63
leaf_value=0.04381935591147143 -0.012749536688054067 -0.017368644934387941 0.027389568194536442 0.016876630561640179 -0.0081945501881124962 -0.0023650248861300897 -0.022899227646606585 0.039708271251212152 -0.035102471671985554 0.02713552979064501 0.0022434271003560209 0.019363580736957323 -0.0018022980054941331 -0.0022814852893558051 0.0096997086879592812 0.012780322008719877 -0.027067032417386911 0.022906252313372066 0.010275863266579692 -0.0019136925563164944 0.050648539232325387 -0.041780506172414793 -0.019175744289667101 0.0087521482461606261 0.042652471308717035 0.038398716093486392 0.015223448782578112 -0.016771275854657184 -0.0085202801033127662 0.018149870419725937 0.00079283160537062941 -0.020651782938582608 -0.010641484139534595 0.03990675440666773 0.0040547554428738671 -0.0031523751491617153 0.02640526303974372 0.011476991037595722 -0.029378089777856466 0.034759018296780249 0.050751464549195172 0.018702498134688387 -0.0045306240805837745 0.03540740623579812 0.030697617558047081 -0.026963999258026158 0.069780637767396611 -0.012894580338264345 -0.022071240576156267 0.011121602600635841 -0.0068873237409342565 -0.014509543156429891 0.011848370795520063 0.022778613367817335 0.016595795653412099 -0.025610769550943435 -0.0073925097667142739 0.0022728228285507669 0.056039720942668118 0.022771623171836269 0.047183743773336839 -0.021050622448623716
leaf_weight=34.123542319051921 16.052530718967319 94.224652749486268 25.437917346134782 37.622304634191096 76.506994161754847 30.266297404654324 9.9694043081253749 14.125891871750353 75.815460870042443 41.137569055892527 87.835497829131782 45.04139025695622 34.213806326501071 35.460782691836357 24.064899003133178 35.866403864696622 102.87603170331568 17.529828425496817 85.362836973741651 18.112709769047797 12.912403823807834 101.4440487800166 126.09657613746822 49.178685123100877 46.503454817458987 16.660956667736173 58.88849039375782 92.54269864410162 24.29076643101871 47.001840618439019 50.349973379634321 31.348244382068515 78.99311335477978 21.200026510283351 46.925140768289566 109.54785766731948 24.980132492259145 37.527847214601934 81.528790649957955 18.201009477488697 3.2662181025370947 80.571933317929506 23.546909304335713 23.047106308862567 59.469551132060587 45.92068505845964 23.39152770396322 83.928347889333963 9.3331343624740821 18.003350978717208 56.404079413972795 56.830999716185033 88.39064206648618 17.43008591607213 15.549228073097764 51.535257335752249 44.605843364261091 74.20600919611752 31.277132091112435 16.795926535502076 7.0953916925936928 59.300910254009068
leaf_count=1841 833 6059 1491 1969 4426 2014 540 700 5259 2301 5524 2345 2211 1740 1462 2249 6947 1179 4673 1137 714 7095 8478 2940 2794 1068 3843 6211 1724 2968 3254 2074 5220 1271 2672 6884 1536 2524 5054 1113 202 4940 1644 1216 3021 3184 1267 5496 677 1177 3829 3801 5359 1078 946 3580 2850 4619 1681 975 406 4366
internal_value=-0.000512782 -0.013488 0.0196906 0.0326909 -0.00794489 -0.0108678 0.00104678 0.0288654 -0.0291034 0.0109518 -0.00645617 0.0346522 -0.0099527 0.00730774 0.00821181 0.0061524 -0.0197024 0.00142992 0.0189739 0.0109583 0.0536941 -0.0359254 -0.0145836 0.0189196 0.0303466 0.0157097 0.0215948 -0.0163434 0.00349591 0.00563974 0.00917288 -0.0101547 -0.00460332 0.0246287 -0.00353774 0.00128269 0.0369748 0.0092306 -0.022463 0.0194434 0.0170904 0.0134679 0.00530538 0.0457226 0.025813 -0.0201516 0.0629758 -0.00968227 -0.00664318 -0.00470788 -0.00252995 -0.0102893 0.0095079 0.0321785 0.026391 -0.0312614 -0.00100193 0.00569663 0.0509586 0.0123212 0.0300848 -0.0258715
internal_weight=2907.67 1770.56 1137.1 457.099 1306.72 986.147 320.568 386.672 463.849 680.006 657.71 244.445 455.673 467.594 195.51 442.156 328.437 202.037 212.411 222.536 70.4275 228.795 244.239 142.227 175.995 164.179 78.8157 225.561 137.695 121.643 97.3518 125.058 211.434 76.2524 123.432 219.62 71.4836 78.6046 235.054 57.8151 62.1547 187.075 61.0748 68.4501 104.511 138.463 36.3039 118.142 93.71 83.7406 74.4074 87.0973 106.503 38.6301 33.7502 127.351 132.441 110.072 45.403 65.9746 48.233 140.83
internal_count=182651 116391 66260 25348 84978 64381 20597 21526 31413 40912 42224 13293 29779 28419 12300 26928 22157 12445 12493 13176 3822 15934 16185 8233 9696 9786 5113 15210 8779 7946 6222 8297 13594 4318 7098 13752 4330 5347 15479 3521 4045 11436 4168 3597 5366 9395 1981 7707 6223 5683 5006 5815 6496 2349 2059 8839 8374 6868 2381 3915 2707 9420
is_linear=0
shrinkage=0.05


Tree=5
num_leaves=63
num_cat=0
split_feature=27 19 27 96 19 10 84 19 94 84 16 84 94 35 94 18 35 94 73 84 19 94 18 34 84 52 27 27 10 32 16 84 46 73 96 46 18 34 84 27 46 16 10 84 27 95 84 27 18 30 19 27 95 27 27 4 24 94 27 94 18 84
split_gain=250.823 59.9123 53.5349 12.9222 12.8167 11.9029 10.9519 9.52086 6.13862 5.93256 5.39888 4.63594 4.0656 3.53639 3.37035 3.35266 3.16895 2.82182 2.7867 2.38867 2.26268 2.23181 2.22737 2.01848 1.86322 1.82196 1.81467 1.72227 1.65044 1.63024 1.6097 1.60882 1.54739 1.41924 1.41269 1.38061 1.34286 1.30304 1.22033 1.18771 1.18425 1.16857 1.14178 1.12795 1.24128 1.10097 1.09763 1.24403 1.09605 1.06903 1.06252 1.05285 1.0423 1.03921 1.026 1.0094 0.992799 0.9663 0.926415 0.911645 0.902568 0.891414
threshold=3.5000000000000004 0.069999999999999632 1.5000000000000002 0.29790877295249202 0.10499999999999977 1.0000000180025095e-35 7.5000000000000009 0.03999999999999982 1.5067567567567568 6.5000000000000009 1.5000000000000002 6.5000000000000009 1.2240802675585287 3.0703703703703709 0.6043478260869567 0.028023151542346265 2.305172413793104 0.99218750000000022 4.1967741935483884 7.5000000000000009 0.024999999999999693 1.3150735294117648 0.030237157840738146 5.1055555555555561 6.5000000000000009 15.000000000000002 5.5000000000000009 2.5000000000000004 1.0000000180025095e-35 0.55050505050505061 1.5000000000000002 7.5000000000000009 15.000000000000002 4.7580645161290329 0.12514236902050116 15.000000000000002 0.03770183777256194 4.6833333333333345 7.5000000000000009 6.5000000000000009 15.000000000000002 1.5000000000000002 1.0000000180025095e-35 7.5000000000000009 6.5000000000000009 0.19444444444444448 7.5000000000000009 6.5000000000000009 0.026152028055746752 0.18333333333333338 0.044999999999999936 5.5000000000000009 0.10000000000000001 2.5000000000000004 5.5000000000000009 18.500000000000004 0.12495000000000002 1.5909090909090911 2.5000000000000004 1.8014084507042256 0.031471831698777764 6.5000000000000009
decision_type=8 8 10 10 8 2 2 10 8 2 10 2 10 8 8 10 10 10 10 2 10 10 10 10 2 10 10 10 2 10 10 2 8 10 10 10 10 10 2 10 10 10 2 2 10 10 2 10 10 10 10 10 10 10 8 8 10 8 10 10 10 2
left_child=2 5 3 9 14 12 11 13 20 36 15 58 24 41 43 37 -10 35 25 49 22 32 -8 54 -2 57 -26 34 46 50 -19 60 48 45 -18 -13 -1 38 -11 61 -22 -7 -32 -3 -45 -12 -16 -48 -15 -17 -14 -30 -21 -44 -6 -51 -34 -9 -4 -33 -5 -20
right_child=1 4 6 31 23 7 8 18 16 10 33 17 29 21 28 19 27 30 39 52 40 -23 -24 -25 26 -27 -28 -29 51 -31 42 59 56 -35 -36 -37 -38 -39 -40 -41 -42 -43 53 44 -46 -47 47 -49 -50 55 -52 -53 -54 -55 -56 -57 -58 -59 -60 -61 -62 -63
leaf_value=0.0048642080255196889 -0.017190281972188259 -0.027097231396428407 -0.00061456450833698465 0.026967703235615072 -0.020030157174522278 0.041440535653246888 0.0088427602409574396 -0.0064821710142378463 0.057594209907807704 0.017961844864512067 0.029534072443587606 0.0082486219098401228 0.020936630771557121 -0.0057360722874224973 -0.015383812083146778 0.020775983606828884 0.01655066034035961 0.019735495417264125 -0.026696650335266178 0.048819895148509318 0.011107942292043795 0.004011322217150508 0.021281913990353788 -0.038307354459958538 0.010363447035302774 -0.012863426622100322 -0.002366106097407564 0.015742420049880763 -0.013806988065038659 0.067208648129474233 0.024461887281926272 0.046758015584897936 -0.010534959076048744 0.0091969838058039138 0.033604187607628629 -0.001589719881962162 0.019386259786446799 0.0093007412540184378 0.033355960097655811 -0.02604097573879571 0.00053838758703752697 0.012499153868624331 0.011703570253254912 -0.013631183494939714 -0.024830664376763244 0.016058027894037395 0.0074192812272016948 -0.010039754205536655 0.0064021099878745118 0.039644142703986848 0.0081166481935572524 -0.022442463357217432 0.037337335905942293 0.0026254786140897531 -0.031176278124400155 0.028315135111184886 0.0021229344774530211 0.0056523633018509441 -0.0092500617781637231 0.062788020865116853 0.047956942936738405 -0.014343640689680609
leaf_weight=29.936726184561849 12.952315455302594 114.7609790880233 63.147263905033469 7.9841747628524926 24.519462178461254 4.5948244519531753 76.433758872561157 61.83350376971066 6.8272377718240014 22.062599097378552 30.764809152111411 53.24572653695941 33.923550363630056 38.049871983937919 45.864025657065213 18.960169300436974 17.472327677533031 39.303665502928197 16.149910865351558 39.853654605336487 46.845928330905735 86.147875867784023 68.007425714284182 108.39537236467004 47.142968864180148 119.6836815122515 68.936858050525188 50.564685714431107 65.755120556801558 1.5203238483518351 10.061121042817829 13.54191747587174 114.17799591831863 27.477851829491556 39.821032566949725 107.96089677978307 33.99696303345263 13.040463748387991 30.910383448936045 31.939623389393091 61.023607484064996 14.477294594049452 60.337345015257597 44.66045742854476 55.469458078965545 29.873111876659095 14.916619775816796 32.288681777194142 36.379364392720163 39.482323890551925 30.869534510187805 76.200065106153488 39.204161039553583 66.018179096281528 130.69782022386789 39.165777348913252 17.922594622708857 22.33117469958961 61.117137290537357 25.706036769784987 14.286887471564112 152.57280168123543
leaf_count=1395 682 7202 3079 403 1559 255 5001 4089 384 1198 1805 3112 2069 2526 2854 981 1110 2099 866 2250 3192 5403 4350 7641 3052 8032 4610 3299 4293 88 573 768 7406 1672 2466 6289 1538 762 1835 2304 4210 953 3429 3266 4179 1825 1051 2379 2288 2019 1939 5409 2280 3879 9207 2012 1104 1452 3100 1344 689 10342
internal_value=-0.000414717 -0.0134659 0.0160984 0.0298513 -0.0243172 -0.00497246 0.00852186 -0.00795619 0.0149674 0.0265294 0.0292242 0.00339277 0.00596778 -0.00138968 -0.0191878 0.0330732 0.024559 0.00643718 -0.0130169 0.0366656 0.0106077 -0.00274909 0.0146995 -0.0330718 0.000796684 -0.00889943 0.00280369 0.0224679 -0.0150498 0.0160297 0.0108199 0.0511662 -0.005569 0.0186235 0.0284035 0.00165983 0.0125864 0.0234591 0.0269445 -0.0171997 0.00512857 0.0194717 0.00825123 -0.0237135 -0.0198354 0.0228951 -0.00987504 -0.00452279 0.000196803 0.0314332 0.0148288 -0.0184424 0.0431258 0.00696045 -0.0294155 0.0340024 -0.00881761 -0.00326255 -0.00486177 0.0572571 0.0404323 -0.0155261
internal_weight=2909.57 1625.13 1284.44 456.248 713.528 911.606 828.187 716.261 366.996 394.729 330.795 461.191 195.346 311.75 449.915 242.68 114.685 336.927 404.511 176.666 252.311 292.678 144.441 263.613 129.032 203.848 116.08 107.858 235.025 66.3134 175.72 61.519 206.53 88.1158 57.2934 161.207 63.9337 66.0134 52.973 200.662 107.87 19.0721 136.417 214.891 100.13 60.6379 93.0693 47.2053 74.4292 97.6083 64.7931 141.955 79.0578 126.356 155.217 78.6481 132.101 84.1647 124.264 39.248 22.2711 168.723
internal_count=182848 108500 74348 24776 49040 59460 49572 47020 24012 21572 18639 25560 12440 19935 30633 13337 7259 19381 27085 9542 16753 18727 9351 18407 8344 13573 7662 6875 15986 4096 9980 3204 13324 5302 3576 9401 2933 3795 3033 13512 7402 1208 7881 14647 7445 3630 6284 3430 4814 5012 4008 9702 4530 7308 10766 4031 8510 5541 6179 2112 1092 11208
is_linear=0
shrinkage=0.05


Tree=6
num_leaves=63
num_cat=0
split_feature=28 19 28 9 19 35 28 28 18 94 84 28 24 28 94 27 94 12 19 9 27 84 28 10 84 35 94 85 84 28 35 28 73 77 9 9 84 98 35 9 24 92 9 12 84 84 9 84 17 12 84 9 28 76 83 18 12 9 12 28 84 10
split_gain=250.36 56.8541 40.5519 13.2203 15.8885 11.4056 9.2154 8.11509 6.78589 6.4734 6.11313 3.61954 3.45531 3.44809 3.2203 3.01064 2.81553 2.75012 2.55 2.52907 2.5113 2.45214 2.257 2.17138 2.06441 2.05652 1.97355 1.90405 1.78318 1.77364 1.72952 1.67849 1.66985 1.62282 1.5637 1.51499 1.44479 1.43121 1.33043 1.31625 1.28637 1.27746 1.27202 1.26903 1.26736 1.24146 1.22327 1.22292 1.20991 1.16945 1.16688 1.12614 1.11795 1.0935 1.04708 0.996479 0.995979 0.993263 0.96784 0.946287 0.944947 1.05966
threshold=-0.42347317511024157 0.084999999999999978 -1.0017398137944482 3.5000000000000004 0.054999999999999945 2.9500000000000006 1.0000000180025095e-35 1.1756352672275785 0.02984084768360647 0.87706043956043966 7.5000000000000009 -1.3498527422930344 0.086400000000000018 0.56980288229819831 1.0923295454545456 1.5000000000000002 1.0467391304347828 0.097500000000000017 0.12499999999999979 4.5000000000000009 4.5000000000000009 7.5000000000000009 -1.7430966200333389 1.0000000180025095e-35 6.5000000000000009 3.5119047619047623 0.76556776556776562 15.000000000000002 7.5000000000000009 0.52982286224423836 3.8416666666666672 -0.73785631799609419 5.403225806451613 1.5000000000000002 1.5000000000000002 3.5000000000000004 7.5000000000000009 0.7112256586483392 3.9023809523809527 2.5000000000000004 0.077099999999999988 3.8479166666666669 4.5000000000000009 0.094500000000000015 6.5000000000000009 6.5000000000000009 7.5000000000000009 6.5000000000000009 3.3726785714285721 0.070500000000000021 6.5000000000000009 4.5000000000000009 -0.71857575714794975 1.5000000000000002 2.5000000000000004 0.026958963523950958 0.10050000000000002 1.5000000000000002 0.085500000000000007 1.0427016064814765 7.5000000000000009 1.0000000180025095e-35
decision_type=8 8 10 2 10 10 10 8 10 10 2 10 8 10 10 10 10 2 8 2 8 2 10 2 2 10 10 2 2 10 10 10 10 10 2 2 2 10 8 2 10 2 2 2 2 2 2 2 10 2 2 2 10 10 2 10 2 2 2 10 2 2
left_child=2 3 5 4 10 37 12 29 22 17 16 28 53 21 27 50 47 31 49 24 -8 -6 -7 32 -17 46 56 -12 -10 48 -24 58 36 -14 -16 -19 -15 41 -22 -29 -23 -1 -33 -36 -18 -28 -21 -2 -3 -9 -11 -52 -27 -5 -32 -37 -13 -26 -4 -25 -31 -62
right_child=1 7 9 6 13 8 20 18 11 15 14 26 33 23 34 19 44 35 -20 25 38 40 30 59 57 52 45 39 -30 60 54 42 -34 -35 43 55 -38 -39 -40 -41 -42 -43 -44 -45 -46 -47 -48 -49 -50 -51 51 -53 -54 -55 -56 -57 -58 -59 -60 -61 61 -63
leaf_value=0.033544713408222723 -0.014845674809872887 -0.023602315022837744 0.020031891433216226 -0.0022906570640257736 -0.0095785007521175872 0.034672706942506841 -0.012600162102438786 -0.021346158395621848 0.031989536140823796 0.0088565507001911892 -0.0036771359436710278 0.022765963517295307 -0.016606639265876147 -0.012984063705574575 0.035136194126210864 0.0025065771543413807 -0.0045201952791430597 0.010528907891874112 -0.041030922844201449 0.012286464887029488 -0.016536786589800602 0.021657011907708662 0.021419518445370413 -0.016471116662126747 0.045432341042533457 0.010110462952615678 0.017563624047798262 0.017612922831064151 0.045660853084362928 -0.028689337833397222 0.018104783291404115 0.010942971515688781 -0.020889368537408633 -0.0073552903604753792 0.022370804549710785 -0.015425936347994093 -0.00015256655451224811 0.056838375674463398 -0.025229663202827702 0.0039449859463984672 0.00092432218240018349 0.051620182739508427 7.0254939177444401e-05 0.0045348150469944363 0.010638755218910792 0.031872297542500511 0.028763250573937655 -0.0029705715296693904 -0.011704320176587173 -0.032868631182756715 0.038852757652834129 0.022080096555516956 0.0013942909938835187 0.010184969415167302 0.0060609010401016326 -0.0024753340343463873 0.008944269584541106 0.021019709958550487 0.0087511491113843164 -0.027593638141472438 -0.01111821920454183 -0.025285466986491718
leaf_weight=21.630558240227401 30.161146606318653 33.703973671421409 30.484486964531243 105.31928886473179 75.0404485873878 16.103254724293947 105.18430305458605 28.941676055081189 56.731519462540746 13.068125756457446 30.599001459777355 41.512750573456287 74.541250421665609 44.669594032689929 15.267025581561027 15.702054157853125 18.847289333119988 18.184317104518414 95.832848556339741 46.843592742457986 67.603085822425783 9.1253764871507865 58.827616563998163 50.052650925703347 4.4583260761573902 67.836965673603117 18.014494942501187 37.834104851819575 41.153611499816179 76.965226911939681 27.296002870425582 40.36380866356194 27.058779216371477 130.19741888903081 31.144752392545342 19.1075842352584 43.108936802484095 25.906714119017124 126.14958977513015 32.959795721806586 41.533987141214311 17.83400555793196 80.648681721650064 14.670338890515266 51.36377039924264 95.640537958592176 14.831104205921291 77.102112242020667 58.373815724626184 92.084728742018342 12.305142457596956 53.597174940630794 80.378011810593307 21.080054310150445 53.254245119169354 66.715299648232758 18.99870181735605 63.661694992333651 50.530903187580407 30.946282293647528 20.557587380520999 36.872104473412037
leaf_count=1131 1597 2162 1745 6703 4454 877 7010 2083 2654 602 2147 2243 4990 2764 986 758 957 1068 7128 2788 4864 625 3291 3434 257 3973 796 2560 2222 4977 1607 2383 1840 8549 2063 1243 3102 1289 9077 2275 2901 897 4960 987 2987 5140 916 4717 3875 6729 696 3023 4904 1325 2985 4120 1060 3808 2988 2199 1532 2846
internal_value=-0.000516222 -0.0125756 0.0173408 -0.00727256 -0.00233549 0.0282563 -0.0124558 -0.0280248 0.0252822 0.00941361 0.00520083 0.0300444 -0.0067104 -0.0103034 0.0122084 0.0138386 -0.00121452 0.00402502 -0.0349379 0.0115083 -0.01882 -0.00384055 0.0169497 -0.0144516 0.0188502 0.00857625 0.0257207 0.00674484 0.0377373 -0.0214052 0.0149021 0.00742586 -0.0100299 -0.0107235 0.0212777 -0.00258092 -0.00668238 0.0477072 -0.0221966 0.0112495 0.00465894 0.041713 0.00369686 0.0166596 0.00656952 0.0296044 0.0162487 -0.00630971 -0.0160594 -0.0301132 0.0225054 0.0252119 0.00538362 -0.000210054 0.0101422 -0.00535865 0.0184264 0.0226175 0.0129959 -0.0207206 -0.0250677 -0.0202141
internal_weight=2906.51 1734.89 1171.62 1291.56 661.485 492.904 630.075 443.332 427.533 678.717 339.949 272.052 331.138 321.536 162.475 372.682 177.474 306.035 216.859 293.712 298.937 125.7 155.481 195.836 83.8221 209.89 174.166 101.393 97.8851 226.473 139.378 202.028 114.837 204.739 61.0821 104.007 87.7785 65.3713 193.753 70.7939 50.6594 39.4646 121.012 45.8151 70.2111 113.655 61.6747 107.263 92.0778 121.026 78.9704 65.9023 148.215 126.399 80.5502 85.8229 60.5115 68.12 81.0154 80.9989 134.395 57.4297
internal_count=182869 116445 66424 85113 42595 26192 42518 31332 22875 40232 21276 14115 21567 21319 11018 21725 10258 18507 15940 17404 20951 7980 8760 13339 4823 12581 9239 6982 4876 15392 7883 12076 7706 13539 4036 6431 5866 3317 13941 4835 3526 2028 7343 3050 3944 5936 3704 6314 6037 8812 4321 3719 8877 8028 4592 5363 3303 4065 4733 5633 9355 4378
is_linear=0
shrinkage=0.05


Tree=7
num_leaves=63
num_cat=0
split_feature=28 19 28 10 9 28 28 28 9 83 94 27 35 94 84 83 12 12 18 84 19 12 28 28 94 12 73 84 18 77 28 73 73 28 12 18 13 93 84 12 84 85 19 27 95 12 10 28 84 84 9 84 94 24 9 27 17 93 28 58 84 32
split_gain=224.953 50.0211 40.6927 13.5454 11.3653 10.9846 8.08513 7.96545 6.54933 5.57767 5.29559 4.62215 4.44191 3.30213 3.10364 3.02471 2.91329 2.67127 2.62293 2.60046 2.54653 2.50011 2.26943 2.05901 1.9904 1.78187 1.64505 1.61481 1.56538 1.53503 1.50407 1.48032 1.45112 1.43109 1.3655 1.35358 1.34616 1.30961 1.28533 1.26441 1.23064 1.54931 1.56077 1.21292 1.16835 1.13502 1.09551 1.07398 1.05337 1.05127 1.08813 1.04859 1.04685 1.03952 1.0145 1.20614 1.01297 0.989212 0.98795 0.979609 0.881515 0.865085
threshold=-0.33735959998733955 0.084999999999999978 -0.90958733581045614 1.0000000180025095e-35 7.5000000000000009 0.32969023669790137 0.86602540378443138 1.1756352672275785 3.5000000000000004 2.5000000000000004 0.9545454545454547 1.5000000000000002 3.5375000000000001 0.9545454545454547 6.5000000000000009 2.5000000000000004 0.077500000000000013 0.08450000000000002 0.03807886552931971 6.5000000000000009 0.12499999999999979 0.097500000000000017 -0.71857575714794975 0.94836075622644223 1.5278622087132727 0.092500000000000013 3.9838709677419359 6.5000000000000009 0.021380899352993987 1.5000000000000002 -1.2349939611324354 5.0483870967741948 4.9838709677419368 0.52982286224423836 0.097500000000000017 0.033354160160316018 31.500000000000004 2.5000000000000004 6.5000000000000009 0.093500000000000014 6.5000000000000009 1.0000000180025095e-35 0.050000000000000051 1.5000000000000002 0.28730158730158734 0.08950000000000001 1.0000000180025095e-35 -1.2504186491049751 7.5000000000000009 6.5000000000000009 2.5000000000000004 6.5000000000000009 0.74051407588739304 0.06779999999999993 3.5000000000000004 3.5000000000000004 3.3569047619047625 1.5000000000000002 -0.63960214906683566 15.000000000000002 7.5000000000000009 0.24568965517241384
decision_type=8 8 10 2 2 10 10 8 2 2 8 10 10 10 2 2 2 2 10 2 8 2 10 10 10 2 10 2 10 10 10 10 10 10 2 10 2 10 2 2 2 2 10 10 10 2 2 10 2 2 2 2 8 10 2 10 10 10 10 10 2 10
left_child=2 3 4 6 11 9 13 33 19 17 21 14 30 40 -1 23 -11 48 37 -4 53 35 45 25 28 49 57 -15 -13 -18 -6 38 54 56 -21 -10 59 60 -8 51 -2 -42 -43 -14 -40 -12 -26 -20 -5 -7 -51 -24 -35 -9 55 -29 -3 -19 -37 -30 -16 -57
right_child=1 7 8 5 12 15 31 20 10 16 22 24 43 27 18 -17 29 26 47 34 -22 -23 39 -25 46 -27 -28 32 36 -31 -32 -33 -34 52 -36 58 -38 -39 44 -41 41 42 -44 -45 -46 -47 -48 -49 -50 50 -52 -53 -54 -55 -56 61 -58 -59 -60 -61 -62 -63
leaf_value=0.014149282593856708 -0.013717241599903085 -0.023820664192355016 0.0022518026911776175 0.00081102279021553862 0.051851135309908092 -0.022377649315527659 -0.021353176070410235 -0.019468455670659135 -0.0022227662126909718 -0.0011940636814676006 0.020565752912809765 0.00096471267424471394 0.033083941284161388 -0.0039319121392854322 0.023050046001795249 -0.025495716713016339 -0.018709018386428918 0.011988976466802982 0.03987503511316276 0.026317703765108849 -0.040582440761006158 -0.0075161099953774263 -0.0029950164507257576 -0.022535430999618366 0.045453373117165095 -0.019638993146307487 -0.0092564172831760532 0.039772387833420436 0.025685778988168362 -0.010481954022061287 0.036062875406773193 -0.017437806506622831 0.0043859126278846666 -0.027890315903914151 0.013349990761943716 0.011623219207328858 0.0062228259629891966 0.01666694588222388 0.0021282322456490747 0.00054934761377931258 -0.0099528754042534431 0.014710238795450754 0.00017069624219064289 0.018104547272282941 -0.01037532876259476 0.010297152176775076 0.020783101739447807 0.029029181133666166 0.011882999565305202 0.0005825032458502005 -0.010568051046179215 0.010762346730190137 -0.018878167812427425 -0.031701217579857242 0.0054373541029209289 0.01630371762974411 -0.012418856556927396 -0.0021871712711048867 0.002072875995973483 0.014075089844493578 0.033779355804999064 0.033666682880035541
leaf_weight=50.237296586856246 11.374550683423875 28.33610650151968 21.245715212076902 44.873151614330709 45.354008015245199 11.473333757370709 10.802367389202116 21.165470961481333 77.68083880096674 59.549580033868551 49.657069372944534 25.967006674967706 39.166744767688215 9.9303875435143691 49.973354866728187 98.244020214304328 90.142364804632962 15.499976902268825 45.225858366116881 57.330884370021522 92.655625313520432 85.091223524883389 15.897980390116571 62.926751120015979 4.8633746802806845 49.223286694847047 91.120705577544868 9.5946863340213877 27.796618146821856 152.81800248846412 22.602460462599993 34.27849033754319 16.562713542021811 77.310087838210166 31.42914307769388 49.617312816902995 33.972204216755927 46.979219697415829 46.063335416838527 69.238483206368983 16.875810029916465 34.048065303824842 40.310043812729418 20.633326970040798 31.431259443983436 58.747497407719493 60.221211556345224 46.081811141222715 41.209868711419404 35.2660117065534 57.636400857940316 107.56041814014316 55.252548267133534 96.768210238777101 8.8290622532367689 32.660992904566228 62.328699145466089 59.716889658011496 59.614838654175401 52.438149318099022 31.031042352318764 9.1930326260626298
leaf_count=2179 614 1819 1035 2606 2244 634 606 1547 4842 3772 2755 1550 2121 498 2495 6967 6096 967 2175 3386 7125 5408 772 4567 273 3428 6026 565 1573 10126 1218 2375 1046 5497 1888 2883 1889 2590 3147 4253 1243 2136 2640 1210 2224 3380 3206 2375 2832 2425 4101 6554 3904 7258 590 1999 4183 3912 3697 2971 1743 556
internal_value=-0.000462384 -0.012883 0.0151446 -0.0075521 0.0246161 -0.0107582 0.00138631 -0.0274038 0.00679024 -0.00652614 0.00464532 0.021054 0.0378541 0.00786225 0.0253592 -0.0182193 -0.0111051 -0.00103852 0.0279272 0.0179649 -0.0343793 -0.000411517 0.00921348 -0.0149178 0.0154008 -0.011797 -0.00473876 0.0150419 0.0120458 -0.0135343 0.0465999 -0.00861904 0.017494 -0.0208232 0.021726 0.00282281 0.0145652 0.0233084 -0.00519543 0.00595767 0.00179075 0.0037242 0.00682825 0.0279155 -0.00294312 0.0150009 0.0226266 0.0344013 0.00611143 -0.0080987 -0.00633527 0.00899078 -0.024134 -0.0295058 0.0210957 0.0237829 -0.0159823 0.000734115 0.006411 0.0180975 0.0271602 0.0201174
internal_weight=2901.13 1615.47 1285.66 1181.66 602.544 869.7 311.955 433.817 683.111 554.931 573.106 474.787 127.757 189.379 269.529 314.77 302.51 252.421 219.291 110.006 210.589 272.004 301.101 216.526 205.259 153.599 166.338 86.7709 140.174 242.96 67.9565 122.575 76.8405 223.227 88.76 186.913 114.207 127.984 88.297 192.697 102.608 91.2339 74.3581 59.8001 77.4946 108.405 65.0846 91.3077 86.083 104.376 92.9024 123.458 132.563 117.934 60.2778 51.4487 90.6648 75.2169 109.232 80.2348 81.0044 41.854
internal_count=182696 110031 72665 78698 31812 58459 20239 31333 40853 36337 34544 25019 6793 11887 13557 22122 19994 16343 11378 6309 15930 16830 17714 15155 11462 10588 10905 5254 7983 16222 3462 8352 4756 15403 5274 11422 6433 6828 5977 11579 6633 6019 4776 3331 5371 6135 3479 4550 5438 7160 6526 7326 9401 8805 3710 3120 6002 4879 6580 4544 4238 2555
is_linear=0
shrinkage=0.05


Tree=8
num_leaves=63
num_cat=0
split_feature=28 28 19 9 96 19 9 28 34 27 84 27 28 84 84 30 94 19 28 18 28 18 9 84 12 34 84 84 95 9 18 12 84 27 94 94 28 84 9 10 12 34 94 106 94 96 18 84 12 27 84 27 9 96 9 85 92 18 27 24 58 9
split_gain=207.518 43.5879 40.7182 12.4741 10.6549 10.2375 7.97587 7.58249 6.17876 5.51312 4.74985 4.62259 3.81381 3.53774 3.47657 3.1385 2.54182 2.48541 2.44318 2.28916 2.06768 2.00319 1.92748 1.79902 1.79724 1.76889 1.76238 1.74146 1.7054 1.62161 1.59641 1.42906 1.41511 1.4498 1.41212 1.40878 1.39779 1.34068 1.33125 1.30887 1.28874 1.2471 1.23306 1.11954 1.11085 1.10225 1.09668 1.07614 1.07132 1.05295 1.04288 1.05992 1.0056 1.00065 0.941722 1.08744 0.936101 0.919367 0.905068 0.887498 0.867529 0.843
threshold=-0.20245144745078492 -0.90958733581045614 0.084999999999999978 3.5000000000000004 0.31905722670579612 0.054999999999999945 3.5000000000000004 1.1756352672275785 4.354166666666667 1.5000000000000002 7.5000000000000009 4.5000000000000009 -0.63960214906683566 7.5000000000000009 6.5000000000000009 0.10555555555555557 0.99218750000000022 0.12499999999999979 1.0427016064814765 0.02973093626895348 -0.52621168190873957 0.030394235042348481 2.5000000000000004 6.5000000000000009 0.094500000000000015 4.4142857142857155 7.5000000000000009 7.5000000000000009 0.10000000000000001 7.5000000000000009 0.030472470011002308 0.077500000000000013 7.5000000000000009 6.5000000000000009 1.6482716798059431 1.1383577052868394 0.36628061740041012 7.5000000000000009 2.5000000000000004 1.0000000180025095e-35 0.098500000000000018 4.7250000000000005 1.5278622087132727 0.021375000000000016 0.87706043956043966 0.14301948051948055 0.02973093626895348 6.5000000000000009 0.070500000000000021 4.5000000000000009 7.5000000000000009 5.5000000000000009 1.5000000000000002 0.11866269323896443 2.5000000000000004 15.000000000000002 4.1041666666666679 0.026049403612586345 5.5000000000000009 0.087999999999999926 1.0000000180025095e-35 4.5000000000000009
decision_type=8 10 8 2 10 10 2 8 10 10 2 8 10 2 2 8 10 8 10 10 10 10 2 2 2 8 2 2 8 2 10 2 2 10 10 8 10 2 2 2 2 10 10 10 8 8 10 2 2 8 2 10 2 8 2 2 2 10 10 10 10 2
left_child=1 4 3 5 9 10 14 32 12 13 23 35 26 19 -3 50 54 44 27 -1 30 41 45 -2 42 36 46 48 57 -6 -10 -18 49 -34 58 -5 -13 -23 -29 -20 -24 61 56 59 -9 -16 -8 -21 -17 -4 -7 -52 -33 -39 55 -12 -14 -15 -25 -28 -22 -11
right_child=2 6 7 11 29 15 8 17 20 21 16 25 24 28 22 18 31 -19 39 47 60 37 40 34 -26 -27 43 38 -30 -31 -32 52 33 -35 -36 -37 -38 53 -40 -41 -42 -43 -44 -45 -46 -47 -48 -49 -50 -51 51 -53 -54 -55 -56 -57 -58 -59 -60 -61 -62 -63
leaf_value=0.010442422174484468 -0.012811016981111365 0.00019715035962998857 -0.014977126563275302 -0.012810224553782074 0.033003613011258169 -0.021405289288699121 -0.0021863739769264405 -0.032577854452427474 -0.0073265974366094992 0.021450423593713866 -0.0023324262834553402 -0.011227400235484398 -0.0019823192375606549 0.025934976529194555 0.020695288549367422 0.0066819923784846389 0.034564741978596818 -0.040179807107535367 -0.0097366010762644957 0.01610745097494623 0.0041350479319873954 0.013834773184368555 0.018569186168936391 0.00094443975424116403 -0.0037727385668748707 -0.024757339866471002 0.027651634813670053 0.009041384078765034 0.025408994741627767 0.047494002951758457 0.0043050503401615642 0.025905606883723533 -0.01010054094224805 -0.023107179793853416 0.011853427048404676 -0.0042072628897938009 -0.021225797421042591 0.015272300777390117 -0.0056151586037260105 -0.024965327555857893 0.0046031914249096608 -0.0019603356468773999 0.010705069922578593 0.0054344077647615219 -0.02221284538458048 0.035932435251208178 0.010566172614240282 0.02620564944205897 -0.010322951321117234 -0.026109799647369755 0.002924653564225374 -0.015577607790453297 0.0096490485677341795 0.02891461845410603 -0.0026216898373668846 0.013869524992745193 0.0075503549394193674 0.03997992129491279 -0.010051353821955072 0.015950402982580183 -0.009716610839478796 0.0091204891603213194
leaf_weight=45.252697360701859 36.488642597571015 29.657964382320642 26.768320651724935 115.41000664327294 38.186827347613871 60.060725854709744 21.939951773732901 76.121367984451354 41.553759291768074 18.075132963247597 15.487781153060494 73.052922748960555 59.929756072349846 15.193951567634938 28.739932116121054 10.809408806264399 10.381082325242458 89.037191218696535 46.756812109611928 36.241875875741243 12.756984042935072 67.684462521225214 54.515680870041251 55.019157284870744 73.957164417020977 98.449935337528586 25.50604644510895 39.400525715202093 68.553582945838571 39.052937552332878 101.68046245444566 13.098832156509159 50.762069607153535 37.071416136808693 20.494655517861247 80.975186281837523 67.029441433027387 20.674189433455467 25.533225724473596 20.207210825756192 23.698880753479898 20.176340561360121 69.318687307648361 15.67787777725607 39.141514595597982 20.218984546139836 72.792981691658497 96.984490118920803 64.705113114789128 102.83969535399228 10.145936632528899 32.646915278397501 34.747086057439446 38.420717020519078 32.091245350427926 31.258374201133847 45.159524781629443 49.977987651713192 28.360513988882303 44.437306095845997 99.224021173082292 59.482333878986537
leaf_count=2249 1943 1461 1650 7771 1865 3796 1183 5859 2590 1035 1109 5206 3763 830 1691 650 679 7078 3251 1537 824 3398 3228 3343 4749 7277 1556 2760 3797 1865 5995 832 3843 2946 1177 5317 5024 1226 1850 1508 1445 1187 4149 993 2976 1181 3803 4618 3961 6795 714 2459 2329 2236 2261 2110 2776 2596 1768 2826 6474 3405
internal_value=-0.000490764 0.0128388 -0.013916 -0.00852468 0.0229669 -0.00377409 0.00544281 -0.0269885 0.0031108 0.0204682 0.00320475 -0.014944 0.00677754 0.0247655 0.0156126 -0.0100143 0.00982538 -0.0339051 -0.00647305 0.0201584 -0.00304872 0.0144924 0.0192076 -0.00326029 0.00275889 -0.0196213 0.0123116 -0.00272597 0.0309144 0.0403301 0.000930587 0.0177483 -0.02049 -0.0155902 9.46588e-05 -0.00926298 -0.0160116 0.0186392 0.00327814 -0.0143321 0.0143375 0.00911327 0.0055286 0.0175106 -0.0290581 0.0269879 0.00761271 0.0234586 -0.00788881 -0.0238105 -0.0171555 -0.0111908 0.0140996 0.0241419 0.00397377 0.00850155 0.00211411 0.0367055 -0.00279564 0.0202175 -0.00813862 0.011994
internal_weight=2899.08 1454.72 1444.35 1022.61 613.958 587.693 840.766 421.742 683.935 536.718 277.427 434.917 428.719 312.205 156.831 310.266 137.064 204.3 207.412 178.479 255.215 224.513 127.173 140.363 248.365 238.532 180.354 140.448 133.726 77.2398 143.234 58.227 217.442 87.8335 103.874 196.385 140.082 126.779 64.9338 66.964 78.2146 97.7338 174.408 85.6212 115.263 48.9589 94.7329 133.226 75.5145 129.608 102.854 42.7929 47.8459 59.0949 78.8374 46.7462 105.089 65.1719 83.3797 69.9434 111.981 77.5575
internal_count=182773 82531 100242 69095 31844 38500 50687 31147 41681 28114 17551 30595 25798 15627 9006 20949 9320 15913 13980 8404 15883 12487 7545 8231 15437 17507 10361 9221 7223 3730 8585 3840 15234 6789 6288 13088 10230 6860 4610 4759 4673 5627 10688 5375 8835 2872 4986 6155 4611 8445 6969 3173 3161 3462 5480 3219 6539 3426 5111 4382 7298 4440
is_linear=0
shrinkage=0.05


Tree=9
num_leaves=63
num_cat=0
split_feature=28 19 28 10 28 35 28 28 34 18 83 9 13 83 94 19 28 12 12 31 12 35 92 83 28 12 28 18 30 31 73 12 28 18 19 34 85 24 28 28 94 28 9 50 24 28 12 28 64 73 9 92 10 94 94 6 43 94 24 28 35 5
split_gain=186.857 45.6521 30.7492 12.4849 9.36916 8.09372 7.43715 7.00698 5.70233 5.27919 5.21318 4.33309 3.59032 3.02933 2.67093 2.60594 2.53481 2.44502 2.42195 2.34505 2.25243 2.04056 2.31779 1.72493 1.70118 1.67018 1.62821 1.598 1.54446 1.50132 1.47583 1.45028 1.43545 1.31827 1.30838 1.29046 1.26263 1.17018 1.10721 1.07949 1.06734 1.00658 0.9453 0.92975 0.927574 0.874808 0.874283 0.86618 0.857057 0.855032 0.854963 0.841419 0.835789 0.822602 0.80315 0.795892 0.792999 0.791607 0.783506 0.775804 0.772112 0.763733
threshold=-0.32826608214931141 0.084999999999999978 -0.966091783079296 1.0000000180025095e-35 0.32969023669790137 2.6726190476190479 1.1756352672275785 0.86602540378443138 3.8166666666666669 0.027124053637210776 2.5000000000000004 4.5000000000000009 29.500000000000004 2.5000000000000004 0.85934065934065951 0.12499999999999979 -1.3498527422930344 0.086500000000000007 0.077500000000000013 0.38750000000000007 0.082500000000000018 2.9833333333333338 3.7645833333333338 2.5000000000000004 -0.62924535808410409 0.095500000000000015 -1.7430966200333389 0.043895167322675864 0.18333333333333338 0.38750000000000007 2.6935483870967745 0.081500000000000017 -0.79883121692340053 0.039520940802374317 0.069999999999999632 4.5500000000000007 1.0000000180025095e-35 0.070499999999999965 -1.6397061821059051 0.77274607003667539 0.87706043956043966 1.1547005383792521 1.5000000000000002 3.4015000000000004 0.084099999999999966 -0.72627303920257213 0.092500000000000013 -0.64862187931843074 25.000000000000004 5.5967741935483888 7.5000000000000009 3.5428571428571431 1.0000000180025095e-35 2.0616698292220117 0.67017543859649142 44.500000000000007 3.5000000000000004 2.6737588652482276 0.095900000000000055 0.64123229939594018 2.7166666666666672 51.500000000000007
decision_type=8 8 10 2 10 10 8 10 10 10 2 2 2 2 10 8 10 2 2 10 2 10 2 2 10 2 10 10 8 10 10 2 10 10 10 10 2 10 10 10 10 10 2 10 10 10 2 10 10 10 2 2 2 8 8 8 10 10 10 10 10 8
left_child=2 3 5 7 10 53 28 14 21 26 19 25 16 20 49 37 54 45 -12 -5 41 -4 -23 -24 33 47 -7 38 -3 -20 57 -21 -25 -19 36 48 -9 -8 -14 56 58 55 -27 -40 -36 -13 -32 -10 -28 51 -42 -2 -30 -1 -11 -6 -22 -16 -18 -54 -31 -53
right_child=1 6 8 4 13 9 15 34 11 12 18 17 27 -15 30 -17 40 24 29 31 39 22 23 32 -26 42 35 -29 52 60 46 -33 -34 -35 44 -37 -38 -39 43 -41 50 -43 -44 -45 -46 -47 -48 -49 -50 -51 -52 61 59 -55 -56 -57 -58 -59 -60 -61 -62 -63
leaf_value=0.032443348159969444 -0.0069016724838522866 -0.024986596333505265 0.022688030218604847 -0.0068608411993339924 -0.0071344912732160251 0.02773091959070606 -0.018866882577868862 -0.019912776264528972 0.022411114994998049 0.026299891687347927 -0.0015579418376336345 0.013012008006250171 0.027806911553875366 -0.024416353272015134 0.020589916396919275 -0.03969028377857553 0.023706962575709315 -0.0040326868930601525 -0.017672903525813806 0.010751731789206709 -0.0079681803795158945 0.0033395333708363499 0.021389596911961045 0.018719536451750732 -0.0084559008225982158 0.029911757116930057 0.016926577074686311 0.024445453214523117 -0.0096909307822460045 0.022575185031334259 0.014167691226091681 -2.0326348934309261e-05 0.0076346495742359334 0.0064579749629229063 -0.006052819272117118 0.0013834224925209733 0.0009121716370102638 -0.030958673159846545 0.024754295065471665 -0.023371890593077701 0.024831120092889687 -0.018673089000103078 0.0029919566150159015 0.0092985014832073012 -0.018245845397355853 0.0029468649522979506 0.0026004627073972636 0.011475936284782618 0.0071749712238488132 -0.0071139060943062691 0.037060361992944074 0.014940090136558308 -0.015061695413548879 0.046490416894280399 0.038135569537629137 0.0070396483831210001 -0.018300090628980335 0.048467490276724229 0.011937847117809427 -0.024228265573614457 -0.0099780022363905665 0.0027948040387068482
leaf_weight=15.322911378927527 13.590215418487785 86.733930957503617 39.594651818275452 96.713759035803378 54.762635513208807 15.215502534061669 25.989658260717988 8.5811673989519459 27.142785341478884 19.286199511028826 58.898316484875977 33.855079649016261 11.88968783803284 95.687707125209272 23.746194280683998 86.989535213448107 31.821805423125625 66.377841078676283 96.722974898293614 43.990764438174665 31.558027556166053 79.39969005715102 50.85721926856786 40.356862148270011 87.390498978085816 3.4414261300116769 59.757605391554534 53.026458010077477 34.414850278757513 1.8463457701727737 42.450559821911156 107.85083107743412 105.69528141058981 54.560486495494843 28.491029378958046 30.101180012337863 47.951206144876778 86.940702830441296 11.315838600508867 52.163386532105505 75.149367246776819 15.608423651196061 62.241725493222475 69.44144647475332 34.467891399748623 59.579393463209271 26.553768269717693 54.410780620761216 36.169913818128407 21.365010985173285 17.648148735053837 19.622154763899744 56.971522220410407 32.586559370160103 55.814719501882792 12.090296861715613 45.130990474484861 2.8523568147793403 25.452414456754923 38.803754637949169 135.46132225636393 38.032218267209828
leaf_count=747 933 6178 2282 6352 3783 778 1996 657 1496 938 3751 1881 560 7021 1407 7141 1646 4037 6682 2743 2208 4704 2925 2186 5638 189 3246 2544 2448 128 2574 7082 6163 3141 2005 1707 3165 6882 571 3922 3722 1165 3683 3544 2467 3611 1623 3155 1955 1395 904 1269 3889 1479 2588 845 3218 158 1375 2883 9111 2416
internal_value=-0.00039116 -0.0120432 0.0134431 -0.00692872 -0.0100576 0.0223455 -0.0262292 0.00169917 0.00692556 0.0205069 -0.00610145 0.0033044 0.0236399 -0.0170355 0.00771109 -0.0331861 0.027597 -0.000126593 -0.0106206 -0.000775493 -0.0136932 0.0120724 0.0105512 0.0134591 -0.00314069 0.0103363 0.0122808 0.0175234 -0.0198177 -0.0129014 0.0135734 0.0031005 0.0106976 0.000700102 -0.00777029 0.0104155 -0.00224889 -0.0281759 0.0135615 -0.0178229 0.0238442 -0.00724036 0.0044024 0.0114642 -0.0127281 0.00659387 0.00971647 0.0151154 0.0132497 0.00165928 0.0271569 0.00429021 -0.0163741 0.0419977 0.0350961 -0.00457111 -0.0140484 0.0235794 0.0184768 -0.0187756 -0.00954027 0.00692834
internal_weight=2897.94 1573.03 1324.9 1156.19 848.486 560 416.844 307.704 764.904 512.09 541.484 449 370.846 307.001 188.212 199.92 225.173 301.763 292.929 248.555 211.314 315.904 276.309 196.909 208.329 147.237 141.244 145.673 216.924 234.031 95.6029 151.842 146.052 120.938 119.491 126.029 56.5324 112.93 92.647 128.852 150.072 82.4614 65.6832 80.7573 62.9589 93.4345 69.0043 81.5536 95.9275 92.6096 92.7975 71.2446 130.19 47.9095 75.1009 66.8529 76.689 26.5986 57.2742 95.7753 137.308 57.6544
internal_count=182892 109497 73395 78080 58011 28304 31417 20069 45091 26078 35849 26831 18392 22162 11775 16019 11173 18308 19672 16177 15141 18260 15978 11274 12816 8523 7686 7219 15398 15921 5762 9825 8349 7178 8294 6908 3822 8878 4675 9348 7647 5793 3872 4115 4472 5492 4197 4651 5201 6013 4626 4618 9220 2226 3526 4628 5426 1565 3021 6772 9239 3685
is_linear=0
shrinkage=0.05


Tree=10
num_leaves=63
num_cat=0
split_feature=28 19 28 10 35 28 9 28 28 83 18 34 84 84 19 28 31 94 13 28 83 77 92 35 27 74 9 84 13 84 85 18 34 28 27 28 85 84 98 28 84 84 27 34 84 13 74 35 94 9 84 27 84 35 84 58 28 28 94 18 9 106
split_gain=169.797 37.2105 35.3381 11.7616 8.87499 7.00703 6.75992 6.00617 5.4179 4.97018 4.73535 4.64841 4.07082 2.87245 2.68235 2.63104 2.55471 2.17154 1.89416 1.79881 1.73897 1.70575 1.66553 2.03202 1.65244 1.61173 1.40458 1.37566 1.35631 1.35151 1.4278 1.45728 1.34654 1.30512 1.24132 1.22775 1.21633 1.20074 1.18568 1.15823 1.1418 1.12091 1.11957 1.10688 1.02237 1.01776 1.01359 1.01301 0.997824 0.981067 0.964401 0.917455 0.923691 0.914047 0.896347 0.890379 0.838221 0.82243 0.819178 0.815422 0.802611 0.786804
threshold=-0.18244870523563847 0.084999999999999978 -0.88607762956830294 1.0000000180025095e-35 2.9833333333333338 1.1756352672275785 3.5000000000000004 0.56980288229819831 0.77274607003667539 2.5000000000000004 0.027124053637210776 4.354166666666667 7.5000000000000009 7.5000000000000009 0.12499999999999979 -0.63960214906683566 0.47222222222222227 1.8495475113122175 29.500000000000004 -1.3686300260290187 2.5000000000000004 1.5000000000000002 4.2133928571428578 3.0166666666666671 2.5000000000000004 2.5000000000000004 1.5000000000000002 7.5000000000000009 32.500000000000007 6.5000000000000009 1.0000000180025095e-35 0.028784916685157039 4.6833333333333345 -1.3273983205390443 6.5000000000000009 1.2990381056766545 15.000000000000002 6.5000000000000009 0.68870673952641182 -1.3686300260290187 6.5000000000000009 7.5000000000000009 3.5000000000000004 4.5500000000000007 6.5000000000000009 28.500000000000004 2.5000000000000004 3.4058823529411768 0.72570532915360519 3.5000000000000004 7.5000000000000009 5.5000000000000009 6.5000000000000009 4.6726190476190483 6.5000000000000009 15.000000000000002 1.1547005383792521 -1.4965397877789719 0.85934065934065951 0.047559486560567112 4.5000000000000009 0.021375000000000016
decision_type=8 8 10 2 10 8 2 10 10 2 10 10 2 2 8 10 10 10 2 10 2 10 2 10 10 10 2 2 2 2 2 10 10 10 10 10 2 2 8 10 2 2 8 8 2 2 10 10 8 2 2 8 2 10 2 10 10 10 10 10 2 10
left_child=2 3 4 8 38 27 13 9 17 16 32 15 19 37 48 41 40 29 33 -12 43 -11 23 -17 -13 35 -15 51 59 -2 -31 -32 39 -14 -29 44 -28 -4 -1 -6 -5 -8 -42 56 -10 -24 -38 -23 -7 -44 -19 52 -3 -35 -18 -26 -9 -20 -39 -21 -41 -43
right_child=1 5 6 7 10 14 11 20 25 21 12 24 18 26 -16 22 54 50 57 28 -22 47 45 -25 55 -27 36 34 -30 30 31 -33 -34 53 -36 -37 46 58 -40 60 42 61 49 -45 -46 -47 -48 -49 -50 -51 -52 -53 -54 -55 -56 -57 -58 -59 -60 -61 -62 -63
leaf_value=0.029809297749283814 -0.010291515072807586 -0.026243680624724937 -6.4325039953305941e-05 -0.018913162365491901 0.019148351067557353 -0.031592385697174118 0.0063292937359683268 -0.0097042131584198048 -0.017598627494347763 -0.019342091907066265 0.02331381114062616 0.0023311443304916517 0.038006009390323316 0.039950295278168013 -0.03946801042455117 0.014457888284275173 -0.011174020245485085 0.0096095126031100122 0.030955530916480834 0.01304826092750655 -0.026855628017320079 -0.0012523564043768498 0.010608453804862576 -0.0033856174664988097 -0.001448649849386905 -0.016364984657897385 0.0057771684506643219 -0.0095316905468099435 0.0047716068073133276 -0.0059124343955923196 0.015250236074274927 0.0028646414105405176 0.001166327336256303 0.028670039769639027 -0.021730837585543297 -0.010181299866698131 0.026983090411122037 0.0057590184082449928 0.041677099076990132 0.017647108251725038 0.0041831935710817027 0.016801769705785383 -0.0048753561069177073 -0.021977374569382799 0.0032430631450925313 0.00064929594588059806 0.0091295182780553284 -0.012346109221119126 -0.021917417697337547 -0.014578021317541724 0.029063579030533662 -0.027036910687328511 -0.013614245957191743 0.013370581280023806 0.0035297853624005992 -0.009027821527406053 -0.021018571949640942 0.016712137698438736 0.016925436068207438 0.021088565977699394 0.005798228933781434 0.0039929770806799419
leaf_weight=50.189020656980574 14.060888209380208 23.575441430322826 31.142162879928946 20.619341019541025 42.289268565364182 64.307689891196787 87.97270100004971 63.690485388040543 6.6097236061468712 87.085552404634655 63.67926936224103 88.650424583815038 35.200034945271909 8.9345570579171163 83.624470842070878 18.161639918573201 11.581882513128219 11.645113183185458 12.472633402794598 95.705789181403816 51.439204260706902 24.436667808331549 68.784343399107456 131.34587578475475 62.614424422383308 32.769538349471986 13.930760871618984 49.604392259381711 35.461456262506545 20.307255213148892 44.834935423918068 50.49870980065316 33.522802294231951 64.982367621734738 35.976705456152558 42.021715943701565 33.422950218431652 30.15840417239815 36.244259022176266 19.16294214874506 21.498473173007369 66.252403947524726 74.930770873092115 49.926780096255243 53.600592146627605 40.910722015425563 10.430651878938077 130.30478345043957 45.50952762644738 39.93970513343811 14.064813513308764 64.535171097144485 37.516652413643897 11.48830426763743 98.62345284409821 101.67032194603235 22.032328102737665 54.06817496009171 36.066426657140255 47.029559974558651 56.225374883040786 14.638163588941095
leaf_count=2397 753 1405 1527 1134 2178 5224 4573 4630 377 6164 2756 5184 1738 526 7101 1136 620 617 619 4622 3901 1677 4154 8265 4068 2329 876 3834 1680 1483 2772 3203 1905 3606 2966 2974 2068 1698 1647 1066 1412 4077 5042 3716 3682 2513 657 8998 3609 2985 865 4447 2590 667 6663 6607 1704 3013 1933 2185 3125 917
internal_value=-0.000489907 -0.0130777 0.0111628 -0.00784048 0.0198538 -0.0258458 0.00439869 -0.0113668 0.000611914 -0.00855108 0.0175946 0.0022036 0.0203256 0.0135089 -0.0327208 0.00537899 -0.00385076 0.00697701 0.0260598 0.0161008 -0.0190276 -0.0137444 0.00221507 -0.00121805 -0.00317042 -0.00671548 0.0215006 -0.019549 0.0135232 0.00434559 0.00612533 0.00868952 0.0100069 0.0300389 -0.01466 -0.00362242 0.018648 0.0080327 0.0347858 0.0125253 -0.00794709 0.0102356 -0.006289 -0.0160591 0.000955119 0.00689419 0.0227366 -0.0105942 -0.027583 -0.00824891 0.020252 -0.0228796 -0.0184879 0.0263716 0.00198451 -0.00613915 -0.0126122 0.019382 0.0118403 0.0156974 0.00881009 0.0144839
internal_weight=2893.98 1391.17 1502.81 986.523 657.721 404.65 845.087 696.109 290.413 509.021 571.288 681.001 420.088 164.086 193.442 428.066 267.194 155.412 178.212 241.876 187.089 241.827 259.203 149.508 252.935 135.002 66.7189 211.208 178.197 129.702 115.641 95.3336 151.2 111.671 85.5811 102.232 57.7844 97.367 86.4333 117.678 156.988 168.863 136.369 135.65 60.2103 109.695 43.8536 154.741 109.817 114.87 25.7099 125.627 61.0921 76.4707 110.205 164.285 85.7228 66.5408 66.2248 142.735 75.3883 80.8906
internal_count=182860 98877 83983 67701 33204 31176 50779 48646 19055 34695 29160 41494 20886 9285 15934 25635 17856 9693 9643 11243 13951 16839 16068 9401 15859 9362 4127 15242 8487 8211 7458 5975 8274 6011 6800 7033 3601 5158 4044 6369 10573 9567 9439 10050 4059 6667 2725 10675 8833 8027 1482 8442 3995 4273 7283 10675 6334 3632 3631 6807 4191 4994
is_linear=0
shrinkage=0.05


Tree=11
num_leaves=63
num_cat=0
split_feature=28 19 28 9 19 96 9 28 27 12 84 27 84 27 84 84 74 28 19 94 34 30 28 18 84 34 10 84 94 93 73 73 73 12 84 84 12 28 28 13 18 52 18 73 12 84 27 9 12 18 28 85 9 28 9 27 84 12 46 83 46 1
split_gain=154.159 36.0638 28.5518 10.342 9.9363 8.01261 6.20322 6.07423 4.72942 4.55591 4.3034 4.0636 3.63017 3.44061 3.09386 2.63217 2.45675 2.28408 2.10275 1.95839 1.82466 1.81908 1.68831 1.66611 1.65924 1.54063 1.42394 1.41442 1.38531 1.35182 1.28189 1.26037 1.24464 1.20165 1.19731 1.1748 1.15788 1.2097 1.15385 1.1519 1.11512 1.0678 1.0666 1.0471 1.01244 1.01086 0.974378 0.95666 0.945778 0.941611 0.938363 0.937285 1.06267 0.889195 0.876501 0.858533 0.846624 0.843406 0.839616 0.835066 0.829929 0.82061
threshold=-0.20245144745078492 0.090000000000000094 -0.88607762956830294 3.5000000000000004 0.054999999999999945 0.33389639639639646 3.5000000000000004 1.1756352672275785 4.5000000000000009 0.08950000000000001 7.5000000000000009 1.5000000000000002 7.5000000000000009 5.5000000000000009 7.5000000000000009 7.5000000000000009 2.5000000000000004 -0.72627303920257213 0.12499999999999979 1.4775828460038991 4.7250000000000005 0.15476190476190479 -0.55506629473361013 0.035632048174962745 6.5000000000000009 3.9500000000000006 1.0000000180025095e-35 6.5000000000000009 2.0934782608695657 2.5000000000000004 3.3709677419354844 5.1129032258064528 2.0483870967741939 0.08950000000000001 6.5000000000000009 7.5000000000000009 0.075500000000000012 0.74053921482308671 0.32969023669790137 29.500000000000004 0.032586880211286799 15.000000000000002 0.020701966780270597 4.9838709677419368 0.082500000000000018 6.5000000000000009 6.5000000000000009 7.5000000000000009 0.070500000000000021 0.024397501823713117 0.93158850511217728 15.000000000000002 2.5000000000000004 1.2990381056766545 1.5000000000000002 5.5000000000000009 6.5000000000000009 0.08450000000000002 1.0000000180025095e-35 2.5000000000000004 15.000000000000002 9.5000000000000018
decision_type=8 8 10 2 10 10 2 8 8 2 2 10 2 10 2 2 10 10 8 10 10 8 10 10 2 8 2 2 8 10 10 10 10 2 2 2 2 10 10 2 10 8 10 10 2 2 10 2 2 10 10 2 2 10 2 8 2 2 10 2 10 2
left_child=2 3 5 4 10 11 15 35 29 17 24 14 21 -14 23 45 22 -8 48 44 39 -6 40 -1 -2 38 31 -19 49 34 61 53 -29 -26 -5 55 -23 -38 -10 42 -11 -34 -13 -21 -12 -4 -37 -7 -9 -16 -28 -46 -53 -15 -35 56 -3 -32 -44 -27 -24 -17
right_child=1 7 6 8 12 47 9 18 25 16 19 20 13 26 28 30 -18 27 -20 43 -22 36 60 -25 33 59 50 32 -30 -31 57 -33 41 54 -36 46 37 -39 -40 -41 -42 -43 58 -45 51 -47 -48 -49 -50 -51 -52 52 -54 -55 -56 -57 -58 -59 -60 -61 -62 -63
leaf_value=0.010308084162955733 -0.012049671871664764 -0.026609002971239165 0.0003451520342912048 -0.016085688384558147 -0.020693020229082537 0.027665860739412934 0.014629211524600783 -0.018949769441390398 -0.0075652201406207903 -0.00094853420873832232 0.014619801122458517 0.0057167014470065752 0.0089601237753959891 0.0069029501068041252 0.014021971249297653 0.038959788498100834 -0.0084549055932103458 -0.0057110303772525042 -0.038895969588727493 0.025321722120920376 0.0035704831644999221 -0.0021057676473488179 0.0024502737364279492 0.019712879030174296 0.0055753267511266013 -0.017162337132596819 -0.0091787810946691844 0.019394849558622314 0.034278473747253645 -0.012290282850111769 0.02891218301067279 -0.013817388725118028 0.0097396439100039065 0.007471801193060696 -0.001528578353728141 -0.0097834741780487983 -0.0080241714272239022 -0.020007125626783341 -0.018875852976415211 0.0092069361005313825 0.0079907403242572856 0.0019884789974898374 0.036417777562989896 0.0029987410714046414 -0.0047755595593754465 0.011506325506711464 -0.021701164844977951 0.038842789727073647 -0.030760853429100146 0.025160169841056814 -0.023139784732663732 0.013173776744223237 -0.0010376782742500239 -0.0074278385784769356 -0.0087885559786065499 -0.027398564638615275 -0.013190072950854118 0.012156187963671737 0.017825327340798693 -0.024806586087520066 -0.0065248195553508767 0.019622493019967525
leaf_weight=80.800614668056369 36.011657575145364 19.169119122438133 29.85037514846772 16.975494143553078 67.298283160664141 36.463590229861438 71.00404969137162 22.525245601311326 44.120631408877671 57.062126168049872 27.680742776021361 17.676832373254001 39.557516491040587 28.037204043008387 24.223685312084854 12.858117894269528 94.259178823791444 30.134118415415287 81.466974755749106 24.890499597415332 55.843914049677551 31.093597779981792 38.531809563748538 112.87961369380355 53.83258352894336 60.959858543239534 33.001571514643729 15.744016625918446 33.953086482360959 94.51758393459022 9.7112159123644215 19.489739364944398 69.361028741113842 10.584771613590418 84.129174028523266 40.387747553177178 47.138057289645076 38.072383797727525 46.116794970817864 79.919477087445557 89.769342871382833 123.62574019376189 6.5058372477069488 6.658525036647915 23.819275850430131 63.319678313098848 29.809358646161854 40.308496489189565 68.469103618524969 87.572985631413758 18.945369363762438 30.965069481171668 22.869057306088507 17.630930882878602 38.188600766472518 56.465713352896273 30.387410008348525 33.130931227467954 91.105974993668497 86.310062654316425 77.69317414984107 9.5695649534463865
leaf_count=3797 1958 1166 1459 924 4455 1681 3881 1805 3192 3478 1878 999 2802 1986 1331 763 5977 1465 7149 1577 3085 1978 2514 4925 3248 4727 2540 936 1650 6634 577 1501 4306 619 5775 3133 2906 2567 3603 4276 5184 7711 345 437 1716 3436 2499 1793 5711 4496 1614 2066 1629 1395 2374 3944 2111 2044 4827 6657 5061 587
internal_value=-0.000525296 -0.0124596 0.0106471 -0.00782866 -0.00366468 0.0183388 0.00443085 -0.0263902 -0.0137484 0.00231884 0.00339397 0.0163631 -0.00937984 -0.00378893 0.0199303 0.0133245 -0.00152883 0.00675566 -0.0330611 0.00968249 0.0115402 -0.0141504 0.000952942 0.0157893 -0.00281587 -0.0184902 -0.00809551 0.00441519 0.0254331 -0.00799147 0.0210242 -0.00317257 0.0058771 0.000424916 -0.00397272 -0.0198616 -0.0103645 -0.0133782 -0.0133456 0.0138201 0.00451673 0.00477431 0.0170179 0.0206104 0.00640944 0.00793044 -0.0148443 0.0335342 -0.0278371 0.0227468 -0.0142704 0.00348273 0.00713667 0.00137031 -0.00525974 -0.0231835 -0.0183807 0.0159543 0.0190645 -0.0216424 -0.00354933 0.0307088
internal_weight=2890.45 1397.58 1492.88 1048.9 615.765 667.254 825.624 348.681 433.13 667.185 275.501 590.482 340.265 156.662 339.43 158.44 357.316 309.869 172.461 136.883 251.052 183.602 263.056 193.68 138.618 237.507 117.105 238.865 145.75 195.622 65.2698 65.1579 208.731 102.606 101.105 176.219 116.304 85.2104 90.2374 195.208 146.831 192.987 115.289 31.549 105.334 93.1701 70.1971 76.7721 90.9943 111.797 51.9469 77.6534 53.8341 45.6681 48.7734 106.022 49.5565 42.8421 97.6118 147.27 116.225 22.4277
internal_count=182860 100276 82584 72758 41246 33205 49379 27518 31512 40513 17502 29731 23744 11838 16199 8866 22214 18299 14665 9303 13532 11906 16237 8722 8199 18179 9036 14418 7477 13333 3971 4882 12953 6241 6699 12853 7451 5473 6795 10447 8662 12017 6171 2014 7289 4895 5632 3474 7516 5827 4154 5411 3695 3381 2993 7221 3277 2621 5172 11384 7575 1350
is_linear=0
shrinkage=0.05


Tree=12
num_leaves=63
num_cat=0
split_feature=28 19 28 10 46 28 9 77 19 28 28 84 9 12 96 27 19 12 9 84 94 9 12 84 18 27 84 12 9 27 9 84 12 34 96 18 9 9 73 73 94 12 84 27 96 18 13 30 27 84 28 12 84 73 84 9 28 84 84 34 18 73
split_gain=142.239 31.8097 30.1124 10.7113 6.47941 6.42304 6.35001 4.82183 4.47649 3.70351 3.50088 3.2927 3.14175 2.75901 2.69727 2.6768 2.65441 2.3474 2.23487 2.02837 1.84607 1.81881 1.80121 1.76184 1.60069 1.53277 1.5163 1.52907 1.47291 1.43537 1.42804 1.41614 1.34348 1.30162 1.30121 1.29907 1.27712 1.1336 1.11012 1.0646 1.05999 1.05434 1.02385 1.01255 1.00122 0.982651 0.970311 0.962865 0.891555 0.934597 0.886302 0.870182 0.857173 0.833763 0.815446 1.00237 0.814641 0.796031 0.795137 0.790015 0.787823 0.785769
threshold=-0.11242975334936985 0.084999999999999978 -0.90958733581045614 1.0000000180025095e-35 15.000000000000002 1.1756352672275785 7.5000000000000009 1.5000000000000002 0.054999999999999945 -0.62924535808410409 0.6822882392210089 6.5000000000000009 3.5000000000000004 0.096500000000000016 0.20781176654670633 1.5000000000000002 0.12499999999999979 0.08450000000000002 3.5000000000000004 7.5000000000000009 1.8495475113122175 4.5000000000000009 0.085500000000000007 7.5000000000000009 0.022320714274285412 4.5000000000000009 6.5000000000000009 0.075500000000000012 3.5000000000000004 6.5000000000000009 4.5000000000000009 7.5000000000000009 0.082500000000000018 4.7250000000000005 0.33389639639639646 0.032366943748507598 3.5000000000000004 2.5000000000000004 2.0483870967741939 3.7119815668202771 2.4660633484162902 0.067500000000000018 7.5000000000000009 6.5000000000000009 0.1064127778771083 0.028023151542346265 29.500000000000004 0.29285714285714287 5.5000000000000009 6.5000000000000009 0.11322770341444653 0.075500000000000012 6.5000000000000009 5.5000000000000009 6.5000000000000009 4.5000000000000009 -1.3498527422930344 7.5000000000000009 7.5000000000000009 3.9500000000000006 0.02984084768360647 4.7119815668202776
decision_type=8 8 10 2 10 8 2 10 10 10 10 2 2 2 10 10 8 2 2 2 10 2 2 2 10 8 2 2 2 10 2 2 2 8 10 10 2 2 10 10 10 2 2 10 10 10 2 10 8 2 10 2 2 10 2 2 10 2 2 10 10 10
left_child=2 3 6 8 13 31 11 25 20 22 12 60 26 23 53 33 41 38 -17 51 30 57 52 -4 -20 -5 -9 -28 40 -21 42 48 -14 45 -23 47 58 -15 -11 -37 -25 -7 -2 -33 -26 -13 -46 -24 49 -3 -29 -10 -6 -8 -40 -56 -16 -19 -27 -22 -1 -39
right_child=1 5 4 7 9 16 14 10 19 17 -12 15 32 37 56 18 -18 21 24 29 59 34 35 28 44 36 27 50 -30 -31 -32 43 -34 -35 -36 39 -38 61 54 -41 -42 -43 -44 -45 46 -47 -48 -49 -50 -51 -52 -53 -54 -55 55 -57 -58 -59 -60 -61 -62 -63
leaf_value=-0.0025807536793606639 0.00062993319275351449 -0.025696047521813155 0.0077811743367378634 -0.011287887255830791 -0.00031737723807711063 -0.016000713993317674 0.022933315285066216 -0.013181527816103576 -0.0021723940813307132 0.018912434879558088 -0.016697819242775389 0.01633046915265712 -0.0043217866066200539 0.012894585466792669 0.038713722648911562 0.029326988886534275 -0.038543244714691061 -0.0031567302133924755 0.00047927376782087774 0.0084905298680134737 0.026956151304065496 -0.0093739665321466593 -0.010898822475188877 0.021939519837502107 0.006029013959467212 -0.020745003024549971 0.015257083869163073 0.0068015568021180155 0.01275361784812333 -0.0053313349116424118 -0.011768480666027953 -0.0090087391045968693 -0.013323169503201424 0.01176643467961209 0.014860766555981775 0.012056788456447238 -0.025190271362326957 0.0044349600525491152 -0.008704777238490587 0.0017000515123247817 0.051074094029563727 -0.028811089510404859 0.011141777831170213 -0.02017608370112399 0.01956252133801157 0.02415716095963754 0.0099451536390067832 0.0022321757642723649 -0.026341156913878051 -0.012715048409570953 -0.0035283529613811164 -0.014519891325604488 0.015003721254094566 0.0094848772407541415 0.012854735136401028 0.00057320073451320596 0.028097706864301644 0.0067898902263657862 -0.010689537972940982 0.0056430247478826343 0.0087699246607043108 -0.0048177363707379321
leaf_weight=20.960370264947414 40.11961886100471 22.617383180186152 121.99206322524697 71.286176695488393 10.916714187711476 19.804982258938253 53.260315212421119 18.024907901883125 19.32065056078136 10.395093117840586 90.861637772992253 55.208406664431095 66.830424464307725 21.91266564372927 39.61996094416827 17.976756142452359 78.649191552773118 54.577724706381559 30.867159493267536 31.587206698954105 15.093669432215394 153.51779787056148 24.20735926181078 32.892422156408429 37.889709427021444 40.519173069857061 19.28794757463038 30.698020885698497 88.714106485247612 46.338145311921835 11.7650486882776 48.378870164975524 109.16161996219307 36.593779176473618 5.7460480118170372 43.107574826106429 68.848040806129575 50.709888006560504 15.750734405592082 58.467192318290472 3.4493231596425167 84.984390155412257 54.811141847632825 34.970635659992695 61.824515709653497 146.57879709266126 45.548320714384317 32.982174633070827 62.11203327216208 35.835100710391998 64.172745233401656 54.57291863206774 55.750561719760299 14.707481727004049 22.145972740836442 66.50300251878798 33.225476163439453 31.855454180389643 38.188747243955731 6.1071540629491201 56.47950604185462 41.908593934029341
leaf_count=901 2327 1401 6536 4809 490 1601 2683 1006 1230 597 7002 2828 4667 1224 1741 987 7138 3133 1774 2184 859 10096 1493 1972 2065 2684 1242 1971 5813 3505 902 3792 8048 1795 370 2395 5478 3098 779 3345 190 7239 3631 2982 3249 6756 2427 1927 4432 2524 4397 3501 3108 768 1334 4223 1599 2159 2931 358 2285 2644
internal_value=-0.000451067 -0.0128368 0.00950674 -0.00766881 0.00381907 -0.0248123 0.0177882 -0.0113438 0.000449108 0.000570971 -0.00807279 0.0151927 -0.00552981 0.00908246 0.0271873 0.0168929 -0.0316007 -0.00257255 0.0125337 -0.00535649 0.00734061 -0.00533044 0.00559783 0.0120563 0.0108196 -0.0173082 0.000295439 0.00242336 0.0162267 0.000271387 0.00466288 -0.0187056 -0.00990502 0.0204424 -0.00849961 0.00270166 -0.0202167 0.0026678 0.0033302 0.00609537 0.0247048 -0.02639 0.00669926 -0.0136942 0.0130169 0.0220158 0.0154828 -0.00332595 -0.0221701 -0.0177379 -0.000185829 -0.0112914 0.0124949 0.0200232 0.00177868 0.00364133 0.0338717 0.000509155 -0.0158661 0.0208166 0.00569768 0.000248242
internal_weight=2883.19 1284.95 1598.24 897.595 947.502 387.353 650.741 617.879 279.716 585.923 399.037 509.927 308.176 361.579 140.813 432.487 183.439 360.492 194.106 151.819 127.897 245.697 225.432 247.048 176.13 218.842 132.184 114.159 125.056 77.9254 106.696 203.914 175.992 238.381 159.264 158.764 147.556 114.531 114.795 101.575 36.3417 104.789 94.9308 83.3495 145.263 201.787 107.373 57.1895 120.565 58.4525 94.8708 73.8936 66.6673 67.9678 104.4 88.649 72.8454 86.4332 78.7079 21.2008 77.4399 92.6185
internal_count=182625 93841 88784 62732 56926 31109 31858 44235 18497 35449 28333 25067 21331 21477 6791 21881 15978 22691 10502 10420 8077 15758 12758 14511 9515 15902 8616 7610 7975 5689 6860 15131 12715 11379 10466 9160 11093 6966 6933 5740 2162 8840 5958 6774 7741 9584 5676 3420 8357 3925 6368 4731 3598 3451 6336 5557 3340 5292 5615 1217 3186 5742
is_linear=0
shrinkage=0.05


Tree=13
num_leaves=63
num_cat=0
split_feature=28 28 19 83 96 9 28 28 28 34 83 27 84 96 84 84 19 34 94 28 46 18 12 12 92 18 52 27 73 85 84 12 95 73 12 84 18 84 84 19 73 84 84 57 58 79 30 9 12 63 12 84 73 28 96 9 90 93 77 84 96 73
split_gain=127.084 30.3905 28.1286 10.4134 7.19872 6.95054 5.52475 4.57714 4.45606 4.26453 3.96664 3.75195 3.22191 3.04394 2.78826 2.33185 2.23894 2.22592 2.09719 1.9482 1.67663 1.84542 1.48686 1.46285 1.37559 1.37162 1.35726 1.215 1.20658 1.19508 1.23805 1.14944 1.10715 1.13243 1.10669 1.09522 1.06707 1.03167 1.02393 1.02297 0.996336 0.976872 0.969676 0.969108 0.96616 0.965979 0.956791 0.950663 0.944087 0.913891 0.881384 0.859538 0.847321 0.837186 0.821841 0.81986 0.814576 0.811449 0.809666 0.809336 0.799977 0.797744
threshold=-0.032097036938321222 -0.79883121692340053 0.090000000000000094 1.5000000000000002 0.31905722670579612 3.5000000000000004 1.1756352672275785 1.2990381056766545 0.6822882392210089 4.354166666666667 2.5000000000000004 1.5000000000000002 7.5000000000000009 0.11771241830065361 7.5000000000000009 7.5000000000000009 0.13000000000000014 4.2111111111111121 1.3924263674614308 -0.44232586846468069 15.000000000000002 0.030472470011002308 0.08450000000000002 0.076500000000000012 4.2133928571428578 0.034121631178560659 25.000000000000004 4.5000000000000009 3.5967741935483875 1.0000000180025095e-35 7.5000000000000009 0.081500000000000017 0.33888888888888896 4.7119815668202776 0.081500000000000017 6.5000000000000009 0.032705394924123089 6.5000000000000009 7.5000000000000009 0.069999999999999632 5.5000000000000009 6.5000000000000009 6.5000000000000009 0.17500000000000002 15.000000000000002 3.3965000000000001 0.15476190476190479 3.5000000000000004 0.079500000000000015 0.015000000000000001 0.099500000000000019 6.5000000000000009 4.080645161290323 -0.40513422294570539 0.017910607356715142 4.5000000000000009 0.14226190476190478 2.5000000000000004 1.5000000000000002 6.5000000000000009 0.12372857980208946 5.1129032258064528
decision_type=8 10 8 2 10 2 8 10 10 10 2 10 2 8 2 2 8 10 8 10 10 10 2 2 2 10 8 10 10 2 2 2 10 10 2 2 10 2 2 10 8 2 2 10 10 10 8 2 2 10 2 2 10 10 10 2 2 10 10 2 8 10
left_child=1 4 3 7 11 12 38 13 10 15 17 14 35 27 25 24 46 37 29 34 42 -22 -14 -12 -7 -1 32 51 -24 -15 -31 -10 33 54 -11 -3 43 -5 -4 -32 -9 -19 -13 -16 -36 -6 -8 -39 -43 -20 -21 -2 56 -28 -17 -56 -29 -37 -25 -27 -38 -40
right_child=2 5 6 8 45 9 16 40 31 19 23 20 22 18 36 26 -18 41 49 50 21 -23 28 58 -26 59 53 52 -30 30 39 -33 -34 -35 44 57 60 47 61 -41 -42 48 -44 -45 -46 -47 -48 -49 -50 -51 -52 -53 -54 -55 55 -57 -58 -59 -60 -61 -62 -63
