tree
version=v4
num_class=1
num_tree_per_iteration=1
label_index=0
max_feature_idx=157
objective=rank_xendcg
feature_names=track_id race_number track_condition weather temperature humidity track_temperature grade distance post_position handicap_meters trial_time trial_deviation generation is_home_track rider_age trial_time_rank field_avg_trial field_trial_std trial_time_diff_from_best avg_trial_time_30d avg_trial_time_90d trial_time_trend trial_vs_avg_90d computed_trial_deviation trial_deviation_trend predicted_race_time predicted_race_time_rank trial_time_zscore win_rate_10 top2_rate_10 top3_rate_10 win_rate_30 top3_rate_30 avg_finish_10 avg_finish_30 finish_std_10 momentum days_since_last_race total_races avg_start_timing_10 avg_start_timing_30 start_timing_consistency win_rate_all top3_rate_all avg_finish_all recent_vs_career_wr recent_vs_career_finish days_since_last_win days_since_last_top3 races_since_last_win accident_rate_30 finish_position_prev1 race_time_prev1 start_timing_prev1 handicap_prev1 track_id_prev1 is_wet_prev1 odds_rank_prev1 win_odds_prev1 beat_odds_prev1 finish_position_prev2 race_time_prev2 start_timing_prev2 handicap_prev2 track_id_prev2 is_wet_prev2 odds_rank_prev2 win_odds_prev2 beat_odds_prev2 finish_position_prev3 race_time_prev3 start_timing_prev3 handicap_prev3 track_id_prev3 is_wet_prev3 odds_rank_prev3 win_odds_prev3 beat_odds_prev3 finish_position_prev4 race_time_prev4 start_timing_prev4 handicap_prev4 track_id_prev4 is_wet_prev4 odds_rank_prev4 win_odds_prev4 beat_odds_prev4 finish_position_prev5 race_time_prev5 start_timing_prev5 handicap_prev5 track_id_prev5 is_wet_prev5 odds_rank_prev5 win_odds_prev5 beat_odds_prev5 form_score prev_best_finish prev_worst_finish prev_win_count prev_top3_count ewm_race_time prev_best_time prev_time_std ewm_start_timing avg_odds_rank beat_odds_rate finish_improvement winning_streak top3_streak losing_streak prev_finish_trend prev_race_time_trend prev_st_trend handicap_rank field_size handicap_range_in_field handicap_group handicap_vs_trial is_wet_condition predicted_vs_handicap field_avg_win_rate field_max_win_rate field_avg_finish form_rank_in_field relative_win_strength gap_to_top_rival rider_track_win_rate rider_wet_win_rate rider_wet_top3_rate race_month time_zscore_prev1 time_zscore_prev2 time_zscore_prev3 time_zscore_prev4 time_zscore_prev5 rest_interval_group st_vs_field_avg st_rank_in_field temp_x_condition humidity_x_condition home_x_track_wr handicap_seconds effective_predicted_time effective_time_rank effective_time_gap_to_best field_effective_time_spread handicap_change_from_prev1 field_win_rate_std field_avg_total_races relative_experience relative_momentum handicap_x_trial handicap_x_wr trial_x_st post_x_handicap field_predicted_time_spread
feature_infos=-1:2:5:3:6:4 [1:12] -1:0:1:3:4 -1:0:1:3:2:7 [0:39] [0:99] [0:65] none none [1:8] [0:80] [3.2000000000000002:4.3899999999999997] [0:0.217] [2:38] none none [1:8] [3.2662499999999999:4.1385714285714288] [0:0.17274258305351359] [0:0.50999999999999979] [3.23:4.0300000000000002] [3.2696666666666667:4] [-0.44999999999999929:0.48000000000000043] [-0.58000000000000007:0.92441176470588182] [0.0028000000000000026:0.21069999999999997] [-0.21300000000000002:0.16230000000000008] [3.3057000000000003:4.4685999999999995] [1:8] [-2.3909551787238956:2.4517705565139374] [0:1] [0:1] [0:1] [0:1] [0:1] [1:9] [1:9] [0:4.9497474683058327] [-5.9999999999999982:6.9999999999999982] [1:860] [0:768] [0.01:0.42999999999999999] [0.01:0.42999999999999999] [0:0.22920151250228116] [0:1] [0:1] [1:9] [-0.52068965517241383:0.77238493723849377] [-3.4918918918918918:4.3176470588235292] [1:1134] [1:961] [0:398] [0:1] [1:8] [3.3039999999999998:4.4189999999999996] [0.01:0.81000000000000005] [0:90] -1:2:5:3:6:4 [0:1] [1:8] [1:892.5] [0:1] [1:8] [3.3039999999999998:4.4009999999999998] [0.01:0.81000000000000005] [0:90] -1:2:5:3:6:4 [0:1] [1:8] [1:892.5] [0:1] [1:8] [3.3039999999999998:4.4189999999999996] [0.01:0.81000000000000005] [0:90] -1:2:5:3:6:4 [0:1] [1:8] [1:892.5] [0:1] [1:8] [3.3039999999999998:4.4189999999999996] [0.01:0.81000000000000005] [0:90] -1:2:5:3:6:4 [0:1] [1:8] [1:892.5] [0:1] [1:8] [3.3039999999999998:4.4189999999999996] [0.01:0.81000000000000005] [0:90] -1:2:5:3:6:4 [0:1] [1:8] [1:892.5] [0:1] [1:8] [1:8] [1:8] [0:5] [0:5] [3.3236774193548384:4.1602258064516136] [3.3039999999999998:3.984] [0:0.40154680922652092] [0.01:0.51645161290322583] [1:8] [0:1] [-7:7] [0:5] [0:5] [0:5] [-5.9999999999999982:6.9999999999999982] [-0.46699999999999964:0.44200000000000106] [-0.25999999999999995:0.27000000000000002] [1:7] [5:8] [0:90] [0:4] [0:4294967295] [0:1] [0:4294967295] [0:0.5] [0:1] [2.0249999999999999:6.4428571428571431] [1:7] [0:8] [0:1] [0:1] [0:0.83333333333333337] [0:1] [1:12] [-1.2696191075974264:1.269710758897044] [-2.0465753207503243:2.0473768742091258] [-2.3408330126668648:2.3403411278090989] [-2.4736832860730633:2.4747676718750382] [-2.5390771325080004:2.5392470310235331] [0:4] [-0.17314285714285718:0.22599999999999998] [1:8] [0:128] [0:368] none [0:4] [3.3147000000000002:8.0428999999999995] [1:8] [0:3.9959999999999996] [0.018999999999999684:3.9959999999999996] [-80:80] [0:0.40207793606049391] [47.428571428571431:687.85714285714289] [0:2.5071315372424721] [-5.2714285714285705:5.8749999999999982] [0:316] [0:63] [0.036299999999999999:1.6082000000000001] [0:640] [0.00890000000000013:0.50629999999999953]
tree_sizes=7030 7041 7017 7021 7091 7042 7051 7077 7071 7082 7110 7085 7080 7085 7094 7116 7120 7097 7109 7160 7113 7128 7137 7144 7124 7137 7130 7145 7161 7125 7147 7156 7184 7192 7138 7163 7172 7168 7134 7178 7158 7137 7159 7154 7157 7157 7149 7177 7172 7186 7157 7147 7150 7177 7184 7161 7171 7169 7179 7139 7145 7196 7160 7170 7160 7179 7193 7161 7188 7170 7190 7151 7145 7141 7156 7179 7176 7168 7161 7203 7166 7155 7171 7114 7196 7183 7157 7142 7187 7150 7209 7150 7136 7159 7145 7134 7206 7164 7171 7193 7142 7188 7120 7199 7184 7184 7164 7197 7169 7119 7192 7204 7173 7196 7139 7192 7205 7187 7159 7188 7138 7127 7224 7212 7113 7181 7162 7183 7131 7160 7162 7146 7144 7178 7162 7130 7199 7191 7189 7172 7184 7139 7119 7118 7173 7173 7162 7165 7159 7172 7163 7190 7146 7133 7125 7152 7149 7153 7120 7165 7180

Tree=0
num_leaves=63
num_cat=0
split_feature=28 19 28 145 45 28 28 18 27 116 145 126 28 9 19 28 45 28 45 145 145 12 116 28 35 116 18 157 18 18 116 28 145 126 28 144 145 28 98 116 145 59 116 9 116 126 9 28 12 33 116 47 59 28 126 34 18 128 128 44 145 18
split_gain=476.426 96.6188 68.8417 44.6583 31.6178 18.1519 17.8606 13.9602 13.5837 12.1199 7.73709 7.08772 6.25771 6.12558 6.03339 5.84536 5.59336 5.02889 4.60092 4.57851 4.30787 4.26503 3.47377 3.37714 3.26065 3.1863 3.11925 2.90861 2.80109 2.72603 2.63177 2.5939 2.44761 2.42723 2.30572 2.18546 2.11317 2.04962 1.85765 1.85758 1.77529 1.77271 1.77269 1.74428 1.70801 1.62519 1.62003 1.54217 1.54154 1.53199 1.51539 1.4597 1.43173 1.41235 1.40624 1.38861 1.36433 1.3383 1.28092 1.25256 1.49736 1.22429
threshold=-0.62924535808410409 0.060000000000000282 -1.1542128084574232 3.5000000000000004 3.4156573763315339 1.0223972648864981 -0.18244870523563847 0.033523268393900914 1.5000000000000002 7.5000000000000009 1.5000000000000002 1.2727272727272732 -0.20245144745078492 7.5000000000000009 0.10499999999999977 0.08058229640255847 3.310038759689923 -1.4142135623730929 3.3679826839826843 2.5000000000000004 3.5000000000000004 0.080500000000000016 7.5000000000000009 -0.032097036938321222 3.4058823529411768 6.5000000000000009 0.02356601669474798 0.097500000000000378 0.027774602993176783 0.031471831698777764 7.5000000000000009 0.59678788433954921 1.5000000000000002 0.94427244582043357 -1.4672787658601847 3.5435500000000006 4.5000000000000009 0.30671917946592903 2.5000000000000004 7.5000000000000009 4.5000000000000009 6.3500000000000005 6.5000000000000009 7.5000000000000009 6.5000000000000009 1.8495475113122175 4.5000000000000009 0.46573142025551234 0.086500000000000007 0.46291208791208799 6.5000000000000009 0.30713597577759405 7.0500000000000007 -0.89871703427291172 1.7797979797979802 3.9500000000000006 0.038913824205360513 0.33079814921920186 0.12296032862956906 0.50380132169624126 5.5000000000000009 0.04033343171967526
decision_type=8 8 10 10 8 8 8 10 10 2 10 10 10 2 8 10 10 10 10 8 10 2 2 10 10 2 10 10 10 10 2 10 10 8 10 10 10 8 10 2 10 10 2 2 2 8 2 10 2 10 2 10 10 10 10 10 10 8 10 10 10 10
left_child=2 3 4 9 13 19 21 26 16 12 31 20 42 54 35 41 -4 30 -13 22 -10 -5 47 -21 -8 -14 -6 44 -15 -22 -9 45 52 -23 -28 -7 50 40 -24 -29 -26 -12 -2 61 -18 -11 -46 -3 -36 -48 -20 -34 -27 -31 -1 -25 -38 -30 -17 60 -35 -19
right_child=1 5 8 6 7 14 24 17 11 10 15 18 25 28 -16 58 27 43 36 23 29 33 38 55 37 32 34 39 57 53 -32 -33 51 59 48 -37 56 -39 -40 -41 -42 -43 -44 -45 46 -47 49 -49 -50 -51 -52 -53 -54 -55 -56 -57 -58 -59 -60 -61 -62 -63
leaf_value=0.054072650579293391 0.00082857938597554631 -0.009613343522963759 0.066833979017539055 0.0074767438172211017 0.021594945382804522 -0.022569279389088748 -0.0073630987130266605 0.05964443892316075 0.024700507587873663 0.033335858705738568 0.028675629794551717 0.0491937398135424 -0.015460757961040371 0.080970169664723368 -0.040186216084164228 -0.0054841611776166596 0.0042878006419140744 0.035575540154029736 0.0086500602413126359 -0.0076222252238251995 -0.00071666385816509907 -0.010456166387455841 0.0026411234421132648 -0.019514257407119109 -0.010223674962660715 0.020416976802115495 0.049240127573733944 0.031980559024556592 0.092824042659933437 0.019543499235374118 0.084839188798640566 0.016755050284218628 -0.01033458737252279 0.0020870263450804695 0.047902315655653574 -0.033227454440264578 0.01054123667610123 -0.024966591561761842 -0.016306397126848698 0.048538745115926048 -0.020281695391379324 0.013665238283526027 0.017145008402418484 0.066322231564569706 0.044096533540472112 0.057473671725539459 0.012935907972503977 -0.02292537510234147 0.026082508369078213 0.032020258561565824 0.034769427907046645 0.0017047141680408438 0.0010383908977874652 0.0078805989433805203 0.078351782564560699 -0.027486472602795117 0.023391273551508527 0.12106852098584638 0.0073886826783055408 0.01019674449816598 -0.0093394699302072736 0.050147383892003253
leaf_weight=11.410660276189448 23.867886135354638 33.068005556240678 11.843771260231732 69.523406304419041 46.662235887721181 98.514395447447896 54.138495802879333 26.74526803009212 43.391885004937649 31.770451337099075 33.08871628344059 16.99579731747508 49.466016001999378 11.534518614411356 199.16397948004305 41.011297684162855 10.12664110213518 23.190624503418803 6.5971224885433903 31.418165229260921 68.477025017142296 159.96551142074168 42.425532177090645 79.40951213054359 61.93136091157794 17.859051592648029 28.54595479182899 49.269141066819429 6.1457662396132973 39.506182229146361 16.923645969480276 20.304359253495932 54.414606340229511 60.137211607769132 10.523777514696119 93.980392524972558 42.212821763008833 151.12853613495827 18.610458806157112 25.811663173139095 150.44789921492338 48.50034748762846 55.019145753234625 10.921657372266052 10.681142210960386 8.9345814660191518 21.44929213821888 63.600922498852015 35.066840756684542 20.629696700721979 35.091861760243773 46.856527270749211 20.440594023093581 75.692523205652833 12.494167903438209 174.97935972549021 40.449418937787414 13.20591528713703 36.54493036493659 20.001636859029531 54.794281320646405 38.088451648131013
leaf_count=719 1212 1882 771 4319 2961 6174 3517 1531 2729 2167 2260 1121 2507 784 12322 2801 516 1405 334 1956 4372 10117 2909 4964 3867 1068 1794 2807 423 2477 1162 1384 3234 3713 652 5916 2692 9739 1274 1768 9612 3314 3276 746 680 612 1364 3638 2198 1326 2249 2800 1216 4716 775 10937 2506 908 2493 1301 3502 2274
internal_value=-0.000496105 -0.0130318 0.0320987 -0.00434612 0.0515393 -0.0262411 -0.0117527 0.0436155 0.021165 0.00752172 0.0162137 0.016003 0.000379495 0.0857657 -0.0340852 0.0104101 0.0338595 0.0560147 0.024793 -0.0193141 0.0105313 -0.00366363 -0.0124751 -0.0230878 -0.0188109 -0.00455681 0.0317223 0.0310289 0.100474 0.00718395 0.0694085 0.0313525 -0.000692282 -0.00629001 0.0380966 -0.0277728 0.021458 -0.0205158 -0.00313616 0.037673 -0.0173487 0.0197528 0.0122083 0.0479137 0.0230964 0.038634 0.0267064 -0.0183717 0.0311192 0.0222922 0.0306361 -0.0047642 0.0100746 0.0118803 0.0667625 -0.0249979 0.0168292 0.112099 0.000581595 -0.00135097 -0.00336062 0.0446328
internal_weight=2915 2105.32 809.685 1270.15 291.459 835.171 782.068 236.668 518.226 488.079 220.155 368.415 267.924 54.791 391.659 159.145 149.811 115.87 141.347 443.512 227.068 364.422 157.705 285.807 417.646 189.037 120.799 137.968 30.8862 183.676 43.6689 61.0094 139.571 294.899 74.1366 192.495 124.351 363.508 61.036 75.0808 212.379 81.5891 78.887 72.2007 62.8868 40.705 52.7601 96.6689 45.5906 42.079 41.689 101.271 38.2996 115.199 23.9048 254.389 82.6622 19.3517 77.5562 134.933 114.931 61.2791
internal_count=182763 132003 50760 80031 18332 51972 49687 14723 32428 30344 15031 23196 15313 3609 24412 10868 9232 7118 8902 27560 14294 22952 9703 17857 26735 10825 7605 8461 2115 11565 2693 4163 8318 18633 4644 12090 7781 23218 4183 4575 13479 5574 4488 4425 3886 2779 3370 5520 2850 2690 2583 6034 2284 7193 1494 15901 5198 1331 5294 8516 7215 3679
is_linear=0
shrinkage=0.05


Tree=1
num_leaves=63
num_cat=0
split_feature=28 19 28 145 43 19 28 18 28 28 145 146 116 45 12 19 35 12 18 116 28 146 146 157 116 28 28 31 45 18 145 116 12 28 18 121 28 30 28 58 145 146 116 50 28 116 116 147 127 103 116 28 116 12 130 45 127 116 124 34 34 50
split_gain=428.611 80.0813 71.1117 37.8282 25.9045 16.0892 14.7756 12.3907 12.268 10.5801 8.88098 7.3641 5.95333 5.8942 5.29662 4.39872 4.33064 4.20837 4.05397 3.75901 3.60478 3.40439 2.89496 2.61609 2.54744 2.36549 2.35114 2.34578 2.19427 2.30342 2.15776 2.22628 2.15591 2.10501 2.10352 2.10309 2.07929 1.97255 1.85621 1.83656 1.7982 1.69802 1.67103 1.61833 1.58213 1.57703 1.54912 1.51716 1.4867 1.47282 1.43057 1.41939 1.40299 1.39793 1.37238 1.35815 1.32669 1.30381 1.25112 1.19015 1.18411 1.1754
threshold=-0.53781592427630753 0.079999999999999863 -1.1242374190695077 3.5000000000000004 0.24160047616115596 0.044999999999999936 -0.042169949998420851 0.033523268393900914 1.0223972648864981 -0.88607762956830294 3.5000000000000004 0.0021000000000002132 7.5000000000000009 3.310038759689923 0.08950000000000001 0.115 2.6103448275862076 0.080500000000000016 0.035228843701879183 6.5000000000000009 -1.4142135623730929 0.011700000000000045 0.48280000000000062 0.082200000000000065 7.5000000000000009 0.08058229640255847 -1.7430966200333389 0.38750000000000007 3.2252855839812367 0.038913824205360513 2.5000000000000004 7.5000000000000009 0.08950000000000001 0.32969023669790137 0.021380899352993987 5.5000000000000009 0.1239313884106647 0.10555555555555557 -0.72627303920257213 3.5000000000000004 4.5000000000000009 0.022200000000000001 7.5000000000000009 6.5000000000000009 0.46573142025551234 6.5000000000000009 6.5000000000000009 0.98840000000000028 0.19444444444444448 3.4335000000000004 7.5000000000000009 -1.7430966200333389 6.5000000000000009 0.099500000000000019 0.68070330969267145 3.4156573763315339 0.10000000000000001 6.5000000000000009 4.1133928571428582 3.535714285714286 3.7638888888888893 8.5000000000000018
decision_type=8 8 10 10 10 10 10 10 8 10 10 10 2 10 2 8 10 2 10 2 10 10 10 10 2 10 10 10 10 10 8 2 2 10 10 10 10 8 10 8 10 10 2 10 10 2 2 10 10 10 2 8 2 2 10 10 10 2 2 10 10 10
left_child=2 3 4 5 7 11 17 26 30 13 45 24 25 48 38 41 54 -5 40 -13 42 35 -8 51 -2 -7 -1 -19 -16 -30 31 -3 -20 59 -28 -14 -23 -27 -12 -21 52 61 -9 -36 -32 -11 -39 -26 -4 -25 -22 -18 -15 -42 -6 -29 -47 -34 -57 -24 -49 -10
right_child=1 8 9 6 16 12 22 20 15 10 14 19 21 18 28 -17 23 27 32 39 50 36 33 49 47 37 34 55 29 -31 44 -33 57 -35 43 -37 -38 46 -40 -41 53 -43 -44 -45 -46 56 -48 60 -50 -51 -52 -53 -54 -55 -56 58 -58 -59 -60 -61 -62 -63
leaf_value=0.046449719764665748 0.017397922752117663 -0.021104627088898598 0.062343616089558865 0.0033437846231056316 0.073384061662568403 0.00038191861560414212 -0.013631824684816558 0.053301362049500228 -0.019284875936210529 0.010785206383448785 0.022901762983188179 -0.0088638757420455329 0.021486590728956236 0.00050393158046938046 0.029492013225130426 -0.041179848042616908 0.079804734281818446 -0.015073408054226821 0.039564142124872984 0.016625784358978983 0.038264649820375335 0.010721492705374583 -0.01083047409517787 0.075533158010733084 0.023952683087605859 -0.022134095143426024 0.013641626975487771 0.0089656125549076975 -0.0036057716650607727 0.0079753142541159859 -0.019915712419902368 -0.0063986459019125426 0.0079941044489323723 -0.027798424477571443 0.034611000833204619 0.0015383682592951409 -0.0072625843883124628 -0.020470720250969836 0.01081895273302454 0.0057240543236311775 0.015510664847049098 -0.034428221132768097 0.073236924453154315 0.020111262562255303 -0.029038098081754754 0.037088641739940899 -0.0058510998136296673 0.06385959328412634 0.03152901365263841 0.033786482447820093 0.051890393917775793 0.041588223156341343 0.02859189844990595 -0.0015880336921919348 0.097207005581385897 -0.011659743616434111 0.023539156764948485 0.027750788015444391 -0.0029458431267035505 -0.021682233157582234 0.037431471934014957 -0.030900576739239728
leaf_weight=14.258138326928018 30.144160809926689 67.514310441911221 12.894351904280485 76.92416559997946 9.500336682423951 39.538373069837689 100.10837924666703 27.54282820597291 46.636334027163684 13.797113511711357 55.929114722646773 29.263754101470113 31.365728545933962 5.1610573567450038 7.377546817995607 155.69673214294016 2.9109785472974181 122.94398463983089 39.434427903965116 70.666972189210355 52.414015743881464 21.257420537061989 32.460462845861912 27.106161394156519 11.820391022600235 44.753042228519917 30.299265793524683 13.804488010704516 94.625887336209416 78.59852840937674 98.482520258054137 41.588395209982991 9.8765522632747871 143.46764149516821 50.369835001416504 22.829329903237522 65.891696266829967 24.048919530585408 73.632930705323815 85.222565967589617 42.128255099989474 92.403009646572173 16.999133667908609 31.140777429565787 91.866775976493955 30.999494109302759 73.494288965128362 6.6051696566864875 5.6204404775053254 2.2913302388042203 30.456807214766741 14.693519091233613 32.082377187907696 16.689012779854238 16.623366148211062 83.503429328091443 43.302089036442339 54.055979588069022 81.294918909668922 114.00398839265108 11.828252373263238 40.860035156831145
leaf_count=875 1719 3904 805 4800 586 2260 6754 1501 2990 691 3428 1494 2114 260 481 9913 184 7821 2363 4487 2885 1446 2075 1653 789 2584 1899 915 5979 4812 6192 2871 492 9298 3059 1556 4528 1232 4573 5449 2629 6001 1090 1896 5864 1936 4411 438 363 137 2007 923 2035 1056 1035 5333 2753 3369 5146 7317 787 2561
internal_value=-0.000586233 -0.0138419 0.0271436 -0.00689889 0.0460052 0.00287674 -0.0141333 0.038442 -0.0284621 0.0171464 0.0122998 0.0125247 -0.00445375 0.026003 0.00832055 -0.0350267 0.0722222 -0.00709516 0.0234976 0.00757924 0.0494382 0.00324336 -0.0209626 0.0631509 0.0276852 -0.0104369 0.0273285 -0.00975812 0.00278639 0.00164901 -0.0211051 -0.0154989 0.0303699 -0.0234938 0.0248901 0.0130835 -0.00287591 -0.013443 0.0160348 0.010666 0.0161026 -0.0297013 0.0609096 0.0290714 -0.0243184 0.0263095 -0.00945551 0.0379351 0.0529894 0.0722793 0.0432724 0.0479075 0.0246996 0.010659 0.0885434 -0.00609926 0.0291922 0.0246987 -0.00736118 -0.0192772 0.0469013 -0.0247093
internal_weight=2915.1 1972.29 942.812 1337.24 326.606 568.73 768.511 253.481 635.048 616.205 398.263 245.551 323.179 217.942 310.164 335.596 73.1257 378.471 199.428 185.153 127.413 141.344 390.04 47.002 60.398 181.835 126.068 301.547 180.602 173.224 299.452 109.103 103.367 289.932 111.81 54.1951 87.1491 142.296 129.562 155.89 96.0607 179.899 44.542 81.5106 190.349 88.0987 97.5432 30.2538 18.5148 29.3975 82.8708 17.6045 37.2434 58.8173 26.1237 178.603 74.3016 63.9325 164.798 146.464 18.4334 87.4964
internal_count=182804 125049 57755 84753 19730 35294 49459 15212 40296 38025 24653 15163 20131 13372 19273 21465 4518 24015 12204 11430 7483 9644 25444 2897 3733 10487 7729 19215 11272 10791 18831 6775 6224 18690 6854 3670 5974 8227 8001 9936 5980 11552 2591 4955 12056 5380 5643 2014 1168 1790 4892 1107 2295 3685 1621 11394 4689 3861 10479 9392 1225 5551
is_linear=0
shrinkage=0.05


Tree=2
num_leaves=63
num_cat=0
split_feature=28 19 28 145 45 19 28 28 126 18 146 145 116 27 9 45 19 116 27 116 12 27 146 34 116 126 145 126 126 27 34 116 146 28 28 28 27 28 146 116 116 9 97 146 28 145 116 126 18 157 127 31 116 146 116 126 28 30 35 145 1 28
split_gain=377.917 77.0576 59.352 34.7225 21.683 14.3955 13.1197 12.15 11.0092 10.0746 6.6203 5.76564 5.46117 5.4317 4.79252 4.44665 4.233 3.54093 3.56308 3.36117 3.24498 2.99319 2.77969 2.73917 2.68963 2.67083 2.56462 2.42176 2.18512 2.18398 2.08088 2.01419 1.97688 1.96122 1.90211 1.88799 1.78071 1.78001 1.76902 1.71961 1.6884 1.63633 1.48561 1.44739 1.42565 1.40016 1.54587 1.39206 1.38822 1.3392 1.3357 1.3158 1.31356 1.28403 1.28179 1.26863 1.26392 1.25722 1.24404 1.40504 1.23262 1.2242
threshold=-0.52621168190873957 0.074999999999999969 -1.1094003924504479 3.5000000000000004 3.4926101201310522 0.044999999999999936 -0.12201345838780203 1.0223972648864981 1.5067567567567568 0.02984084768360647 0.0021000000000002132 3.5000000000000004 7.5000000000000009 2.5000000000000004 7.5000000000000009 3.3679826839826843 0.115 6.5000000000000009 1.5000000000000002 7.5000000000000009 0.080500000000000016 1.5000000000000002 0.013499999999999847 4.4142857142857155 6.5000000000000009 0.85934065934065951 1.5000000000000002 1.2034482758620693 1.8441295546558709 4.5000000000000009 4.354166666666667 7.5000000000000009 0.48679999999999995 -0.88607762956830294 0.44095855184408772 0.36628061740041012 6.5000000000000009 -1.7430966200333389 0.053200000000000143 6.5000000000000009 7.5000000000000009 4.5000000000000009 3.6290322580645165 0.47750000000000031 0.25943726083137941 5.5000000000000009 6.5000000000000009 1.7797979797979802 0.018126539343499282 0.10379999999999991 0.10000000000000001 0.38750000000000007 6.5000000000000009 0.4965 6.5000000000000009 0.72570532915360519 -0.87701946984788415 0.11805555555555557 2.870833333333334 5.5000000000000009 10.500000000000002 0.50401612877417989
decision_type=8 8 10 10 10 10 8 8 10 10 10 10 2 10 2 10 8 2 10 2 2 10 10 10 2 10 10 10 10 8 10 2 10 10 10 8 10 10 10 2 2 2 10 10 10 10 2 8 10 10 10 10 2 10 2 8 10 10 10 10 2 10
left_child=2 3 4 5 14 10 20 29 11 37 27 39 25 24 47 56 38 -11 40 44 -5 -17 36 35 -13 61 -23 -2 -16 52 -22 -31 -33 49 -24 58 -14 -6 55 -4 -19 -41 60 -39 54 46 -28 -1 -45 -26 -42 -50 -3 -37 -12 -9 -10 -15 -8 -60 -21 -7
right_child=1 7 8 6 9 12 23 16 15 17 19 13 22 57 28 21 -18 18 -20 42 30 26 34 -25 33 -27 45 -29 -30 31 -32 32 -34 -35 -36 53 -38 43 -40 41 50 -43 -44 48 -46 -47 -48 -49 51 -51 -52 -53 -54 -55 -56 -57 -58 -59 59 -61 -62 -63
leaf_value=0.041791033770831876 0.017883897541989432 -0.023828099682945358 0.0064227337790670374 0.0043603269703770065 0.039942816543113116 -0.010013070257446209 0.009855352725754201 -0.029913812919878671 0.056072156146998779 0.026016002521576306 -0.0057264654413456927 -0.00021432864963893207 0.019792302551594421 -0.0051226012289553417 0.061222584535297046 0.032981556387216192 -0.040591461079962719 0.044726054892105876 0.033181771117405966 0.028647027261043553 -0.0043021493054578057 0.057706798700333184 0.0054240697312577524 -0.024120231279522994 0.015769511099449622 -0.0032432695372894178 0.0047611419327595736 0.038140243720529016 0.085913462282053071 -0.027067822133418792 -0.013475689610498493 -0.010983164489887183 -0.024636365029111883 0.011427296021856222 -0.0094848803153047834 -0.014296887353210705 0.0017139463213506048 0.03148733533970232 -0.035271159833620766 0.030121714026906818 0.066394732316086655 0.014240700883699603 0.009070490191555234 -0.00031556101248683541 -0.011201573520258617 0.011457948763152597 0.025759940252128317 0.061660122027088052 0.0092456225411079798 0.029685237875935817 0.049221795485296482 0.024885224176739159 -0.0080992513315223738 -0.025057549399791629 0.0080138898291968463 -0.01885457564800375 0.033547220322652928 0.0044151175417535974 -0.0085837154424180367 -0.018622093992945954 0.0077927207657270351 -0.02127052322746515
leaf_weight=17.460527681745589 35.038550229743123 18.366716640070081 14.395415192469953 63.372646447271109 12.956481924280522 49.804820377379656 6.125409420579671 59.131859491579235 12.76000612601638 28.05156422033906 23.757162412628531 29.122342299669981 31.695672860369086 53.854599987156689 13.833576111122964 48.870277876034379 150.56615789793432 56.526891527697444 41.99975482467562 24.950792619027197 141.85563531611115 4.0125019513070574 41.117643957026303 169.77739534527063 35.02095194440335 82.971386536955833 10.528983952477573 25.489316193386912 25.438405498862267 124.73756892606616 109.56333934143186 53.926346394233406 52.153383940458298 89.431017852388322 44.597480422817171 46.230573762208223 23.886356755159795 21.530473325401545 71.108533549122512 53.00740506593138 22.316878187470138 23.371925409883261 46.508459696546197 10.271162311546503 18.660523659549654 57.80603891145438 52.297515022568405 17.804355332627892 20.356881165876985 34.146547862328589 22.984715696424246 39.629852757789195 47.869571041315794 69.248868492431939 59.438294993713498 46.185090260580182 12.165287780575452 96.39463244471699 76.402326106093824 64.105435516685247 9.8958602268248779 46.88205635920167
leaf_count=1013 2130 958 713 3933 771 2864 409 3834 766 1318 1216 1445 2107 3391 841 2853 9902 3118 2523 1672 9090 240 2808 11228 2164 4821 524 1540 1527 7425 7050 3770 3720 5595 3084 3174 1629 1344 4754 3269 1389 1480 3139 622 1077 3600 3221 984 1222 2072 1442 2357 3085 4586 3486 3026 760 6104 4912 4268 662 2761
internal_value=-0.000518538 -0.0133212 0.0248084 -0.00643887 0.0412667 0.00291677 -0.0135143 -0.0277838 0.0155933 0.0348173 0.0120776 0.0110866 -0.00404016 0.00808161 0.0652018 0.0253305 -0.0344334 0.0422662 0.0454356 0.00734124 -0.00575111 0.0224938 0.00331425 -0.0191726 0.0137525 -0.00982423 0.0183818 0.0264142 0.0772161 -0.0204639 -0.00829979 -0.0227605 -0.0176957 0.0163171 -0.00233304 -0.0159679 0.0120231 0.0225942 -0.029178 0.0222745 0.0504898 0.0252622 0.014919 0.0201453 0.00128868 0.0170737 0.0222408 0.0518224 0.0166696 0.0226394 0.0576817 0.0195778 -0.0124607 -0.0207497 0.00409022 -0.025064 0.0450784 0.000996464 -0.012202 -0.0131636 0.0227248 -0.0154716
internal_weight=2913.77 1935.42 978.347 1311.38 351.162 564.694 746.682 624.045 627.185 276.625 243.739 428.745 320.955 337.97 74.5369 198.441 326.992 171.88 143.828 183.211 314.792 173.515 141.297 431.89 187.721 179.658 124.645 60.5279 39.272 297.054 251.419 230.817 106.08 158.599 85.7151 262.113 55.582 104.745 176.425 90.7747 101.828 76.3793 81.3551 91.7884 101.856 120.633 62.8265 35.2649 70.2579 69.1675 45.3016 59.9867 66.2363 115.479 83.1955 105.317 24.9253 150.249 146.633 140.508 34.8467 96.6869
internal_count=182788 124120 58668 83646 20471 34996 48650 40474 38197 16106 14922 26233 20074 20771 4365 11964 21516 9790 8472 11252 20073 10438 9628 28577 11276 10446 7585 3670 2368 18958 16140 14915 7490 9831 5892 17349 3736 6316 11614 5462 5949 4749 5473 5545 5779 7345 3745 1997 4201 4236 2831 3579 4043 7760 4702 6860 1526 9495 9589 9180 2334 5625
is_linear=0
shrinkage=0.05


Tree=3
num_leaves=63
num_cat=0
split_feature=28 19 28 145 43 28 28 145 19 18 126 116 145 44 28 19 9 146 28 12 116 116 9 126 33 28 12 12 126 28 116 145 116 28 59 146 12 126 28 116 126 126 27 27 116 12 126 145 43 12 145 18 126 18 48 12 145 28 147 18 18 18
split_gain=340.74 63.4393 62.0477 33.9825 21.6253 11.6898 11.2077 10.2272 9.94899 9.87224 7.16616 5.92193 5.70115 4.80661 4.71864 4.5696 4.2735 4.17882 3.53586 2.98001 2.65768 2.543 2.47252 2.41157 2.29013 2.25381 2.1741 2.14489 1.99295 1.9846 1.98202 2.55597 1.9645 1.94279 1.91095 1.86748 1.81355 1.76877 1.74752 1.71652 1.66291 1.6566 1.64808 1.62982 1.467 1.45867 1.44814 1.39206 1.28915 1.27738 1.25075 1.2406 1.21738 1.19644 1.19581 1.16967 1.1515 1.1379 1.11506 1.08793 1.07908 1.04253
threshold=-0.42347317511024157 0.079999999999999863 -1.0017398137944482 2.5000000000000004 0.24160047616115596 1.0012523486435214 0.050507627227618195 3.5000000000000004 0.059999999999999838 0.029985111658862324 0.99218750000000022 7.5000000000000009 4.5000000000000009 0.58514236645618023 -1.3498527422930344 0.115 7.5000000000000009 0.4965 -0.71857575714794975 0.096500000000000016 6.5000000000000009 7.5000000000000009 2.5000000000000004 0.87706043956043966 0.69615384615384623 -1.3498527422930344 0.08950000000000001 0.08950000000000001 0.94427244582043357 -1.287733735528789 7.5000000000000009 3.5000000000000004 6.5000000000000009 0.35355339059327645 3.6500000000000008 0.027349999999999989 0.08950000000000001 0.85934065934065951 -0.73785631799609419 7.5000000000000009 1.607692307692308 1.5909090909090911 3.5000000000000004 4.5000000000000009 6.5000000000000009 0.090500000000000011 0.72570532915360519 1.5000000000000002 0.31680093475186033 0.076500000000000012 1.5000000000000002 0.02356601669474798 1.0467391304347828 0.037583240945932135 3.5000000000000004 0.087500000000000008 4.5000000000000009 0.89871703427292127 0.12540000000000021 0.038913824205360513 0.030705978943149592 0.030237157840738146
decision_type=8 8 10 10 10 8 10 10 10 10 10 2 10 10 10 8 2 10 10 2 2 2 2 10 10 10 2 2 8 10 2 10 2 10 8 10 2 10 10 2 10 10 10 8 2 2 10 10 8 2 10 10 8 10 8 2 10 10 10 10 10 10
left_child=2 3 4 8 9 30 12 20 11 29 19 32 27 18 39 35 40 34 26 38 -4 37 48 45 36 -18 -12 52 -13 51 43 54 -2 49 -8 46 -14 -10 53 -11 -6 58 -23 -3 -25 -16 -7 -34 -22 -19 -30 -1 -5 -9 -32 -20 -31 -36 -24 -28 -27 -21
right_child=1 5 7 6 16 15 17 10 21 14 13 28 24 -15 23 -17 25 33 55 61 22 42 41 44 -26 60 59 -29 50 56 31 -33 47 -35 57 -37 -38 -39 -40 -41 -42 -43 -44 -45 -46 -47 -48 -49 -50 -51 -52 -53 -54 -55 -56 -57 -58 -59 -60 -61 -62 -63
leaf_value=0.01772184414259324 -0.0059467323249529809 -0.015433482920672979 0.0073336357043307298 0.00033339981062166084 0.034453053581686675 -0.028841125085623549 -0.0004540242887973681 0.0059650923061493159 -0.016729213498464009 0.039759118848987349 0.025296264267579385 0.015436786546759649 -0.0081142544535492255 0.035157832193451137 0.033510347806302423 -0.040197888554614758 0.076152740568939739 -0.0059711025716593837 0.011266841690065437 -0.012731847906519289 0.036749977252610547 0.030366754696608652 0.0046059891885853257 0.021791965583570074 0.013734189023196603 0.041061149636348701 0.0052289185887516654 -0.0054356878480195017 0.03869654870446692 0.020432815409279485 0.0086947994636290566 -0.023375655105949196 0.017585539166591838 -0.025838265202442996 -0.011803982065336047 -0.033458267285748737 -0.016995975485066823 -0.0017705585810292555 0.0015439983729086152 0.054785319264052293 0.053549369968590166 0.031225735672710878 0.0010190110132528062 -0.02648798864110859 0.038916981752303008 0.017614749568468289 -0.015965487379857309 0.0037992417097253727 0.086427296831604231 -0.019684080189024969 0.021887800235684346 0.031101294359252699 0.01231661650137726 0.019663776175062667 -0.011081295255130082 0.0013545848489058025 0.0066924898562531199 -0.022189800751449162 0.020697078632278525 0.01819161412905454 0.064512501969377134 -0.0015531744073333745
leaf_weight=33.910843090154231 28.683212107047439 46.452194230630994 24.134445024654269 46.830196868628263 19.290212162770331 49.588943102397025 29.294636242091656 34.26344255451113 43.683003423735499 47.99914781190455 52.089447657577693 46.645276362076402 110.39188984781504 23.53274017572403 22.281007272191346 148.3642189130187 27.815792487934232 20.493342400528491 51.375685643404722 31.25667916238308 23.761162676848475 5.2022821940481654 13.243921267800031 15.074101433157919 8.4701868128031474 8.8190815942361969 33.059602532535791 85.674009133130312 22.017613682895899 25.771713148802519 8.7905349358916265 50.545820108614862 30.89476337376982 153.18837400060147 100.4524782160297 87.854047289118171 119.89847239945084 36.087273360230029 90.42235497571528 31.465107712894678 27.871629417873919 33.184608883224428 59.46404427383095 118.1471825055778 73.395614627748728 40.972622761502862 39.022761239670217 44.953113839961588 1.3819081597030152 99.123326160944998 22.252582689747214 35.425801758654416 38.716512247920036 29.804772153496742 58.608090358786285 70.742819874547422 37.340432367287576 35.762246009893715 57.551781457848847 31.71393758803606 11.05275499075651 62.685027815401554
leaf_count=2024 1469 2693 1192 2914 1114 3275 1949 2103 2583 2442 3057 3099 7125 1442 1265 10053 1578 1319 3120 2018 1439 347 849 707 559 523 2034 5339 1405 1536 617 3665 1813 10219 6746 6030 7875 2104 5656 1870 1494 1994 4049 7153 4266 2350 2586 2676 83 6505 1484 2046 2377 1759 4138 4408 2262 2472 3495 1854 647 3878
internal_value=-0.000605926 -0.0141158 0.0210009 -0.00739631 0.0351487 -0.0272609 -0.0127487 0.0112349 0.00596243 0.0296028 0.00783692 0.0133164 -0.00680625 0.0135973 0.0358385 -0.0337302 0.0564107 -0.018307 0.0114742 0.00174999 0.0225634 -0.00398864 0.02541 0.030669 -0.0117993 0.0669652 0.0176913 0.000156362 0.0226487 0.0187185 -0.0198233 -0.0148762 0.00519958 -0.0221097 -0.0120392 -0.0282925 -0.0127384 -0.00996207 0.00602024 0.045709 0.0457386 0.0220077 0.00337998 -0.0233683 0.0359991 0.023214 -0.023171 0.00941475 0.0394803 -0.0173347 0.0302476 0.0245577 0.00575673 0.0123378 -0.00850198 0.00552471 0.0123033 -0.0145307 0.0176869 0.0115756 0.0541048 -0.00527259
internal_weight=2918.24 1795.55 1122.69 1188.18 458.486 607.374 848.296 664.204 339.883 363.636 510.947 195.447 409.981 262.514 231.188 324.83 94.8495 438.314 238.981 248.432 153.258 144.437 129.123 151.723 238.761 47.6876 116.863 171.221 90.9155 132.449 282.544 117.944 104.531 272.805 165.509 176.466 230.29 79.7703 154.491 79.4643 47.1618 103.98 64.6663 164.599 88.4697 63.2536 88.6117 75.8479 25.1431 119.617 44.2702 69.3366 85.5467 64.0682 67.3986 122.119 63.1121 136.215 70.7957 64.7735 19.8718 93.9417
internal_count=183143 116638 66505 76428 26124 40210 55399 40381 21029 20768 31329 11946 26189 15915 12900 21944 5356 29210 14473 15414 9052 9083 7860 8588 15559 2748 6945 10630 5988 7868 18266 8420 5958 18043 11167 11891 15000 4687 9518 4312 2608 6338 4396 9846 4973 3615 5861 4489 1522 7824 2889 4070 5291 3862 4755 7528 3798 9218 4344 3888 1170 5896
is_linear=0
shrinkage=0.05


Tree=4
num_leaves=63
num_cat=1
split_feature=28 19 28 145 43 19 28 18 28 145 27 145 34 28 28 28 12 19 19 111 30 157 146 45 18 44 124 106 28 0 146 98 146 127 28 28 13 13 157 144 157 144 30 28 145 12 32 48 12 28 12 12 146 12 124 59 145 28 12 13 43 31
split_gain=305.852 61.1962 51.2247 28.4955 16.9691 15.8851 9.229 8.40556 8.38381 8.17975 6.67644 6.29167 4.33919 3.52532 3.10393 2.99523 2.80619 2.79662 2.49375 2.44946 2.28269 2.17432 2.10931 2.08088 2.06067 2.0116 2.01123 1.88593 1.85315 1.83652 1.82439 1.72139 1.65536 1.63081 1.61485 1.51026 1.44105 1.44062 1.34446 1.33801 1.31507 1.22713 1.22632 1.22306 1.17955 1.15974 1.10782 1.1043 1.05765 1.01783 0.972761 0.950496 0.925845 0.923939 0.919322 1.15843 0.913907 0.893622 0.887339 0.882262 0.877621 0.84357
threshold=-0.42347317511024157 0.084999999999999978 -1.0159811993677292 3.5000000000000004 0.24160047616115596 0.059999999999999838 1.0000000180025095e-35 0.034121631178560659 1.1756352672275785 3.5000000000000004 1.5000000000000002 1.5000000000000002 3.8166666666666669 0.86602540378443138 -1.3686300260290187 -1.3912086991047949 0.079500000000000015 0.054999999999999945 0.12499999999999979 2.5000000000000004 0.15476190476190479 0.06565 0.034700000000000626 3.4156573763315339 0.037289089429432133 0.58514236645618023 4.2732142857142863 3.6333333333333337 -1.3498527422930344 0 0.011700000000000045 2.5000000000000004 0.47750000000000031 0.10000000000000001 0.52982286224423836 -1.0000000180025095e-35 33.500000000000007 32.500000000000007 0.088900000000000437 3.5435500000000006 0.08290000000000021 3.9244500000000007 0.18333333333333338 -0.71857575714794975 3.5000000000000004 0.090500000000000011 0.43405797101449278 13.500000000000002 0.087500000000000008 0.08058229640255847 0.076500000000000012 0.10050000000000002 0.9776999999999999 0.070500000000000021 4.073214285714287 8.0500000000000025 2.5000000000000004 0.62453835277995384 0.08450000000000002 33.500000000000007 0.44912747707778772 0.38750000000000007
decision_type=8 8 10 10 8 10 10 10 8 10 10 10 10 10 10 10 2 10 8 10 8 10 10 10 10 10 2 10 10 1 10 8 10 10 10 10 2 2 10 10 10 10 10 10 8 2 8 8 2 10 2 2 10 2 2 10 10 10 2 2 10 10
left_child=2 3 4 5 7 11 16 21 34 33 25 31 23 20 59 36 -5 32 53 29 -7 52 47 -12 42 40 -25 -18 51 -13 -22 46 -8 41 44 58 60 38 -17 -36 -11 -4 -14 -26 -3 -16 54 -15 -30 -32 -34 -23 -1 -10 55 -2 -37 -19 -31 -9 -6 -42
right_child=1 8 9 6 15 13 17 14 18 10 12 19 24 22 45 37 27 57 -20 -21 30 28 -24 26 43 -27 -28 -29 48 35 49 -33 50 -35 39 56 -38 -39 -40 -41 61 -43 -44 -45 -46 -47 -48 -49 -50 -51 -52 -53 -54 -55 -56 -57 -58 -59 -60 -61 -62 -63
leaf_value=0.017670185345810063 0.022457306664878378 -0.010564904084484041 0.035504087922464053 0.0011609803150858531 0.059458206504397086 -0.012455595757583459 -0.0089623508567525292 0.047380783658349648 -0.023621374555811623 0.0085412060986801552 0.025618516551161864 -0.0034359471256104933 -0.0091614694227455089 -0.003669283282348966 0.036872393454674787 0.03666196790222994 -0.0052973481877430471 -0.021549368885246931 -0.041768474306216025 -0.0072538986545699086 0.0090166281090164873 0.035039929225855006 -0.024626812627209792 0.0051688943352137702 0.011313852938395787 0.046815913202707747 0.017576976912229769 -0.014199467300215169 0.027289473923719155 0.022371203298427143 0.0058470133758517749 0.0041363801375542894 -0.0098996138683204397 0.016448395488668607 -0.016984223916221761 0.0092926631887550355 0.038443874859725474 0.025732213640114705 0.055212336599726547 -0.028540404953622291 0.012944922443840873 0.02173071340218715 0.00080417624339790294 0.0015426428911300696 -0.021977326886291712 0.026926798459461523 0.076456800233486444 -0.01599495527316688 0.013809048849985191 -0.0073788140639555674 -0.020857458274010927 0.019941705778155856 0.0052106541342308412 -0.033634234823779134 0.027447771485299186 0.0032068876740100338 -0.0011035392163961737 -0.028698390064538001 0.010097401872199294 0.029951099790044417 0.076367057145105027 0.025734529374691624
leaf_weight=34.536851775832474 23.095561699010432 37.738047680817544 25.274913191795349 59.761824456974864 30.704288731329143 56.777599421329796 57.192644266411662 49.30844366364181 30.197783541865647 25.71126751229167 22.892601259984076 42.568471835926175 51.651351327076554 33.168748380616307 47.834866275079548 17.650386368855834 94.883127687498927 96.701862630434334 101.41442613862455 44.789442083798349 36.611564102582633 38.230528837069869 40.597368722781539 95.772391823120415 55.835040772333741 6.5303097562864414 49.557125494815409 159.51671584136784 21.853888648562133 22.073208244517446 18.80874755885452 15.809173704124985 24.356630315072834 87.072217115201056 32.591315107420087 42.354357779957354 6.5613107709214082 10.057203280739484 21.869929549284279 108.21833120752126 18.241685713641346 44.89891623146832 76.724215593189001 75.099857768975198 56.596843838691711 75.695365624502301 0.93499208055436511 40.192147771827877 43.538687080144882 64.199588919058442 120.22002190444618 14.331890020519493 26.236420007422566 97.188261995092034 34.555228941142559 11.81193120125681 42.203459151089191 79.770560286007822 44.237158745527267 8.5140057569369656 10.230993716046212 43.969057140871882
leaf_count=2032 1366 2401 1465 3762 1649 3599 4047 2563 2077 1511 1407 2422 3279 2161 2594 997 6178 6549 7095 2771 2299 2145 2705 5875 3329 373 2986 10502 1250 1358 1152 939 1615 5146 2149 2683 346 549 1188 7271 1056 2519 4845 4639 3658 4176 56 2632 2577 4115 8201 815 1501 6762 2054 718 2737 5621 2736 430 536 2482
internal_value=-0.000513847 -0.0135036 0.0197316 -0.00796666 0.0326713 -0.000132283 -0.0149229 0.0276696 -0.0291042 0.0110226 0.008011 0.00747107 0.00535313 -0.008628 0.0352534 0.0512243 -0.00858889 -0.0201838 -0.0359182 0.00328249 -0.00419976 0.0199744 -0.0154825 0.0116071 0.00129597 0.0200417 0.00940003 -0.0108793 0.0239329 0.00572215 -0.000281132 0.0190459 -0.0161629 0.0210196 -0.0224742 0.00800342 0.0601975 0.0426278 0.0469275 -0.0258657 0.0180531 0.0266915 -0.00320546 0.00570942 -0.0174119 0.0307781 0.0223941 -0.0104221 0.0183141 -0.00438199 -0.0190114 0.0309232 0.0122913 -0.0312606 0.0216664 0.0159434 0.00410384 -0.0247809 0.0141831 0.0448144 0.0636843 0.0219843
internal_weight=2907.52 1771.14 1136.39 1307.19 457.155 614.789 692.403 360.081 463.945 679.231 521.985 324.433 427.533 290.356 181.353 97.0741 314.162 378.242 228.8 238.226 176.398 178.728 113.958 168.222 259.31 94.4523 145.33 254.4 117.955 193.437 119.62 86.2069 201.769 157.246 235.145 150.868 47.4966 49.5775 39.5203 140.81 87.922 70.1738 128.376 130.935 94.3349 123.53 70.3977 73.3609 65.3926 83.0083 144.577 52.5624 60.7733 127.386 69.4627 34.9075 84.5578 176.472 66.3104 57.8224 40.9353 62.2107
internal_count=182651 116391 66260 84978 25348 38503 46475 20083 31413 40912 31782 19840 26360 18663 9763 5265 20442 26033 15934 14707 11165 10320 7498 10268 16092 5422 8861 16680 6787 11936 7566 5133 13863 9130 15479 9514 2531 2734 2185 9420 5049 3984 8124 7968 6059 6770 4194 4793 3827 5267 9816 2960 3533 8839 4138 2084 5420 12170 4094 2993 2185 3538
cat_boundaries=0 1
cat_threshold=64
is_linear=0
shrinkage=0.05


Tree=5
num_leaves=63
num_cat=0
split_feature=28 19 28 145 43 19 145 28 28 18 28 116 145 34 146 28 116 126 12 116 116 19 35 116 9 28 116 9 18 45 97 9 27 126 116 12 12 28 12 12 12 145 116 157 59 97 59 146 126 126 126 34 12 125 13 145 24 124 116 24 9 126
split_gain=275.017 53.5583 52.8933 27.1741 15.7619 10.9881 9.78323 9.59857 8.18156 7.29357 6.42964 5.30227 4.72305 3.8461 3.83085 3.59664 3.5615 3.35897 3.30221 2.87876 2.47615 2.45314 2.38379 2.29643 2.20126 2.10952 1.96871 1.84392 1.86545 1.83266 1.75866 1.72978 1.69023 1.6619 1.62949 1.6256 1.62385 1.61325 1.60797 1.60757 1.50299 1.41533 1.62945 1.36448 1.33901 1.28756 1.26683 1.26403 1.24772 1.20232 1.15839 1.12364 1.11832 1.11662 1.11488 1.11017 1.09743 1.08505 1.06417 1.05547 1.02667 1.04449
threshold=-0.33735959998733955 0.084999999999999978 -0.966091783079296 2.5000000000000004 0.24160047616115596 0.059999999999999838 3.5000000000000004 0.30671917946592903 1.1756352672275785 0.029439202887759527 -0.71857575714794975 7.5000000000000009 4.5000000000000009 4.2111111111111121 0.50550000000000039 -1.4142135623730929 7.5000000000000009 1.7530487804878052 0.097500000000000017 6.5000000000000009 7.5000000000000009 0.12499999999999979 3.4058823529411768 7.5000000000000009 2.5000000000000004 0.59678788433954921 7.5000000000000009 7.5000000000000009 0.030118812346154402 3.4156573763315339 4.7580645161290329 7.5000000000000009 1.5000000000000002 0.85934065934065951 6.5000000000000009 0.095500000000000015 0.096500000000000016 0.52982286224423836 0.077500000000000013 0.090500000000000011 0.090500000000000011 5.5000000000000009 6.5000000000000009 0.10244999999999994 7.6500000000000012 2.5967741935483875 6.6500000000000012 0.032850000000000053 2.6458333333333344 0.76556776556776562 1.0467391304347828 4.4142857142857155 0.081500000000000017 2.5000000000000004 32.500000000000007 3.5000000000000004 0.073400000000000035 3.9857142857142862 7.5000000000000009 0.08110000000000013 6.5000000000000009 1.7530487804878052
decision_type=8 8 10 10 8 10 10 10 8 10 10 2 10 10 10 10 2 8 2 2 2 8 10 2 2 10 2 2 10 10 8 2 10 10 2 2 2 10 2 2 2 10 2 10 8 10 10 10 10 10 10 10 2 10 2 8 10 2 2 10 2 8
left_child=2 3 4 5 9 11 19 12 37 26 13 34 23 27 44 60 33 43 29 -4 49 56 -14 39 -21 59 -1 28 -8 -12 48 -19 -28 -7 -2 -22 53 55 -24 -5 -15 42 -31 54 -9 57 -25 58 -13 -17 -36 -16 -43 -26 -6 -3 -10 -38 -39 -18 -11 -62
right_child=1 8 6 7 17 16 10 14 21 15 18 30 22 40 51 20 25 31 -20 24 35 -23 38 46 36 -27 32 -29 -30 41 -32 -33 -34 -35 50 -37 45 47 -40 -41 -42 52 -44 -45 -46 -47 -48 -49 -50 -51 -52 -53 -54 -55 -56 -57 -58 -59 -60 -61 61 -63
leaf_value=0.009507898404648614 -0.0070567692463185429 -0.010185691078438967 0.0040588104893329244 -0.0030876424285993746 0.03482999255755681 -0.016933124833547773 0.0049012800633281171 -0.0075876023369120561 -0.023142594541478784 0.032077982729324502 0.022657811483260862 0.022904524034757099 -0.001458472450124869 0.012370241303880243 -0.021613102849686577 0.015393840761318901 0.025250521444047165 0.04442668128405456 -0.0068414182154109592 0.032944734102884232 0.03965326027748009 -0.041275201836163622 -0.0054779713911727416 0.0097696214237937354 0.026945032867277993 -0.0038090111130001437 0.029412538261031247 0.03273971105191955 0.01905980489096782 -0.0057224389862032717 0.0091662665701892094 0.061039309481593897 0.01418597011278481 -0.0045744101098121144 0.0018712732738414293 0.025307761969348776 0.015808341000058131 -0.024707375485181995 -0.017055960660633879 -0.014546890841335897 -0.0011769037372080025 0.0069824865732561071 0.0099972980027816967 0.048209332276698533 -0.017644688553379889 0.0053185060682465809 -0.00218326820721186 -0.028691386666287538 0.049295420409668292 0.025658218767632242 0.014721231155454895 -0.029632066609912057 -0.0038318563294790168 0.015328371002315183 0.011508436961085026 -0.021323226658028282 -0.03362984830164116 0.061120851406703536 -0.0088422315750215572 0.0058886442569754185 0.03896665712533904 0.055858948657812595
leaf_weight=67.262041396461427 26.65694323554635 37.50322849303484 28.573167100548744 69.929882887750864 22.981052215211097 61.740972858853638 32.380443955771625 50.567122111096978 34.663917942903936 26.014728488400578 12.599522721953688 56.927581320516765 35.729651715606451 32.508876886218786 100.70585754234344 43.99064820073545 10.495983736589553 27.908241585828364 96.808401355519891 32.2898287801072 44.661878945305943 98.201760927215219 35.279354547150433 35.054596922360361 49.152460523881018 56.762554565444589 34.460522087290883 16.947192685678601 82.632617085240781 20.163575427606702 24.570126564241946 35.73131004255265 38.68578696064651 48.625232186168432 40.552420592866838 35.401066478341818 4.0340528711676589 26.620837787166238 199.9507883451879 54.424538774415851 55.30434933770448 33.416206941008568 90.36085535120219 14.839497208595274 95.79377730935812 30.659612712450325 60.296749990433455 92.480929325334728 4.8611098965629926 81.172814311459661 30.904259162954986 77.152827301993966 83.996984904631972 35.718994661234319 6.5952005181461564 55.464334503747523 88.978461099788547 1.9645546255633233 17.529993331991136 21.368552083149552 26.450014037080109 13.991751371882854
leaf_count=3535 1367 2398 1389 4063 1259 3767 1953 3497 2444 1253 787 3672 2400 1908 6986 2242 707 1395 6151 1888 2661 7110 2303 2421 2878 4005 2122 1059 4716 1002 1595 1872 2459 2889 2388 2155 237 1678 13561 3211 3380 2058 5705 787 6728 1823 4233 6372 302 4069 1788 5354 5390 2176 363 3625 6358 113 1281 1447 1384 729
internal_value=-0.000417536 -0.01385 0.0171752 -0.0083206 0.0293919 0.00265531 0.00858239 -0.0134856 -0.0285277 0.0249349 0.00529184 0.011446 -0.00907446 0.0119467 -0.0201613 0.0297169 -0.00549389 0.0463894 0.000956332 0.0186334 0.0264432 -0.0353755 -0.0134918 -0.00362667 0.0213407 0.00197064 0.015682 0.0173424 0.0150737 0.00409467 0.0204814 0.0537541 0.0213595 -0.0114881 0.00349311 0.0333102 0.0182576 -0.0219113 -0.0153195 -0.00810286 0.00383831 0.00306857 0.00712946 0.0358371 -0.01417 0.00946337 0.00221105 -0.0253685 0.0249808 0.0220506 0.00742874 -0.0250916 -0.000754056 0.022056 0.0296295 -0.0168303 -0.0306897 0.0306483 -0.0184082 0.0122663 0.0398266 0.0448109
internal_weight=2909.45 1649.79 1259.66 1198.35 520.147 383.466 739.512 814.885 451.443 412.091 557.119 184.472 490.666 219.773 324.22 271.683 198.993 108.055 337.346 182.393 205.226 221.844 270.96 219.706 153.82 88.6271 140.408 131.96 115.013 240.537 86.3588 63.6396 73.1463 110.366 98.1136 80.0629 121.53 229.599 235.23 124.354 87.8132 227.938 110.524 44.4157 146.361 36.6582 95.3513 136.632 61.7887 125.163 71.4567 177.859 117.413 84.8715 29.5763 92.9676 123.642 5.99861 44.1508 31.8645 66.4565 40.4418
internal_count=182848 109950 72898 78684 28285 23927 44613 54757 31266 22609 34109 11112 32192 13016 22565 14493 12815 5676 21093 10504 11127 15912 18264 13928 9115 6159 8116 7728 6669 14942 5569 3267 4581 6656 5543 4816 7227 15354 15864 7274 5288 14155 6707 2409 10225 2173 6654 9331 3974 6311 4176 12340 7448 5054 1622 6023 8802 350 2959 2154 3366 2113
is_linear=0
shrinkage=0.05


Tree=6
num_leaves=63
num_cat=0
split_feature=28 19 28 145 45 28 19 28 126 18 116 145 146 27 145 126 116 12 126 19 45 116 28 116 12 28 34 59 28 45 145 28 28 116 116 28 146 59 116 116 144 12 18 17 19 24 145 13 116 9 28 19 145 12 49 12 13 116 58 28 147 146
split_gain=248.933 56.5419 39.3238 25.0554 12.3603 11.5972 11.3532 7.9555 7.11307 6.10521 4.76101 4.0736 4.07202 3.71047 3.25534 3.23546 3.12568 3.00607 2.55378 2.54454 2.50413 2.26217 2.14785 2.10316 2.10222 2.00294 1.91696 1.88815 1.71572 1.68435 1.68349 1.66056 1.63123 1.57566 1.51832 1.51442 1.4431 1.41493 1.38671 1.38168 1.32252 1.27159 1.24298 1.2069 1.1545 1.14884 1.11126 1.10849 1.099 1.0749 1.05024 1.03926 1.04008 0.998826 0.988884 0.986643 0.977132 0.972371 0.969774 0.950741 0.926736 1.07499
threshold=-0.42347317511024157 0.084999999999999978 -1.0159811993677292 2.5000000000000004 3.4926101201310522 0.050507627227618195 0.059999999999999838 1.1756352672275785 0.87706043956043966 0.027742437837054931 7.5000000000000009 4.5000000000000009 0.4965 1.5000000000000002 4.5000000000000009 0.87706043956043966 7.5000000000000009 0.097500000000000017 1.7797979797979802 0.12499999999999979 3.4926101201310522 7.5000000000000009 0.36628061740041012 7.5000000000000009 0.078500000000000014 0.56980288229819831 4.4142857142857155 18.550000000000004 0.52982286224423836 3.310038759689923 4.5000000000000009 0.89871703427292127 -0.73785631799609419 6.5000000000000009 6.5000000000000009 -1.4965397877789719 0.47889999999999971 4.2500000000000009 7.5000000000000009 7.5000000000000009 3.5435500000000006 0.076500000000000012 0.040970372570571519 3.3726785714285721 0.050000000000000051 0.06779999999999993 3.5000000000000004 34.500000000000007 6.5000000000000009 7.5000000000000009 -0.81149098742227654 0.024999999999999693 1.5000000000000002 0.082500000000000018 5.5000000000000009 0.085500000000000007 29.500000000000004 6.5000000000000009 2.5000000000000004 -1.8234582528810495 0.5778000000000002 0.45400000000000001
decision_type=8 8 10 10 10 10 10 8 8 10 2 10 10 10 10 8 2 2 8 8 10 2 10 2 2 10 10 10 10 10 10 10 10 2 2 10 10 8 2 2 10 2 10 10 10 10 8 2 2 2 10 10 10 2 8 2 2 2 10 10 10 10
left_child=2 3 4 6 18 11 10 28 17 36 33 26 27 34 21 35 31 32 47 45 -16 -15 41 57 -13 -18 38 44 43 -26 -19 48 55 -2 -10 -11 -6 -12 -5 -20 -30 -14 -22 -3 -7 -9 -34 -1 -8 -38 -44 -35 -53 -24 -27 -4 -37 -17 -50 -51 -23 -62
right_child=1 7 8 5 9 12 16 19 13 15 37 24 22 14 20 23 25 30 39 -21 42 60 53 -25 29 54 -28 -29 40 -31 -32 -33 46 51 -36 56 49 -39 -40 -41 -42 -43 50 -45 -46 -47 -48 -49 58 59 -52 52 -54 -55 -56 -57 -58 -59 -60 -61 61 -63
leaf_value=0.037591404476099523 -0.0056683179071225871 -0.023710615324781796 0.019898959736477966 -0.00097367154881967141 0.023918264611583886 -0.0020823198228469286 -0.016698371035368514 -0.01955501968585819 0.0083668353984633608 0.034020024418592996 0.02880340918000723 0.0004413312196028983 -0.0050858176095857728 0.011742975127955097 0.023675200185151166 0.019991076070141341 0.011875223333192363 0.0052533605211207944 0.038504867339662852 -0.0409543457033184 0.0015583139377558601 0.016092444144266051 -0.019474268262190241 0.039533172019429394 0.0092090180765957621 0.001373225966282374 -0.0070810452260021252 -0.018054607024575065 -0.016048879364458576 -0.013177712854325519 -0.0077354080323570711 -0.018301378218224425 0.012105154723301067 0.023105657948609457 0.026681935698316495 0.023128372130102357 0.0085795353005209875 0.015581259352225979 0.010192753153732866 0.055859673453679308 -0.02777934438785358 -0.018221605971293724 0.020187479124010081 -0.011847596644044549 -0.01213851644230373 -0.032296501722637296 0.0010334419759823984 0.011949547247764243 0.010471278803819518 0.058688799669848461 0.0065496621244728178 0.013268532018128257 0.00061581192328994609 -0.027451280225586461 -0.011986571824650353 0.0087079777549251541 0.0123810585128069 0.031097749788155639 -0.0060076195653606928 0.018930004224561897 0.043205300803853659 0.024548867983776257
leaf_weight=36.781779887154698 29.009572166949511 33.818077622912824 31.508167905732989 64.161235688254237 29.341142679564655 53.779425699263811 17.18894546572119 21.536009480245411 13.564054647460578 19.607112653553486 29.396637578494847 39.649744037538767 22.231898514553905 62.614472180604935 21.104227172210813 27.318245634436607 31.166683207266033 40.150763863697648 15.964496277272699 95.248588700778782 92.261949371546507 16.916292349807918 61.981776046566665 66.290698179043829 8.7950196471065265 35.571907710283995 61.842774163000286 65.63313932903111 31.341417971998453 188.10398645419627 65.879404886625707 45.161888154223561 30.299383625388145 9.9224787764251214 68.270074465312064 50.605038867332041 70.096256335265934 64.911837418563664 49.065191183239222 40.72339841350913 102.96383229270577 107.55415071733296 19.690384730696678 58.575164849869907 60.816302284598351 99.094926257617772 89.927436890080571 4.7602368006482711 11.817920839413999 1.7389210537075985 49.873018965125084 27.412199344485998 39.858538131229579 106.96055164653808 22.68389979749918 52.533061441965401 36.334151902236044 70.722715059295297 36.509859131649137 11.11161063145846 11.126713394187389 25.227686027996242
leaf_count=1938 1493 2162 1787 3679 1718 3731 922 1546 629 981 1831 2540 1455 3305 1254 1173 2089 2368 719 7128 5717 1055 4366 3746 599 2521 3880 4670 2123 12684 4146 2814 1730 568 3888 2718 3924 4160 3348 2073 7232 7375 1121 3875 4221 7266 5581 250 723 99 3005 1561 2348 7645 1608 3092 1936 3524 2282 671 673 1603
internal_value=-0.000519765 -0.0125532 0.0172763 -0.00726675 0.0282472 -0.0119382 0.00311808 -0.0279758 0.00963266 0.0241906 0.0115267 -0.00578343 -0.0172277 0.0142131 0.0116297 0.0282541 -0.00530773 0.00401379 0.0440708 -0.0348454 0.00747594 0.0181865 -0.0208086 0.0326542 -0.0100626 0.00164452 -1.56549e-06 -0.0112922 -0.0214341 -0.0121777 -0.00281691 -0.0109248 0.00755943 0.00426632 0.0236462 0.0214677 0.0143878 0.0197027 0.00386515 0.0509722 -0.0250419 -0.0159715 0.00536334 -0.0161897 -0.00741917 -0.0300218 0.00382372 0.0346531 -0.00583997 0.0110166 0.0104099 0.0079998 0.00577168 -0.0245247 -0.00382887 0.0129036 0.0186368 0.028003 -0.00197792 0.0243101 0.0257603 0.0302589
internal_weight=2906.11 1733.77 1172.34 1291.19 481.396 890.575 400.612 442.578 690.947 383.166 200.511 411.618 478.957 380.649 298.815 270.878 200.101 310.298 98.2299 215.88 182.93 115.885 298.728 164.332 236.549 89.4225 175.069 180.229 226.698 196.899 106.03 110.679 204.268 106.203 81.8341 106.546 112.288 94.3085 113.226 56.6879 134.305 129.786 161.825 92.3932 114.596 120.631 120.227 41.542 65.5167 82.9468 69.5634 77.1932 67.2707 168.942 58.2558 84.0412 86.9392 98.041 48.3278 12.8505 53.2707 36.3544
internal_count=182869 116445 66424 85113 25470 60193 24920 31332 40954 20490 11961 26730 33463 22250 17733 14078 12959 18704 4980 15940 11097 6636 20841 8443 15823 6218 10907 12622 15392 13283 6514 6741 12190 5970 4517 5635 6412 5991 7027 2792 9355 8830 9843 6037 7952 8812 7311 2188 3927 4694 4126 4477 3909 12011 4129 4879 4654 4697 3005 770 3331 2276
is_linear=0
shrinkage=0.05


Tree=7
num_leaves=63
num_cat=0
split_feature=28 19 28 145 43 19 28 28 145 27 34 145 116 116 116 35 126 19 12 18 116 18 144 126 116 18 27 12 12 19 28 126 59 116 34 28 18 97 147 116 116 59 28 27 126 126 97 24 127 12 145 128 116 47 40 18 28 130 151 35 30 28
split_gain=223.245 51.8854 36.7229 23.1783 12.524 10.0335 9.88149 7.8389 7.401 5.98652 4.34604 4.31603 3.77611 3.73067 3.04938 2.9264 2.79493 2.53895 2.36073 2.33423 2.25906 2.22532 2.07463 2.03709 1.98791 1.89347 1.65038 1.62806 1.61197 1.59965 1.5906 1.56232 1.5295 1.52395 1.50219 1.4746 1.4557 1.38522 1.35897 1.20368 1.20088 1.15203 1.10111 1.08192 1.07874 1.06028 1.03309 1.00653 0.997688 0.989673 0.988741 1.03756 0.94849 0.92093 0.919581 0.907938 0.886441 0.872399 0.863261 0.843135 0.842386 0.840764
threshold=-0.37499999999999573 0.084999999999999978 -0.90958733581045614 2.5000000000000004 0.24160047616115596 0.059999999999999838 0.3162277660168305 1.1756352672275785 3.5000000000000004 1.5000000000000002 3.7638888888888893 4.5000000000000009 7.5000000000000009 7.5000000000000009 7.5000000000000009 3.4058823529411768 1.7530487804878052 0.12499999999999979 0.086500000000000007 0.03807886552931971 7.5000000000000009 0.021380899352993987 4.0496500000000006 0.72570532915360519 6.5000000000000009 0.027124053637210776 5.5000000000000009 0.090500000000000011 0.077500000000000013 0.054999999999999945 -0.63960214906683566 0.85934065934065951 3.5500000000000003 6.5000000000000009 4.4142857142857155 -1.3912086991047949 0.039520940802374317 4.7580645161290329 0.16974999999999943 6.5000000000000009 7.5000000000000009 6.6500000000000012 -0.042169949998420851 1.5000000000000002 1.003496503496504 1.9090909090909094 5.3709677419354849 0.06779999999999993 0.10000000000000001 0.096500000000000016 3.5000000000000004 0.11866269323896443 7.5000000000000009 0.2986130347799319 0.15050000000000008 0.03807886552931971 1.5556186855876584 0.17262664963814392 1.1778542769453255 2.5690476190476197 0.18333333333333338 -0.62924535808410409
decision_type=8 8 10 10 8 10 10 8 10 10 10 10 2 2 2 10 8 8 2 10 2 10 10 10 2 10 10 2 2 10 10 10 10 2 10 10 10 8 10 2 2 10 10 10 8 10 10 10 10 2 10 10 2 10 10 10 10 10 2 10 10 10
left_child=2 3 4 5 9 12 11 34 24 13 30 20 33 19 31 59 43 47 -12 -1 27 -11 29 54 -4 -15 -16 53 -17 -8 40 -7 57 -2 52 -18 60 45 -34 -21 55 -22 -30 -6 -35 -14 56 -9 -27 -40 -25 -52 -3 -5 -23 -10 -28 -26 -53 -13 -20 -38
right_child=1 7 8 6 16 14 22 17 10 21 18 15 37 25 26 28 35 -19 36 39 41 23 -24 50 32 48 46 -29 42 -31 -32 -33 38 44 -36 -37 61 -39 49 -41 -42 -43 -44 -45 -46 -47 -48 -49 -50 -51 51 58 -54 -55 -56 -57 -58 -59 -60 -61 -62 -63
leaf_value=0.015084109632386636 -0.0057425536298901896 -0.020463595321378855 0.0034980005415221824 -0.0076073913441912656 0.036078356860633105 -0.01596654955956359 -0.010416672810792981 -0.019561023766141706 0.0023859481823361004 0.0023585191935330875 0.0073270001724238636 0.026563282120458928 0.01924460376173286 0.022036325427801422 0.011714687230239215 -0.0043040432400721137 0.052690944093402539 -0.040503317468331829 -0.01111100682075724 0.017862408842600857 0.0097542556262587843 0.015597763503062703 -0.023800741079016915 0.033180504109691866 0.047470730597909606 0.042607698441439745 0.0039042498867416613 -0.013227283904596602 -0.012527152579461532 -0.019980840848933576 0.0053419531009194603 -0.003916437714665673 0.0019248594158122645 0.0026565546812166618 -0.024680201597477684 0.038293179941992189 0.0066342199202242451 0.0085756109419072718 0.021972104805294559 0.030867714806166641 0.021085230860832024 -0.0012318530796888308 -0.019827931965615306 0.021152470710576712 0.014753553395605115 0.035910825154077897 -0.014840841862406841 -0.031587793914186112 0.031393867656741813 0.010043641938842256 0.010859053446812355 0.019566063268223369 -0.010812301661729421 0.0035107233946181163 0.0039599317718847487 0.016011954624791404 -0.013896113539893959 0.024562962816265934 0.0339936073077335 -0.0011683364422023872 -0.0026001577962628739 -0.0028886242863611074
leaf_weight=84.894455279223621 27.491174777969718 61.521534139290452 24.589885141700506 37.636295018717647 28.307911923155189 61.308987029828131 82.327270839363337 21.231145901605487 23.036826978437603 32.640847244299948 90.087151229381561 2.9684181641787282 53.552780136466026 29.783006406389177 28.455553757026792 37.924758495762944 33.886410309001803 92.070062480866909 47.427808046340942 25.716403955593705 38.060906855389476 34.336921888403594 131.5359620153904 14.294103428721426 4.741444904357194 38.426548241637647 38.496976783499122 58.925412941724062 127.36376388836652 93.225303366780281 81.182845022529364 47.924671723507345 15.308673914521931 41.505698169581592 118.76023817341775 37.424310650676489 51.91469481959939 26.062231002375484 54.722217226400971 57.732768353074789 42.670765512622893 63.966600250452757 86.871435960754752 21.258581023663282 33.146181444637477 11.612304764799772 13.908427791669963 96.329545078799129 40.995587689802051 25.487401914782822 27.190114507451653 50.436354628764093 43.42547775991261 36.872876369394362 33.568077232688665 26.049192742444575 8.546895405277608 33.667646021582186 13.050884477794169 35.753428139723837 75.129874670878053 41.873346208594739
leaf_count=4183 1419 3903 1180 2206 1428 3824 5925 1547 1243 1939 5376 200 3371 1779 1906 2488 1592 7125 3044 1090 2615 1951 9444 776 266 2085 2690 3516 8665 6759 4997 2880 942 2428 8211 1860 3046 1662 3131 2813 2705 4519 6211 1159 1884 699 990 7258 2294 1467 1513 2763 3308 2134 1881 1348 631 1906 706 2423 4767 2625
internal_value=-0.000465786 -0.0124678 0.0155659 -0.00720923 0.0244024 0.00281728 -0.0119253 -0.0273385 0.00719961 0.0208007 0.00410259 -0.00776672 0.0109248 0.0255904 -0.00507507 -0.0118403 0.0387962 -0.0342854 0.000526071 0.0209215 -0.00273432 0.0143322 -0.019053 0.016593 0.0165653 0.0327877 0.00177242 -0.00701682 -0.0138056 -0.0154956 0.0104398 -0.0106797 0.0189646 0.00432155 -0.0208286 0.0451349 -0.00230586 0.0183181 0.0155762 0.0268599 0.0149502 0.00286647 -0.0154876 0.0296768 0.00802774 0.0222145 -0.00286912 -0.0294158 0.0368194 0.0181817 0.0209584 0.0190317 -0.01647 -0.00210529 0.00984473 0.00961706 0.000670293 0.0273908 0.0225319 0.00095757 -0.00589372 0.00238258
internal_weight=2900.62 1658.78 1241.83 1225.44 603.943 392.012 833.432 433.338 637.89 483.066 479.373 526.344 193.37 277.549 198.642 290.882 120.877 209.631 306.433 168.344 235.462 205.517 307.089 172.876 158.517 109.205 89.4079 133.435 252.16 175.553 172.94 109.234 133.927 102.143 223.707 71.3107 216.346 91.2273 95.5183 83.4492 91.7568 102.028 214.235 49.5665 74.6519 65.1651 60.9523 117.561 79.4221 80.2096 104.971 90.6774 104.947 74.5092 67.905 49.086 47.0439 38.4091 63.4872 38.7218 122.558 93.788
internal_count=182696 112841 69855 81489 31812 24384 57105 31352 38043 25773 29151 34977 11463 14244 12921 19987 6039 15930 18858 8086 14990 11529 22128 9590 8892 6158 6217 7856 17364 12684 10293 6704 7712 5731 15422 3452 13482 5732 5540 3903 5296 7134 14876 2587 4312 4070 4311 8805 4379 4598 5758 4982 7211 4340 3832 2591 3321 2172 3469 2623 7811 5671
is_linear=0
shrinkage=0.05


Tree=8
num_leaves=63
num_cat=0
split_feature=28 28 19 145 9 145 28 19 28 28 126 116 145 126 116 146 12 12 35 157 19 59 116 34 27 116 128 116 34 103 59 116 27 31 12 116 18 9 126 97 126 59 27 116 12 156 13 28 18 27 127 126 41 155 147 144 153 126 12 145 44 144
split_gain=206.091 42.5327 40.5496 19.815 11.2497 10.4841 7.42756 7.19113 5.45891 5.22282 4.46824 3.88511 3.70091 3.67775 2.90516 2.8918 2.7094 2.61663 2.56843 2.48563 2.47726 2.24244 2.14506 2.09778 2.06094 1.99545 1.80892 1.65948 1.62017 1.55026 1.51157 1.47886 1.475 1.40692 1.36154 1.32412 1.23897 1.23858 1.15889 1.10945 1.09059 1.08231 1.06028 1.04419 1.0314 1.01319 1.03938 0.995743 0.994104 0.991304 0.988568 0.969122 0.96568 0.939802 0.918092 1.14924 0.909496 0.891461 0.875645 0.87563 0.873599 0.849352
threshold=-0.20245144745078492 -0.90958733581045614 0.084999999999999978 2.5000000000000004 7.5000000000000009 3.5000000000000004 1.1756352672275785 0.069999999999999632 -0.62924535808410409 0.46573142025551234 1.1487481590574378 7.5000000000000009 4.5000000000000009 2.1380952380952389 6.5000000000000009 0.50550000000000039 0.088500000000000009 0.085500000000000007 3.4354166666666672 0.08290000000000021 0.12499999999999979 5.1500000000000012 6.5000000000000009 4.4142857142857155 1.5000000000000002 7.5000000000000009 0.12632705961906912 6.5000000000000009 3.7638888888888893 3.3945000000000003 6.7500000000000009 7.5000000000000009 6.5000000000000009 0.38750000000000007 0.094500000000000015 6.5000000000000009 0.039877789386148436 2.5000000000000004 0.87706043956043966 4.6559139784946248 1.5067567567567568 18.350000000000005 4.5000000000000009 6.5000000000000009 0.08450000000000002 35.000000000000007 29.500000000000004 1.0427016064814765 0.03807886552931971 1.5000000000000002 0.2253968253968254 1.1686991869918701 0.14741666666666672 0.39215500000000009 0.50249999999999984 3.8599500000000009 1.0000000180025095e-35 1.5067567567567568 0.082500000000000018 2.5000000000000004 0.66282087972792203 3.9219500000000003
decision_type=8 10 8 10 2 10 8 10 10 10 8 2 10 10 2 10 2 2 10 10 8 10 2 10 10 2 10 2 10 10 8 2 10 10 2 2 10 2 8 10 10 10 8 2 2 2 2 10 10 10 10 8 10 10 10 10 8 10 2 10 8 10
left_child=1 4 3 7 10 14 31 11 17 12 19 27 23 29 -3 41 40 43 53 52 38 37 -12 35 48 57 -13 -2 -19 -6 -18 42 56 -21 54 -5 -30 60 -8 51 -10 -11 -4 -7 -37 -26 -47 -27 61 -31 -28 -29 59 -14 -23 -56 -33 -9 -17 -1 -16 -24
right_child=2 5 6 9 13 8 20 25 16 15 22 26 18 -15 21 58 30 28 -20 33 -22 34 24 -25 45 47 50 39 36 49 -32 32 -34 -35 -36 44 -38 -39 -40 -41 -42 -43 -44 -45 -46 46 -48 -49 -50 -51 -52 -53 -54 -55 55 -57 -58 -59 -60 -61 -62 -63
leaf_value=0.028745449115211152 -0.0099042126287868047 0.0016717370711147777 -0.015049774555623348 -0.014432903533017814 0.037894121545361655 0.0011882636107001521 -0.032556053172772603 -0.017141171819063931 0.00022927630828544675 -0.009848429932977661 0.013516996571614585 0.0068939296882701579 0.01288881530708782 0.047162224062928512 0.032536703994386351 -0.019361729012847939 -0.00063311872757441207 0.011005904677404563 -0.016884564107789331 0.013084800646761915 -0.040099710305008036 0.0050153184213464989 0.037863143685504239 -0.01175480250800251 0.035432814223402491 0.0039338168411109514 0.024664835291010601 0.0020938753780085639 -0.0034719461554747061 0.029381682110299751 -0.0093967610537136204 0.0026303709880119656 -0.023083989474627406 0.023031101231503773 0.0054472903607544407 0.0063414413454860518 0.0067039074959058132 0.020097883660772441 -0.021939391224090596 -0.0050810423910953514 0.0094066599101012248 -0.019984087207770621 -0.02620821185259602 0.018036279485357604 -0.003577376431061657 0.022742450178137967 0.010687162222134432 -0.0096251194992311388 0.035085970245252673 0.014891855554362588 0.010226238177410689 0.01474372562103108 0.0027293849516239438 -0.006641088205095293 0.033117807282596272 0.015927086899941736 -0.013524264354788288 -0.0031197910288236416 -0.028070648567658885 0.0099788371451105147 0.083094401915773386 0.023445006987204725
leaf_weight=7.3994407933205357 30.94029479008168 36.740096701309085 26.820997201837599 16.673076245933771 33.86906869430095 10.777518032118676 76.092112584039569 55.234046639874578 104.28511014953256 68.587319176644087 41.381777253001928 56.808916981332004 8.1413863990455848 46.009960242547095 17.472885599359874 45.832689008675516 84.02728658914566 61.432096959091723 194.89142982661724 66.170754764229059 88.496878718957305 13.77638153079897 12.488342787139116 79.207940086722374 9.3998371968045813 33.258863871917129 34.822112835012376 38.096692249178886 67.485700865276158 32.322735762223601 118.72636843472719 11.185074629262088 37.045566122978926 76.841123010031879 41.871370432898402 46.228294687345624 53.728023196570575 57.562043784186244 38.817074052989483 26.408812465146184 46.943755653686821 42.758074509911239 103.21264019515365 62.692069930955768 60.520021268166602 45.636316304095089 29.396859831176698 22.838806808926165 55.17596922442317 18.594015090726316 17.973914991132915 25.126955613493919 45.635590315796435 25.309954214841127 12.086038103327153 49.706397925503552 39.413811445236206 14.263386534526942 77.953817260451615 38.853038772940636 0.89836216811090608 56.094297638162971
leaf_count=413 1630 1793 1650 887 1768 495 5859 3481 6551 4987 1750 3655 576 2267 978 3361 5403 3561 13886 3474 7078 850 657 5232 520 2282 2178 2286 4211 1725 7830 835 2946 3980 2460 3052 3131 3293 2976 1584 2866 3187 6795 3656 4083 2472 1592 1693 2634 1071 1158 1451 2505 1741 693 2866 3008 871 5834 2164 50 2852
internal_value=-0.000494817 0.0127804 -0.0138852 -0.00850472 0.0227687 0.0054662 -0.0269424 0.00102219 0.00203604 -0.0135931 0.0192557 0.00627313 -0.0103229 0.0357807 0.0145605 -0.0195872 -0.00198696 0.00759632 -0.0146876 0.0143062 -0.0338121 0.0170093 0.0239142 -0.00540427 0.0259808 -0.00860119 0.0130863 7.97121e-05 0.00439099 0.0296044 -0.00576484 -0.0205232 -0.0155033 0.018429 0.0126798 -0.0013287 0.0010385 0.0237055 -0.0289697 0.00352607 0.00307808 -0.0137407 -0.0239067 0.0155648 0.000718055 0.019958 0.0180194 -0.00158638 0.0300899 0.0240902 0.0197493 0.0071213 0.00788966 -0.0018879 0.0166872 0.0192894 -0.00995322 -0.0142635 -0.0248461 0.0129811 0.035009 0.0260704
internal_weight=2898.44 1455.48 1442.96 1021.88 615.269 840.212 421.084 355.773 610.098 666.104 484.473 230.178 430.972 130.796 230.114 235.132 353.983 256.115 228.343 234.9 203.406 193.373 249.573 202.629 208.192 125.595 109.605 120.573 182.646 84.7858 202.754 217.678 87.6445 143.012 117.44 123.421 121.214 75.9333 114.909 89.6325 151.229 111.345 130.034 73.4696 106.748 84.433 75.0332 56.0977 123.759 50.9168 52.796 63.2236 91.8881 33.4513 75.5688 61.7924 50.5989 69.4974 123.787 46.2525 18.3712 68.5826
internal_count=182773 82531 100242 69095 31844 50687 31147 22269 37704 46826 25013 13942 29457 6831 12983 17369 22650 15054 16203 12536 15913 11190 12477 13254 10727 8327 6991 6951 10903 4564 13233 15234 6789 7454 6869 8022 7342 4321 8835 5321 9417 8174 8445 4151 7135 4584 4064 3975 6143 2796 3336 3737 5082 2317 4409 3559 3843 4352 9195 2577 1028 3509
is_linear=0
shrinkage=0.05


Tree=9
num_leaves=63
num_cat=0
split_feature=28 19 28 145 19 9 28 145 28 34 116 157 116 28 35 31 19 145 126 116 34 27 28 12 9 12 44 116 9 18 28 35 12 27 147 28 19 145 27 145 28 126 31 116 116 18 97 18 128 28 9 12 116 116 116 47 59 58 145 59 12 59
split_gain=185.75 45.3997 29.8087 20.8898 9.4397 8.83945 7.29044 6.69042 5.43154 4.84736 4.8397 3.93537 3.69504 3.05881 2.88729 2.78843 2.5919 2.31919 2.29528 2.14258 2.01972 1.83741 1.80968 1.75416 1.725 1.70166 1.62403 1.52639 1.46571 1.45602 1.43752 1.40893 1.34574 1.31672 1.29562 1.2823 1.27422 1.25582 1.21338 1.18955 1.17141 1.16048 1.08283 1.04004 1.03307 1.02183 1.00856 0.987445 0.971015 0.906051 0.89397 0.892009 0.884509 0.870813 0.851466 0.846719 0.826991 0.821303 0.80254 0.802166 0.795456 0.794329
threshold=-0.32826608214931141 0.084999999999999978 -0.966091783079296 3.5000000000000004 0.059999999999999838 7.5000000000000009 1.1756352672275785 3.5000000000000004 0.3162277660168305 4.354166666666667 7.5000000000000009 0.093600000000000141 7.5000000000000009 -0.72627303920257213 3.5375000000000001 0.38750000000000007 0.12499999999999979 1.5000000000000002 0.69782608695652193 7.5000000000000009 4.6833333333333345 6.5000000000000009 -1.3498527422930344 0.077500000000000013 7.5000000000000009 0.08450000000000002 0.53458531711044499 7.5000000000000009 2.5000000000000004 0.032071349029491103 -1.3686300260290187 2.870833333333334 0.093500000000000014 6.5000000000000009 0.16974999999999943 0.69769379809358523 0.054999999999999945 5.5000000000000009 4.5000000000000009 1.5000000000000002 -1.2349939611324354 0.72570532915360519 0.31666666666666671 6.5000000000000009 6.5000000000000009 0.030118812346154402 4.7119815668202776 0.030705978943149592 0.35965262278525206 -0.58461282221546562 4.5000000000000009 0.079500000000000015 6.5000000000000009 6.5000000000000009 6.5000000000000009 0.080140608396965254 5.0500000000000007 2.5000000000000004 1.5000000000000002 17.350000000000005 0.10250000000000001 15.350000000000003
decision_type=8 8 8 10 10 2 8 10 10 10 2 10 2 8 10 10 8 10 10 2 10 10 10 2 2 2 10 2 2 10 10 10 2 10 10 10 10 10 8 10 10 8 8 2 2 10 10 10 10 10 2 2 2 2 2 10 8 10 10 10 2 8
left_child=2 3 5 4 10 11 27 19 15 13 18 20 23 24 40 -5 41 -12 -2 54 30 39 52 59 29 61 36 38 -21 -9 -1 -17 43 -29 57 56 -10 -33 -3 -14 -7 -8 -24 -15 -20 -27 -19 -16 -34 -47 -32 -43 -13 -44 -4 -41 -25 -30 -46 -6 -36 -11
right_child=1 6 7 8 12 14 16 9 26 25 17 22 21 32 47 31 -18 46 44 28 -22 -23 42 35 -26 45 -28 33 34 -31 50 37 48 -35 60 -37 -38 -39 -40 55 -42 51 53 -45 58 49 -48 -49 -50 -51 -52 -53 -54 -55 -56 -57 -58 -59 -60 -61 -62 -63
leaf_value=0.022704509661211809 -0.0072357961501058419 -0.014046682650821997 0.0029071979340216728 -0.01534032830728254 0.0014833082362508522 0.045085610967822529 -0.032325959676352073 0.0037357609076271881 -0.016636967623174681 0.013584011507634769 0.022591873426891979 0.017799746054861315 0.014424613229515222 -0.0043015000853012259 0.017050928245386426 0.011493481143105269 -0.039604894029383352 0.011916963641555275 -0.0040275916116576218 0.033492249971040035 0.0044289252869301864 -0.0071985321429280241 0.013791646866194628 -0.0012416358742428179 0.027862072464902538 -0.010077538266586047 -0.003222836833624758 -0.0095809342182464393 0.020312270949231295 0.015302759970095807 0.021695817513139648 -0.0037911696123246845 -0.0023645075638658538 -0.022037014000848038 0.024175726114727833 -0.021566387206328769 -0.024636036816078045 -0.011530893052485683 -0.025818824966474654 -0.0068223200368200884 0.030690973570200689 -0.015068227866085663 0.013338186593553184 0.0087611389256198203 0.016825853458373344 0.0019445034028685042 0.00077262076743175737 0.030573962579136346 0.023607981566642053 -0.0069577888617536488 0.010496228607809091 -0.028964958665932568 0.032232833069975986 0.025093915941573931 0.012957109371981065 0.0066564191265709163 -0.014232600138481294 -0.00096369375429429982 0.004807257824268431 -0.012178650632827359 0.0073955021376717021 0.00041904791264192045
leaf_weight=58.102663292549551 64.167095689103007 27.886788601055741 29.643862027674913 143.33641206566244 28.206123474054039 47.687840908765793 66.4321696953848 40.949732657521963 90.225041369907558 22.450735951773822 42.412351652048528 12.838044509291647 22.684420289471745 17.476715026423335 21.253933639265597 10.487288491800426 86.431289206258953 67.481667166575789 23.4677894404158 17.735213878564537 45.008249054662883 55.080496419221163 45.916613611392677 16.989587221294641 18.352959048934281 49.027278293855488 13.639612867496906 51.236055613495409 7.0191075252369073 81.062064598314464 22.711388219147921 116.21396778617054 75.02759195305407 36.210804459638894 44.849015714600682 47.539520777761936 111.07895183656365 95.462152163498104 101.77160286065191 21.507548088207841 20.086550663225353 23.126996821723878 19.21584945358336 118.96039956621826 19.126148165203631 73.575118562206626 29.037564061582088 36.997399651445448 3.7799462443217626 46.738177865743637 82.697419557720423 23.062673354521394 61.30453469324857 87.418498774059117 72.917552630417049 25.425403715111315 43.919470049440861 12.821445933543144 50.734940919093788 17.355292557738721 8.3825733168050629 23.400076421909034
leaf_count=2895 3727 1729 1417 10026 1741 2242 5269 2402 6802 1314 2536 504 1497 852 1185 704 7141 4442 1225 1034 2418 4064 2349 1022 1080 3199 1046 3916 421 4408 1213 7756 4733 2932 2670 3079 8501 6773 6821 1528 1031 1780 807 7402 1057 4383 1959 1925 232 3034 4392 1829 2884 4459 3806 1785 2705 798 3003 1102 507 1399
internal_value=-0.000394088 -0.0120202 0.0133927 -0.00692058 -0.000167024 0.0221423 -0.0261806 0.00696666 -0.0136124 0.00424362 0.00604423 0.0187656 -0.00677318 0.00782794 0.0338032 -0.00990327 -0.0330921 0.0128465 4.37536e-05 0.0150047 0.0138082 -0.000375098 0.0233257 -0.0119535 0.0135704 -0.00167955 -0.0199195 -0.0198439 0.0205981 0.0114206 0.01639 -0.00639536 0.0040832 -0.0147389 0.0174686 -0.0154123 -0.0210508 -0.00728165 -0.0232869 0.00502353 0.0408194 -0.0280938 0.0202112 0.0070879 0.00504872 -0.00399315 0.00856422 0.0256399 -0.00111876 -0.00151378 0.0129093 -0.0220069 0.0297337 0.0229755 0.0100523 0.000479637 -0.010609 0.00656323 0.00809764 -0.00372082 0.0215333 0.00686524
internal_weight=2897.15 1571.74 1325.41 1155.58 575.135 561.239 416.158 764.17 580.443 570.801 296.428 435.213 278.708 355.609 126.026 365.5 199.053 138.932 157.496 193.369 208.52 124.698 226.694 154.01 140.365 215.191 214.944 217.105 90.8074 122.012 163.511 222.163 215.245 87.4469 73.0721 108.449 201.304 211.676 129.658 69.6174 67.7744 112.622 152.551 136.437 93.3289 169.341 96.5192 58.2513 78.8075 120.313 105.409 46.1897 74.1426 106.634 102.561 46.933 60.9091 19.8406 69.8611 45.5614 53.2316 45.8508
internal_count=182892 109497 73395 78080 36472 28304 31417 45091 41608 34438 17949 21921 18523 21109 6383 25259 16019 8937 9012 10653 10918 8874 11003 9649 7890 13329 16349 15398 5430 6810 8500 15233 13219 6848 4396 6806 15303 14529 8550 4810 3273 8878 7615 8254 5285 10616 6401 3110 4965 7417 5605 3609 3388 5266 5223 3313 3727 1219 4060 2843 3177 2713
is_linear=0
shrinkage=0.05


Tree=10
num_leaves=63
num_cat=1
split_feature=28 19 28 146 35 145 28 28 27 28 59 12 146 19 145 9 146 126 35 146 34 28 157 146 12 13 28 9 49 33 35 12 13 6 34 12 146 124 128 12 12 35 124 19 126 43 50 28 145 59 157 151 12 49 6 126 157 56 97 9 5 126
split_gain=168.791 37.1253 34.5687 18.2831 9.3034 8.81689 6.85237 6.09009 5.5278 4.59875 4.30178 3.79649 3.2121 2.66835 2.65135 2.49232 2.34768 2.33848 2.14134 1.97852 1.96144 1.8163 1.80772 1.66183 1.53153 1.52354 1.39657 1.35669 1.35492 1.33961 1.33744 1.33492 1.32073 1.27052 1.26029 1.19272 1.19145 1.12924 1.25142 1.10763 1.06223 1.02934 1.1016 1.02924 0.965417 0.930245 0.91039 0.866624 0.857483 0.837095 0.797752 0.793741 0.791496 0.789709 0.759244 0.74238 0.728996 0.724604 0.721262 0.698971 0.69674 0.695606
threshold=-0.18244870523563847 0.084999999999999978 -0.88607762956830294 0.48150000000000032 2.9833333333333338 4.5000000000000009 1.1756352672275785 0.86602540378443138 1.5000000000000002 0.32969023669790137 4.3500000000000005 0.08950000000000001 0.0021000000000002132 0.12499999999999979 4.5000000000000009 7.5000000000000009 0.01869999999999972 0.87706043956043966 3.8090909090909095 0.034700000000000626 4.7250000000000005 -0.53781592427630753 0.06565 0.011700000000000045 0.082500000000000018 29.500000000000004 -0.54527854127279329 7.5000000000000009 6.5000000000000009 0.32071428571428579 4.276190476190477 0.094500000000000015 29.500000000000004 32.500000000000007 4.4142857142857155 0.081500000000000017 0.49230000000000046 3.7779761904761915 0.11866269323896443 0.070500000000000021 0.090500000000000011 3.0166666666666671 4.2387500000000014 0.050000000000000051 1.5067567567567568 0.44912747707778772 2.5000000000000004 -1.3498527422930344 3.5000000000000004 4.6500000000000012 0.085499999999999923 1.1283539986948197 0.07350000000000001 2.5000000000000004 18.500000000000004 1.0923295454545456 0.080200000000000285 0 4.3064516129032269 4.5000000000000009 67.500000000000014 1.5067567567567568
decision_type=8 8 10 10 10 10 8 10 10 8 10 2 10 8 10 2 10 10 10 10 10 10 10 10 2 2 10 2 8 10 10 2 2 8 10 2 8 2 10 2 2 10 2 10 8 8 10 10 10 10 10 2 2 10 8 10 10 9 10 2 10 10
left_child=2 3 4 7 27 12 34 10 15 14 23 21 59 39 40 22 29 57 41 28 25 44 -6 45 48 37 50 -1 33 -12 52 60 47 -9 36 -18 -3 -10 -39 -8 -5 -13 -43 -37 51 54 -17 -24 -11 -26 -20 -7 -16 -41 -2 -35 -22 -14 -34 -4 -19 -25
right_child=1 6 5 9 8 11 13 19 20 24 16 18 17 -15 30 46 35 31 26 -21 56 -23 32 61 49 -27 -28 -29 -30 -31 -32 -33 58 55 -36 43 -38 38 -40 53 -42 42 -44 -45 -46 -47 -48 -49 -50 -51 -52 -53 -54 -55 -56 -57 -58 -59 -60 -61 -62 -63
leaf_value=0.028475106444547316 0.0078589463668146831 -0.0090128489444114748 0.025074366016952249 -0.00081920221484788026 0.0096272762297445399 0.0013331271555337141 -0.018671877161698228 -0.0076076004276015748 0.008231545643102663 -0.0073864986265098943 -0.0020573693494124576 0.016289973909707857 0.0066040421981398145 -0.03938650240743799 0.001758514365577428 0.03821787664829978 0.0020347259945084849 0.018439330268230684 -0.0094891941380893085 -0.018051800431095236 -0.0040587098431433943 -0.00010349865569021411 0.029249585279880055 0.0023539557241740142 -0.016125570219168227 0.0087003010515649872 -0.011955901288424612 0.041028585689045806 -0.013946732257375872 0.010331378632703002 -0.019893709579959489 0.0063992138027989089 0.01984987132813499 -0.00063722230534861001 -0.023231756821363653 -0.0027993436443314434 -0.0201166506410498 0.012206864952894908 0.024643907391380223 -0.023987295628790095 -0.0099842163436605538 -0.0045191652124684034 0.0094300634321284743 -0.012900838249398637 0.015431684305885577 0.06225407409605041 0.025829274057625303 0.021178194375644062 -0.018157352438548768 -0.0252178666758139 -6.2755066829677973e-05 0.012134089061309106 -0.01236849893459064 -0.034108175627883673 0.023362951320513241 0.015177112169841057 0.0077975810687191532 -0.00034948038800925401 0.010186921457028111 0.0055509198517814922 0.010470725785825873 0.014445583170990747
leaf_weight=41.2794478405267 11.376130340620874 41.359508996829391 38.992330707609653 71.065552186220884 39.056094898842275 41.908186450600624 26.804539428092539 37.191572089679539 24.11662177555263 28.344626015983522 35.039101274684072 12.083817553706465 85.167682164348662 83.112196371890604 11.31893639359623 24.368300579488277 47.860776294022799 73.268603558652103 33.578454070724547 45.174694126471877 20.087083132006228 98.178212276659906 53.288031061179936 35.398738172836602 33.276176992803812 75.855308976024389 82.357298311777413 44.968500670045614 31.737771257758141 57.840374365448952 67.641354687511921 62.34598674159497 52.01397741958499 17.185833628289405 112.05308177415282 53.684619286097586 58.089433718472719 30.65369239449501 59.457004867494106 30.575431571342051 56.950935369357467 40.590929687023163 21.730588317848742 47.552631717175245 40.119431595318019 1.262999154627322 37.88335054833442 88.467816430144012 53.086734401062131 105.80134480632842 67.690768110565841 28.629771161824465 79.930428956635296 52.144404681399465 25.816224708221853 13.060845517553387 36.565187671221793 68.627878203988075 30.715091739781201 5.1952633522450915 43.847538529895246 17.913016975857317
leaf_count=1961 661 2982 2100 4515 2027 2467 2094 2486 1317 1928 2167 729 5149 7101 770 1194 3180 4185 2117 3393 1141 6302 2439 2338 2454 4070 5606 2083 2168 3547 4884 3583 2411 1173 8127 3725 4133 1674 3152 2496 3720 2597 1346 3254 2250 73 1942 4313 4053 7967 4095 1664 5750 4243 1510 851 1996 3890 1484 305 2394 1134
internal_value=-0.000486047 -0.0130472 0.0111271 -0.00781376 0.0197114 0.00442925 -0.0258092 -0.000797761 0.0174051 -0.0144243 0.00291355 -0.000164914 0.0101118 -0.0326312 -0.0102513 0.0216807 -0.000582222 0.00843227 -0.00422121 -0.00937845 0.0117596 0.00484694 0.0195552 0.0121314 -0.0198539 0.0141934 -0.00712063 0.0350203 -0.00542774 0.00565768 -0.0145657 0.0123096 0.0212825 -0.00141854 -0.0195957 -0.00446932 -0.0154987 0.0178412 0.0204131 -0.027505 -0.00489646 0.00293432 0.000344724 -0.00754416 0.00923911 0.0200538 0.0306788 0.0242123 -0.0144082 -0.0230424 -0.00318834 0.00571699 -0.0106161 -0.0303672 0.0186207 0.00619158 0.00359372 0.00390787 0.0162623 0.0227789 0.0154559 0.0064168
internal_weight=2892.74 1389.65 1503.09 985.511 658.776 844.313 404.139 478.095 572.528 507.416 333.745 466.867 377.445 192.637 286.907 325.793 241.978 333.258 258.032 144.351 246.735 208.836 263.541 91.7671 220.509 190.083 183.627 86.2479 99.176 92.8795 158.891 179.462 224.485 67.4383 211.502 149.098 99.4489 114.227 90.1107 109.524 128.016 74.4053 62.3215 101.237 110.657 38.4554 62.2517 141.756 81.4314 139.078 101.269 70.538 91.2494 82.7198 37.1924 30.2467 56.6523 153.796 82.7291 44.1876 117.116 53.3118
internal_count=182860 98877 83983 67701 33204 50779 31176 31660 29160 36041 21589 29173 21606 15934 19639 15810 15873 19201 16490 10071 13350 12683 12674 5716 16402 10213 11818 4044 6678 5714 11404 10162 10647 4510 15242 10159 7115 6143 4826 8833 8235 4672 3943 6979 6381 2244 3136 6752 5981 10421 6212 4131 6520 6739 2171 2024 3137 9039 3895 2405 6579 3472
cat_boundaries=0 1
cat_threshold=28
is_linear=0
shrinkage=0.05


Tree=11
num_leaves=63
num_cat=0
split_feature=28 19 28 145 45 145 19 28 28 27 12 116 31 146 116 116 116 33 157 19 35 18 145 128 116 146 145 28 12 97 13 126 13 28 116 111 128 116 116 19 44 145 13 27 58 128 9 18 34 147 27 116 12 98 97 126 64 125 23 41 116 125
split_gain=153.239 36.0449 28.0427 16.4971 10.1002 7.39986 7.32894 5.92317 5.32485 4.87613 3.66291 3.52302 3.17962 2.78791 2.69611 2.54486 2.33961 2.10226 2.08743 2.08143 1.93209 1.88707 1.594 1.57416 1.55169 1.46298 1.44722 1.39161 1.38538 1.34751 1.29091 1.22344 1.21887 1.21214 1.20198 1.15141 1.09484 1.05532 1.05285 1.05187 1.04813 1.03497 0.994378 0.985251 0.962288 0.960428 0.927897 0.926546 0.924213 0.919983 0.896412 0.896101 0.870995 0.85679 0.85661 0.852742 0.849616 0.841313 0.839398 0.836509 0.833673 0.832096
threshold=-0.20245144745078492 0.090000000000000094 -0.79883121692340053 2.5000000000000004 3.5660049790356401 3.5000000000000004 0.069999999999999632 1.1756352672275785 0.46573142025551234 1.5000000000000002 0.097500000000000017 7.5000000000000009 0.47222222222222227 0.50550000000000039 6.5000000000000009 7.5000000000000009 7.5000000000000009 0.51086956521739146 0.094400000000000053 0.12499999999999979 2.4724637681159423 0.025848673725027218 4.5000000000000009 0.099593327933080969 6.5000000000000009 0.49500000000000038 4.5000000000000009 -0.42347317511024157 0.087500000000000008 3.3709677419354844 34.500000000000007 1.3924263674614308 29.500000000000004 1.0973881043774256 7.5000000000000009 2.5000000000000004 0.12296032862956906 6.5000000000000009 6.5000000000000009 0.059999999999999838 0.57506636316354731 1.5000000000000002 28.500000000000004 6.5000000000000009 2.5000000000000004 0.10533428165007114 4.5000000000000009 0.023867192066576691 4.8166666666666673 0.95474999999999965 5.5000000000000009 6.5000000000000009 0.090500000000000011 2.5000000000000004 4.6559139784946248 1.4058823529411768 15.000000000000002 2.5000000000000004 0.29512820512820453 0.155108695652174 7.5000000000000009 2.5000000000000004
decision_type=8 8 10 10 8 10 10 8 8 10 2 2 10 10 2 2 2 8 10 8 10 10 10 8 2 10 10 10 2 10 2 10 2 10 2 8 10 2 2 10 10 10 2 10 8 10 2 10 10 10 8 2 2 10 10 10 10 10 10 10 2 10
left_child=2 3 4 6 20 16 11 34 12 14 17 24 25 39 -6 31 57 27 -16 48 -1 41 -14 -13 -2 -5 38 42 -27 46 47 -8 36 -17 50 45 -28 -19 -23 -10 -24 -11 56 -36 -12 -20 -18 -22 -9 -31 51 -3 61 -15 -26 -39 -7 -4 -49 -57 -38 -25
right_child=1 7 5 8 9 10 15 19 13 21 44 23 22 53 18 33 29 37 35 -21 30 26 40 52 54 28 32 -29 -30 49 -32 -33 -34 -35 43 -37 60 55 -40 -41 -42 -43 -44 -45 -46 -47 -48 58 -50 -51 -52 -53 -54 -55 -56 59 -58 -59 -60 -61 -62 -63
leaf_value=0.038227342094077993 -0.009503504519569125 -0.026792986870858373 0.010116149091047404 -0.0066774726884105936 0.0085737923809658893 0.012901696567463325 -0.017485606234599525 -0.02296480871811428 -0.0072338148551260072 0.034443714886997566 -0.000139971045678974 0.0041595068291195988 0.00092734981075323392 -0.020968645822719293 0.015563556586947422 0.0045248163065336631 0.030406967096569329 -0.0047915135487367443 0.01846430715261654 -0.038809186082853941 0.019087371625115424 0.0035497847353264025 -0.010377232802486785 0.027546755046445565 0.0066135895693627865 -0.010065586314697219 0.006543590131545843 -0.0044973689934363348 -0.018916200588974353 0.0035468435421904089 0.0092237653111044565 -0.0033965559926100578 0.0045163951512458694 -0.0094665087580825726 -0.0097697692215464749 0.01574204523368208 0.011957249505485157 0.0060071793415179507 0.021935059743577453 -0.016974688358426769 0.0068639084364058613 0.0017818892849313147 -0.0015190274645105178 -0.021749348259694823 -0.00904073628241398 0.028921781067865152 0.011921248618225504 0.031457408650964684 -0.033062669379817382 0.016895165336259201 -0.027574827102772578 -0.013004537828521132 0.010311494908702392 -0.030015445134466218 -0.0041915411136057446 0.019815851315669812 0.0031820618253540485 0.0013206988849785233 0.0079382446463829824 0.0051641720158772768 0.023894983035958287 0.01353692956696647
leaf_weight=40.553739103488624 30.998425326310098 19.300187892280519 68.98913099616766 69.944503501057625 55.152902469038963 32.888511546887457 62.226276359520853 47.48663923330605 48.251971989870071 2.5101260878145686 43.191016935743392 37.672410185448825 83.86615433730185 88.585665539838374 114.18728642258793 40.595982610248029 24.470177830196917 12.547693176195024 28.333259203471243 80.952162043191493 25.58161429874599 9.3007751107215864 83.78743870742619 23.870349207893014 63.317815623246133 76.371178797446191 36.70337913185358 89.808115692809224 105.00676881801337 18.535360486246645 11.024892727844415 20.479614770971239 66.9134759940207 25.02137838024646 40.37310338485986 30.514293144457042 31.207591726444662 48.729531116783619 47.840568737126887 65.114216562360525 9.8514943467453104 71.875748731195927 68.006748502142727 29.855669575743377 102.26635561138391 97.545471565797925 9.3946021571755391 68.501858663745224 43.341155851259828 42.518747474998236 56.853702469728887 30.254376261495054 30.839338510297239 37.145252020098269 25.823587173596025 32.801296674646437 71.066090372391045 44.87213306967169 4.0161263486370435 13.85720914788544 27.523048234172165 19.062419428490102
leaf_count=1817 1657 1166 3501 4885 2266 1985 4115 3919 3638 133 2730 2414 5483 6950 5934 2832 1429 605 1380 7149 1290 413 6086 1447 3728 5338 2032 5920 7553 1129 524 1289 3626 1963 3133 1503 1545 3104 2573 5037 704 4144 4091 2499 6672 4655 559 3233 3597 2531 3944 2111 1929 2928 1565 1990 4258 2369 189 838 1616 1217
internal_value=-0.000529097 -0.0124368 0.0106052 -0.00780427 0.0172522 0.00354189 0.000514386 -0.0263685 -0.0125358 0.0144363 0.000323767 0.00607217 -0.00920228 -0.0185146 0.0186494 -0.00816325 0.0114826 0.00296831 0.0207031 -0.0329793 0.0289087 0.00976652 -0.00407926 0.0124752 0.000132543 -0.0128206 0.012099 0.000547237 -0.0151896 0.0172796 0.0254457 -0.0139969 0.00969032 -0.000810391 -0.0199395 0.0244557 0.013318 0.00883999 0.0189425 -0.0128287 -0.00856334 0.00288405 0.00318182 -0.0148625 -0.00639781 0.026568 0.0252787 0.0272688 -0.0277833 0.0128428 -0.0232903 -0.0183748 0.0167217 -0.0236414 0.00348343 0.0106331 0.0062571 0.00664991 0.0301549 0.0154644 0.0175517 0.0213263
internal_weight=2889.48 1396.25 1493.23 1047.83 769.286 723.943 379.908 348.417 667.925 619.608 515.163 231.584 428.828 239.097 325.733 148.323 208.78 369.705 270.58 171.78 149.678 293.875 177.505 111.445 120.14 251.322 219.489 261.769 181.378 94.9189 109.124 82.7059 162.347 65.6174 176.637 156.393 95.434 107.936 57.1413 113.366 93.6389 74.3859 171.961 70.2288 145.457 125.879 33.8648 98.0996 90.8278 61.0541 106.408 49.5546 73.7721 125.731 89.1414 95.388 103.955 113.861 72.518 46.6585 58.7306 42.9328
internal_count=182860 100276 82584 72758 38873 43711 24156 27518 48602 31820 32193 13957 30049 18553 15738 10199 11518 22791 13472 14665 7053 16082 12273 7007 6950 17776 11805 16254 12891 5648 5236 5404 8819 4795 12853 7538 5193 6537 2986 8675 6790 4277 10334 5632 9402 6035 1988 4712 7516 3660 7221 3277 4593 9878 5293 5932 6243 5870 3422 2828 3161 2664
is_linear=0
shrinkage=0.05


Tree=12
num_leaves=63
num_cat=0
split_feature=28 19 28 146 145 44 28 19 12 28 116 27 146 19 145 30 28 116 126 59 145 97 12 116 59 116 126 12 9 116 145 28 28 12 124 111 12 24 27 44 27 116 116 97 12 28 47 9 116 26 49 116 116 116 9 116 33 28 12 35 59 124
split_gain=141.085 33.9744 26.9249 15.5241 7.46249 6.90132 6.45307 5.33348 4.91009 4.30871 3.2904 3.2875 3.14735 2.63963 2.51572 2.5132 2.44817 2.22177 2.2135 2.00414 1.91749 1.688 1.66521 1.64532 1.51987 1.49112 1.48962 1.48024 1.36859 1.27487 1.47681 1.2422 1.23421 1.20252 1.18703 1.24904 1.17844 1.13065 1.08353 1.03621 0.990184 0.995427 0.985293 0.992043 0.939438 0.93344 0.908808 0.857741 0.836055 0.832885 0.821342 0.819376 0.806169 0.796757 0.77598 0.743704 0.74293 0.740324 0.738452 0.726487 0.722554 0.761109
threshold=-0.18244870523563847 0.084999999999999978 -0.90958733581045614 0.48010000000000047 2.5000000000000004 0.51066356698842685 1.1756352672275785 0.059999999999999838 0.08950000000000001 0.30671917946592903 6.5000000000000009 1.5000000000000002 0.015300000000000093 0.12499999999999979 3.5000000000000004 0.29285714285714287 -0.65808875395406519 6.5000000000000009 2.1114551083591335 5.1500000000000012 1.5000000000000002 4.6935483870967749 0.076500000000000012 7.5000000000000009 8.1500000000000004 7.5000000000000009 1.8495475113122175 0.090500000000000011 3.5000000000000004 6.5000000000000009 5.5000000000000009 -0.63960214906683566 -0.5741414457904529 0.090500000000000011 4.0437500000000002 1.5000000000000002 0.082500000000000018 0.06779999999999993 6.5000000000000009 0.49799996799948804 5.5000000000000009 6.5000000000000009 6.5000000000000009 5.1129032258064528 0.070500000000000021 0.96583426160782737 -0.60754070819333161 7.5000000000000009 6.5000000000000009 3.399550000000001 2.5000000000000004 7.5000000000000009 7.5000000000000009 7.5000000000000009 3.5000000000000004 7.5000000000000009 0.43095238095238103 1.1756352672275785 0.090500000000000011 4.276190476190477 1.2500000000000002 4.3937500000000016
decision_type=8 8 10 10 10 10 8 10 2 8 2 10 10 8 10 10 10 2 10 10 10 10 2 2 8 2 10 2 2 2 10 10 10 2 2 8 2 10 10 10 8 2 2 10 2 10 10 2 2 10 8 2 2 2 2 2 10 10 2 10 10 2
left_child=2 3 5 7 23 10 25 12 16 14 -1 34 26 37 58 32 42 -9 47 -19 -13 36 -21 -4 48 40 51 59 -25 -18 -31 55 -10 -22 -12 52 -11 -8 -27 44 41 -3 -6 60 -32 -24 -35 -7 -14 -37 -39 -2 -36 -20 56 -17 -26 -38 -5 -16 -44 -62
right_child=1 6 4 9 8 18 13 17 15 21 11 20 24 -15 27 31 29 19 53 22 33 -23 45 28 54 38 -28 -29 -30 30 39 -33 -34 46 35 49 57 50 -40 -41 -42 -43 43 -45 -46 -47 -48 -49 -50 -51 -52 -53 -54 -55 -56 -57 -58 -59 -60 -61 61 -63
leaf_value=0.0043753540184214134 0.0027665452618114883 -0.025633821986340566 0.010112155826550289 0.0038844924037391374 0.0016078776285743069 0.018073986171246736 -0.015319303726375178 -0.019574256112186477 -0.0012687369502205757 -0.0093652320980500345 0.014029608757838125 0.045497191900016457 -0.013582103725772648 -0.038454170981054928 -0.0049685947720176276 0.0025977051494425803 -0.0057457225706723514 0.0036867818445662144 0.025127073273248736 0.0016385452353588803 0.017706224478211238 -0.02402784653678925 -0.006916482834306412 0.027492250015708149 -0.0059837803758946576 -0.0086686044851372584 0.024238378813856903 -0.01659915761407544 0.01177063195429924 0.0091182183327288367 0.014555810790466637 -0.00073850175810711595 -0.0090367449749366169 0.0011228722367271685 0.021804568645396434 0.030318018958961235 -0.017007437205127082 -0.022231707094952868 -0.02018927978497603 0.013606229801888936 -0.026519998227745801 -0.012391372885184805 0.0383542207035363 0.0049030936426940732 -0.0039899812919612036 -0.016503119091868565 0.010558014254413878 0.027497206718129816 0.007432434069029558 0.015016562652959399 -0.032448187001688944 0.013063906011182125 0.030740780742927368 0.036862314897529315 -0.01134636447364756 0.011816295212423802 0.0059470308201393599 -0.031156402932809781 -0.0066773138891306682 -0.01312170146977721 0.012298467488674128 0.02292313402552831
leaf_weight=67.497867016121745 34.775737621821463 23.164003491401672 65.5009097578004 38.041133478283882 16.600232129916549 63.379761496558785 19.131308478303254 27.080665447749197 100.13463051058352 54.882057165727019 57.580288428813219 4.0021786987781516 5.1550191901624194 78.155613674316555 71.539953909814358 44.77255683299154 30.175378461368382 56.293219306506217 20.800464723259211 37.504877020604908 43.744422462768853 84.478048470802605 66.07681352738291 37.03793643321842 31.906096518971026 48.983563816174865 18.572829228825867 91.231837219558656 22.103786540217698 109.86975270882249 7.6455996371805659 119.3905527619645 104.49434652272612 34.190009688027203 55.42559758014977 10.411116258241234 74.602987504564226 30.749862926080823 34.986183756962419 12.479844653978942 62.537202406674623 36.634379897266626 3.9075157614424816 20.0262132845819 63.883169941604137 41.239055662415922 100.66930049005896 39.014006061479449 57.812313226051629 60.99830789770931 54.609989257529378 43.462338583543897 46.338812342844903 47.477994953282177 28.132932526059449 42.785248702391982 22.076329506933689 10.552873020060359 29.293490125797689 44.205610506236553 45.010043289512396 26.94796802289784
leaf_count=2786 1939 1422 3312 2349 747 3062 1541 1551 6040 4074 2881 208 275 7138 5006 2339 1484 3849 847 2638 2363 6577 4566 2111 2144 3845 1023 6685 1301 6690 479 7592 6893 1919 2509 508 5675 2620 2982 792 4433 2587 211 1159 4172 3119 5459 1862 3907 2989 4679 2668 2342 2123 2076 2669 1533 848 1850 3149 2545 1483
internal_value=-0.000455714 -0.0121765 0.00998535 -0.00716552 0.00424378 0.0176766 -0.0246593 -0.000645999 0.00235662 -0.0133094 0.0146108 0.0162821 0.0045268 -0.031504 -0.00910536 -0.00130628 0.00683614 -0.00612934 0.0263142 -0.00431893 0.0112696 -0.0184459 -0.00743083 0.0155708 -0.000132109 -0.0185995 0.0115087 -0.0118364 0.0216164 0.00381442 0.00530237 0.0025789 -0.00523549 0.0105026 0.0202487 0.0223166 -0.0150786 -0.0263055 -0.0134687 0.000311859 -0.0221213 -0.0175211 0.0128546 0.0148016 -0.00200765 -0.0106004 0.00816598 0.0216644 0.00571201 0.0172474 -0.0287678 0.00848687 0.0258737 0.0332873 -0.00461347 0.00710238 -0.00110463 -0.0187608 -0.000710353 -0.00808243 0.0174144 0.0162774
internal_weight=2882.16 1357.87 1524.3 968.916 872.766 651.53 388.952 470.088 748.123 498.828 480.858 413.36 241.894 182.647 274.312 411.577 336.546 228.195 170.672 201.114 182.606 224.516 144.821 124.643 145.083 206.305 96.8109 206.977 59.1417 224.054 193.878 206.948 204.629 178.604 230.754 173.174 140.038 104.491 83.9697 84.0086 122.336 59.7984 112.492 95.8917 71.5288 107.316 134.859 102.394 62.9673 71.4094 85.3599 78.2381 101.764 68.2785 82.1154 87.5578 53.9824 85.1559 67.3346 115.746 75.8655 71.958
internal_count=182625 98748 83877 67501 52019 31858 31247 31288 45295 36213 23964 21178 15565 15978 19039 25533 19762 15723 7894 14172 9949 17174 10323 6724 9935 15269 5630 14840 3412 13617 12133 12600 12933 9741 11229 8348 10597 8840 6827 5443 8442 4009 6145 5398 4651 7685 7378 4924 4182 3497 7299 4607 4851 2970 5753 5008 3677 6523 4199 8155 4239 4028
is_linear=0
shrinkage=0.05


Tree=13
num_leaves=63
num_cat=0
split_feature=28 28 19 146 145 44 28 59 18 28 28 116 116 28 145 12 19 126 12 116 9 116 128 126 27 145 44 31 12 116 145 111 128 6 116 116 116 47 19 27 12 145 126 47 41 34 116 19 106 27 12 31 27 116 145 97 126 116 146 97 127 35
split_gain=126.263 29.6489 28.2131 15.2369 9.04287 7.68778 5.36214 5.35326 4.1355 3.78932 3.27663 3.1725 3.15415 2.81828 2.39857 2.22878 2.22082 2.17766 1.87328 1.82165 1.7687 1.6651 1.53804 1.47996 1.43 1.40967 1.45827 1.3696 1.3295 1.31739 1.24377 1.15401 1.1069 1.10549 1.08722 1.05162 1.05042 1.01368 1.00745 0.987238 0.953816 0.942201 0.931783 0.930795 0.929422 0.919829 0.911688 0.858871 0.856255 0.851616 0.847383 0.81081 0.786493 0.920945 0.784593 0.780559 0.762963 0.749355 0.739634 0.734901 0.732153 0.724586
