tree
version=v4
num_class=1
num_tree_per_iteration=1
label_index=0
max_feature_idx=58
objective=binary sigmoid:1
feature_names=track_id race_number track_condition weather temperature humidity track_temperature grade distance post_position handicap_meters trial_time trial_deviation generation is_home_track rider_age trial_time_rank field_avg_trial field_trial_std trial_time_diff_from_best avg_trial_time_30d avg_trial_time_90d trial_time_trend trial_vs_avg_90d computed_trial_deviation trial_deviation_trend predicted_race_time predicted_race_time_rank trial_time_zscore win_rate_10 top2_rate_10 top3_rate_10 win_rate_30 top3_rate_30 avg_finish_10 avg_finish_30 finish_std_10 momentum days_since_last_race total_races avg_start_timing_10 avg_start_timing_30 start_timing_consistency handicap_rank field_size handicap_range_in_field handicap_group handicap_vs_trial is_wet_condition predicted_vs_handicap field_avg_win_rate field_max_win_rate field_avg_finish form_rank_in_field relative_win_strength gap_to_top_rival rider_track_win_rate rider_wet_win_rate rider_wet_top3_rate
feature_infos=-1:2:5:3:6:4 [1:12] -1:0:1:3:4 -1:0:1:3:2:7 [0:39] [0:99] [0:65] none none [1:8] [0:80] [3.2000000000000002:4.3899999999999997] [0:0.217] [2:38] none none [1:8] [3.2662499999999999:4.1385714285714288] [0:0.17274258305351359] [0:0.50999999999999979] [3.23:4.0300000000000002] [3.2696666666666667:4] [-0.44999999999999929:0.48000000000000043] [-0.58000000000000007:0.92441176470588182] [0.0028000000000000026:0.21069999999999997] [-0.21300000000000002:0.16230000000000008] [3.3057000000000003:4.4685999999999995] [1:8] [-2.3909551787238956:2.4517705565139374] [0:1] [0:1] [0:1] [0:1] [0:1] [1:9] [1:9] [0:4.9497474683058327] [-5.9999999999999982:6.9999999999999982] [1:860] [0:768] [0.01:0.42999999999999999] [0.01:0.42999999999999999] [0:0.22920151250228116] [1:7] [5:8] [0:90] [0:4] [0:4294967295] [0:1] [0:4294967295] [0:0.5] [0:1] [2.0249999999999999:6.4428571428571431] [1:7] [0:8] [0:1] [0:1] [0:0.83333333333333337] [0:1]
tree_sizes=6838 6901 6878 6913

Tree=0
num_leaves=63
num_cat=0
split_feature=28 19 27 9 27 54 19 54 54 9 54 28 19 28 28 19 55 28 10 10 54 18 56 9 18 27 10 54 57 9 39 56 18 10 19 12 18 12 9 9 12 9 28 28 28 9 27 56 56 33 56 56 27 28 56 24 12 28 56 28 24 18
split_gain=86718.5 19559.1 9962.76 8222.84 3276.9 2851.68 2806.61 2707.26 1693.8 1518.65 1413.3 1327.95 1257.41 1227.23 1160.68 1109.08 1042.46 833.413 751.517 668.958 643.562 641.77 614.541 478.627 471.649 467.536 466.134 464.95 400.887 399.402 399.123 383.632 375.213 372.66 418.866 365.233 343.154 312.957 308.169 304.217 303.824 296.222 288.891 285.272 284.701 273.392 258.632 253.832 252.661 246.192 244.483 243.797 243.688 243.065 245.722 259.071 242.926 242.52 235.993 228.537 255.689 227.455
threshold=-0.58461282221546562 0.060000000000000282 1.5000000000000002 3.5000000000000004 3.5000000000000004 1.3368794326241138 0.10499999999999977 1.0467391304347828 1.4160272804774088 4.5000000000000009 0.99218750000000022 -0.14264935053936026 0.044999999999999936 -1.0017398137944482 -1.0017398137944482 0.044999999999999936 0.18174603174603179 -1.1242374190695077 1.0000000180025095e-35 1.0000000180025095e-35 1.0513157894736844 0.034016802570830479 0.28593406593406595 1.5000000000000002 0.039339789623472364 4.5000000000000009 1.0000000180025095e-35 1.6869328493647917 0.23117408906882594 5.5000000000000009 75.500000000000014 0.25032637075718017 0.029246489410819046 1.0000000180025095e-35 0.084999999999999978 0.090500000000000011 0.021671244937539969 0.067500000000000018 1.5000000000000002 4.5000000000000009 0.076500000000000012 2.5000000000000004 0.77274607003667539 -1.2349939611324354 0.8189230248533298 4.5000000000000009 6.5000000000000009 0.34792185405094816 0.15716674629718111 0.39642857142857152 0.096175357081397364 0.21625417552383849 2.5000000000000004 0.9832602935281084 0.096810520197616975 0.065599999999999922 0.078500000000000014 0.27072807728494452 0.1071873886711792 1.0427016064814765 0.063300000000000092 0.035632048174962745
decision_type=8 8 10 2 8 10 8 10 8 2 8 10 10 10 10 10 10 10 2 2 10 10 10 2 10 10 2 10 8 2 2 10 10 2 10 2 10 2 2 2 2 2 10 10 10 2 8 8 10 10 8 8 10 10 10 10 2 10 10 10 10 10
left_child=2 3 8 7 16 9 10 12 17 52 33 27 25 36 31 23 58 21 30 -14 -13 -1 32 -9 35 41 -17 45 -8 -16 -12 -7 -10 34 -3 -15 -11 -18 -27 -39 -28 -2 -42 -34 56 -6 -30 -47 -41 -38 -26 -31 -4 54 -20 -56 -21 -40 -5 -32 -61 -19
right_child=1 6 5 4 11 14 28 15 22 13 18 20 19 24 29 26 37 61 53 44 -22 -23 -24 -25 50 38 40 -29 46 51 59 -33 43 -35 -36 -37 49 39 57 48 42 -43 -44 -45 -46 47 -48 -49 -50 -51 -52 -53 -54 -55 55 -57 -58 -59 -60 60 -62 -63
leaf_value=-1.6118943663366418 -1.6450581364654211 -1.7910212398339915 -1.6133491353191793 -1.7378471761750722 -1.750897892675781 -1.6045424090427609 -1.8916007484344197 -1.5859699819359825 -1.6007117566894613 -1.7245225848783563 -1.6695646159409121 -1.8460437692934861 -1.7196496783480066 -1.7104913609240335 -1.621668340668617 -1.6646111824458933 -1.6944218702179894 -1.6528719204505866 -1.8371883330175449 -1.7195200642644923 -1.7937652880013055 -1.5595276736485786 -1.5259032282364313 -1.6476846772935816 -1.7453349418964228 -1.670351131754432 -1.6705669527107954 -1.7224904017509071 -1.7714419560782642 -1.6849853503602963 -1.7320792863261658 -1.5482711386658874 -1.5403425114130296 -1.8537388729948219 -1.8511474076865326 -1.7696376778170841 -1.6836743569928736 -1.7328510177741272 -1.7162953330855801 -1.8028796910779015 -1.7339286757480361 -1.6993213323718348 -1.8517220840285866 -1.5761034438491701 -1.8424494096331914 -1.8039569667695052 -1.8629815368558482 -1.6840077076810382 -1.7533080515282613 -1.6308522028492547 -1.6831690011371172 -1.6335609707910173 -1.6566692872154272 -1.8555427549908829 -1.6946546347177567 -1.7928713162634695 -1.7858233173365117 -1.7765358976300076 -1.693070565697437 -1.6902909701627551 -1.8075413360552128 -1.6127763974055125
leaf_weight=1045.4664852917194 497.97454772889614 667.68431118130684 592.44304448366165 394.60409812629223 461.33075532317162 867.91694310307503 1980.5952775329351 419.45152240991592 654.72240126132965 176.41383664309978 137.65501233935356 1454.7084980458021 741.55035990476608 424.5310005992651 921.02801619470119 573.98917345702648 157.1285472214222 646.4244030714035 284.67881095409393 180.04309502243996 988.85256536304951 1328.5851247906685 1288.6926249563694 1251.6332660913467 206.69706128537655 229.71847718954086 160.16722729802132 422.62032288312912 112.86424271762371 663.57099142670631 320.72908425331116 465.25148411095142 1151.1199007630348 1687.8051007091999 511.61044332385063 677.62133425474167 334.03288646042347 425.38643933832645 496.76166759431362 636.29269331693649 337.77944849431515 508.1485593020916 61.533518508076668 1081.7361679673195 166.61043438315392 884.08743138611317 243.93122355639935 46.421144306659698 431.26785084605217 649.50909382104874 673.44092428684235 353.13287122547626 718.15119111537933 230.69836315512657 75.78569158911705 588.62239140272141 593.69052325189114 251.74110034108162 1157.2384435087442 54.706117317080498 309.8508338779211 781.11076635122299
leaf_count=3546 1968 4285 2024 2178 2648 2836 16076 1239 2097 934 601 10688 3865 2147 3276 2458 752 2640 2049 938 6392 3331 2499 5002 1167 1006 702 2223 687 3070 1739 1078 2513 12620 3803 4104 1538 2312 2561 4211 1842 2474 458 3015 1214 5867 1862 214 2493 2411 3095 1327 2979 1732 363 3796 3758 1554 5512 258 2075 2661
internal_value=-1.70479 -1.77091 -1.61578 -1.73631 -1.77209 -1.65626 -1.83778 -1.69507 -1.57659 -1.6823 -1.81616 -1.80083 -1.72335 -1.70116 -1.62081 -1.65809 -1.73388 -1.60074 -1.78393 -1.75516 -1.82489 -1.58259 -1.55461 -1.63219 -1.72506 -1.6964 -1.69627 -1.76842 -1.88281 -1.64552 -1.74726 -1.5849 -1.56743 -1.83867 -1.81711 -1.74686 -1.66031 -1.76154 -1.72101 -1.76861 -1.72874 -1.67246 -1.75208 -1.55767 -1.78316 -1.78237 -1.83403 -1.79797 -1.78285 -1.64879 -1.69777 -1.66712 -1.63709 -1.80951 -1.79832 -1.78167 -1.77039 -1.73656 -1.70446 -1.76286 -1.78995 -1.63093
internal_weight=36839.5 21137.9 15701.6 13930.7 7459.94 7723.74 7207.22 6470.79 7977.86 4452.84 4869.83 4258.02 3666.24 3142.25 3270.9 2804.55 3201.92 3801.59 2002.73 1681.89 2443.56 2374.05 4176.27 1671.08 1982.29 1984.34 1133.47 1814.46 2337.39 1937.73 822.941 1333.17 2887.58 2867.1 1179.29 1102.15 1159.96 1650.08 978.221 1492.95 559.48 1006.12 399.313 2232.86 940.344 1391.84 356.795 930.509 1067.56 983.542 880.138 1016.7 1310.59 1179.79 949.087 664.408 773.734 748.503 1551.84 685.286 364.557 1427.54
internal_count=182763 128475 54288 76529 45490 31986 51946 31039 22302 20399 33321 28032 19338 15396 11587 11701 17458 12178 12613 9775 17080 6877 10124 6241 10513 9563 5460 10952 18625 7673 4673 3914 7625 20708 8088 6251 4883 9768 5121 9016 3002 4442 2300 5528 5910 8729 2549 6081 6704 3949 4262 4397 5003 7940 6208 4159 4696 4115 7690 4072 2333 5301
is_linear=0
shrinkage=1


Tree=1
num_leaves=63
num_cat=0
split_feature=28 19 19 9 19 27 54 54 19 54 54 18 9 9 13 28 54 28 12 56 10 54 28 28 28 9 31 10 54 24 18 52 58 9 10 45 10 13 27 28 28 56 17 18 28 10 24 28 12 28 35 12 12 24 12 28 28 19 28 17 19 45
split_gain=56290.8 12274 8272.91 6016.86 2298.61 1801.1 1660.38 1474.24 1441.07 1018.54 916.345 827.066 788.55 769.478 749.393 739.739 586.558 582.344 570.075 519.57 505.057 492.966 450.315 450.077 435.578 439.566 429.293 409.757 373.295 352.398 348.379 337.889 320.757 317.086 309.834 336.96 305.446 300.41 285.657 275.434 272.704 270.051 265.31 240.079 238.925 237.144 234.493 229.26 226.058 221.93 214.292 209.804 208.123 201.856 199.844 199.65 195.948 187.691 237.315 179.053 178.821 177.535
threshold=-0.42347317511024157 0.074999999999999969 1.0000000180025095e-35 3.5000000000000004 0.044999999999999936 3.5000000000000004 1.1487481590574378 0.99218750000000022 0.10499999999999977 0.61651583710407254 1.0467391304347828 0.034965965707018369 4.5000000000000009 3.5000000000000004 34.500000000000007 0.050507627227618195 0.85934065934065951 -1.2694908990840152 0.097500000000000017 0.10533428165007114 1.0000000180025095e-35 1.5519713261648749 1.1160592436309602 -0.72627303920257213 -1.287733735528789 4.5000000000000009 0.47222222222222227 1.0000000180025095e-35 1.1383577052868394 0.06779999999999993 0.029277002188456056 4.3937500000000016 0.58151400094921701 4.5000000000000009 1.0000000180025095e-35 1.0000000180025095e-35 1.0000000180025095e-35 31.500000000000004 1.5000000000000002 0.27072807728494452 -1.1385886499572606 0.10147090633787585 3.4373214285714293 0.026592157812837438 -0.89871703427291172 1.0000000180025095e-35 0.099700000000000163 -0.74893086189410341 0.090500000000000011 0.22528177844477651 3.7416666666666671 0.078500000000000014 0.076500000000000012 0.092600000000000085 0.081500000000000017 0.51754916950676944 0.56980288229819831 0.13000000000000014 0.070710678118652934 3.4406250000000007 0.069999999999999632 45.000000000000007
decision_type=8 8 10 2 10 8 8 10 8 8 10 10 2 2 2 10 8 10 2 8 2 8 10 10 10 2 10 2 10 8 10 2 8 2 2 2 2 2 10 10 10 8 10 10 10 2 10 10 2 10 10 2 2 10 2 10 10 8 10 10 10 2
left_child=2 3 6 4 10 21 11 13 14 27 34 24 45 -4 16 26 -3 43 31 -14 37 33 41 -21 -1 -26 59 39 -17 -18 -19 44 57 -5 35 -2 -12 53 -27 -6 -13 -22 -34 -8 -15 -9 -16 -20 61 -36 -40 -35 -43 -11 -46 -38 -54 58 -10 -7 -41 -29
right_child=1 8 7 5 9 15 17 12 32 20 36 40 19 18 46 28 29 30 47 23 22 -23 -24 -25 25 38 -28 48 -30 -31 -32 -33 42 51 49 -37 55 -39 50 60 -42 52 -44 -45 54 -47 -48 -49 -50 -51 -52 -53 56 -55 -56 -57 -58 -59 -60 -61 -62 -63
leaf_value=0.19370652754975973 0.065954959245699843 0.0030238962299272338 0.17594556582630941 0.1125756641846013 0.15874693963677697 0.034021252929277601 0.22006598105691408 0.23420044186730046 0.12350359075487771 0.14242680996545221 0.20399416452186042 0.22660781721698667 0.11426751794745066 0.15914446270504309 0.13704243346604847 0.0040657440755343596 0.10563954294506439 0.18705189965118338 0.11316180269113563 0.18440684735672991 0.071725611020306446 0.13001508042225857 -0.00046713574147191119 0.14458250012872823 0.19266332200202468 0.16121460694012416 0.087747522680358403 0.054662513899105036 0.047256224506078373 0.036101313557566239 0.22336971907901565 0.15349992972739757 -0.0070989854866259751 0.091988410127548506 0.12857896844558292 0.16918225070690077 0.16897995453398432 0.18017619692888942 0.15657051260637331 0.10295968669408298 0.1926020252963464 0.16614342489191231 0.084308715033288073 0.24844331949086285 0.14016775117433597 0.18828181116712206 0.032935622192684103 0.063169126059368641 0.018449437152132406 0.079482851564983206 0.08097806310320399 0.045902281205502958 0.12517915661666199 0.091538416862359681 0.089447277825564761 0.085902427878898527 0.057720430101622193 -0.04563111023498094 -0.018918881239109727 0.087182855177101296 0.048079548268797387 0.12691258351826737
leaf_weight=1133.4022323936224 90.014652475714684 1652.7710261642933 694.34541488438845 510.50532855093479 147.89651422202587 1003.9346716180444 969.86445495486259 369.89991130679846 30.20468844473362 653.12919814139605 813.24125112593174 1420.9487189948559 606.39168201386929 236.95171405375004 200.64965303987265 1313.8665632903576 221.33346907794476 880.50739485025406 407.09439265727997 1474.7965838909149 365.63938719034195 740.42525938153267 106.1605575978756 1367.1325216889381 424.62045848369598 399.00029896199703 928.99696949124336 430.26342235505581 807.91600941121578 1030.1957581788301 2640.4985594451427 980.82068292796612 266.46337371319532 412.09966050088406 844.98501329123974 649.2944113612175 793.90901365876198 376.44125141203403 132.71006817370653 409.42848575115204 1007.6251293942332 211.52361090481281 113.06773409992456 3219.470321893692 266.51408530771732 1172.2012783885002 74.051661625504494 525.16673918813467 377.92962877452374 316.35323762893677 319.3885814473033 616.23249060660601 423.74830007553101 277.73665734380484 715.81980308145285 79.565093412995338 144.30714698135853 971.41578101366758 924.28635592013597 188.0592039078474 232.84791814535856 105.96546478569508
leaf_count=3398 498 12305 2419 2508 615 6669 2256 854 171 2800 2254 3130 2832 892 942 9774 1151 2668 1931 4728 2139 3345 787 5681 1309 1428 5237 2717 5178 6853 6096 4021 2052 2214 3771 2409 2794 1352 526 2058 3118 833 681 5475 1159 3764 493 3063 2639 1739 1705 3864 2070 1430 3795 389 907 8322 7495 1084 1482 535
internal_value=0.13246 0.0718535 0.188789 0.0961368 0.125624 0.0606437 0.214869 0.151672 0.00821695 0.100805 0.155118 0.191908 0.169575 0.128324 0.0300432 0.0413854 0.0225771 0.229276 0.117768 0.156284 0.120752 0.0964925 0.0980465 0.165249 0.171151 0.151111 0.062267 0.0708596 0.0205115 0.0483992 0.214288 0.131653 -0.0218795 0.0803628 0.131312 0.156614 0.181943 0.142486 0.13038 0.0972293 0.212499 0.107179 0.0201327 0.241874 0.114079 0.199296 0.108978 0.0849996 0.0480663 0.115205 0.103168 0.0643711 0.123807 0.127244 0.103208 0.161412 0.108042 -0.0301587 -0.0144119 0.0424085 0.0830637 0.06894
internal_weight=41222 19856.9 21365.2 14372.4 7850.38 6522.04 12548 8817.13 5484.44 4263.02 3587.36 4837.7 4990.42 3826.71 3179 4242.77 2904.3 7710.34 3132.37 3448.32 2558.69 2279.26 1251.38 2841.93 2409.12 1275.72 2120.99 1704.33 2121.78 1251.53 3521.01 2200.11 2305.44 1538.84 1900.65 739.309 1686.72 1307.31 851.099 790.173 2428.57 1145.22 379.531 4189.33 1219.29 1542.1 274.701 932.261 914.159 1161.34 452.099 1028.33 779.579 930.866 982.334 873.474 568.055 1925.91 954.491 1191.99 642.276 536.229
internal_count=182804 116556 66248 76091 36218 39873 31109 35139 40465 22364 13854 14614 17859 17280 21744 27942 20309 16495 14861 13241 12318 11931 6736 10409 8366 4968 12990 10046 14952 8004 8764 9867 18721 8586 8417 2907 5437 5582 3659 4155 6248 5949 2733 7731 5846 4618 1435 4994 5891 5510 2231 6078 3810 4230 4954 3183 2977 15988 7666 7753 3540 3252
is_linear=0
shrinkage=0.05


Tree=2
num_leaves=63
num_cat=0
split_feature=19 19 16 9 27 54 19 9 27 55 27 27 9 27 57 56 56 56 54 54 31 18 18 27 12 18 9 54 13 56 9 21 21 45 17 9 17 57 9 35 56 19 56 56 30 56 45 19 27 19 54 35 17 36 54 27 32 55 19 1 34 56
split_gain=38863 7767.92 7694.79 2841.92 1843.79 1710.01 1257.08 1149.73 1104.24 964.649 918.239 802.142 711.145 696.787 606.567 541.994 517.356 492.484 450.495 428.184 392.512 363.411 349.928 343.354 338.986 327.602 315.394 312.255 288.215 271.889 267.348 266.962 255.439 239.283 235.752 230.19 224.267 222.517 212.2 205.404 195.039 188.139 184.205 183.726 183.214 182.913 181.509 181.39 176.021 170.729 168.97 164.456 164.402 164.025 162.632 157.069 157.003 155.847 155.575 153.915 167.439 153.232
threshold=0.03999999999999982 0.074999999999999969 1.5000000000000002 2.5000000000000004 4.5000000000000009 1.1487481590574378 0.10499999999999977 4.5000000000000009 1.5000000000000002 0.21111111111111117 5.5000000000000009 3.5000000000000004 3.5000000000000004 2.5000000000000004 0.3728043143297381 0.21460207341211518 0.13925813617291352 0.233542782855342 1.1383577052868394 0.80384615384615399 0.21111111111111114 0.030605010483034815 0.032950178841916533 3.5000000000000004 0.080500000000000016 0.034121631178560659 4.5000000000000009 0.99218750000000022 32.500000000000007 0.10348397229956452 2.5000000000000004 3.4460416666666673 3.4541240409207163 15.000000000000002 3.4193750000000009 4.5000000000000009 3.3622500000000004 0.23117408906882594 4.5000000000000009 2.9500000000000006 0.10348397229956452 0.24000000000000002 0.14119342261400239 0.13434479584456574 0.18333333333333338 0.079388422035480868 15.000000000000002 0.054999999999999945 2.5000000000000004 0.13000000000000014 1.7530487804878052 3.4724637681159423 3.3738750000000004 1.7223893437415796 2.4660633484162902 5.5000000000000009 0.039230769230769243 0.4071428571428572 0.044999999999999936 8.5000000000000018 4.9500000000000011 0.11771241830065361
decision_type=8 8 10 2 8 10 8 2 10 10 10 8 2 8 8 10 8 10 10 8 8 10 10 10 2 10 2 8 2 10 2 10 10 2 10 2 10 8 2 10 10 8 10 10 10 8 2 10 10 8 10 10 10 10 8 10 10 10 10 2 10 10
left_child=2 3 8 10 9 7 14 23 17 24 20 21 -7 43 19 22 32 25 36 52 -2 39 26 -4 48 38 -10 -8 -22 -15 46 54 50 -18 59 55 -6 49 -1 -9 -38 53 -13 -14 -28 -23 -25 -35 -5 -29 -12 -37 -3 -39 -21 -20 -34 -40 -26 60 -11 -32
right_child=1 6 5 4 18 12 27 11 15 34 16 42 13 29 -16 -17 33 -19 35 31 28 45 -24 30 58 -27 44 37 -30 -31 61 -33 56 47 -36 51 40 41 57 -41 -42 -43 -44 -45 -46 -47 -48 -49 -50 -51 -52 -53 -54 -55 -56 -57 -58 -59 -60 -61 -62 -63
leaf_value=0.19335412220705925 0.091167732766113452 -0.015139907262280206 0.14573764412562154 0.14436551464068897 -0.0026335950596447365 0.17071592835999838 -0.034124757335170244 0.17256379705063449 0.15888994795238104 0.064133038396955319 0.041005542471712293 0.033768904558943914 0.13043563776973008 0.077078725674292622 0.11164333157273283 0.18240837201224397 0.063085579652394599 0.20342152249502218 0.096929217346840943 0.01042962259880372 0.13487954673296687 0.079576885242874623 0.16189552649079178 0.094362004090620358 0.099722506263138389 0.18786919431639312 0.070583802689152472 0.016146107003389514 0.18408085901225796 0.12143227441029292 0.075951935700032058 0.064557838144216992 0.057530367796231309 0.1571953046318586 0.084205554191594631 0.073983382437173104 0.0091440810801634922 0.20023100032929275 0.15970164004872534 0.074602399169187761 0.049248236305051346 -0.057704922807078951 0.074218620797859666 0.16052884781444265 0.12302365291239403 0.12538754338629621 0.15495874158628714 0.10692157571518349 0.10437679142735344 -0.038930048060733934 0.11559137804840119 0.0098446724491867265 0.017034176241161828 0.055719142985651421 0.081264722074108273 0.051189820416927101 0.11493320680624027 0.069444506043371615 0.06982058299102567 0.0084760399345660247 0.0027810431562561759 0.11480513600834011
leaf_weight=520.03141877055168 402.24699153006077 638.15675684064627 1617.3711624890566 433.71284083276987 800.61820413917303 1733.2340881675482 1533.0031554326415 56.713399142026901 558.08416226506233 469.19867262989283 655.41506461799145 576.07284107804298 720.83348602056503 429.39449262619019 199.70855429023504 1465.5517527014017 159.58141233772039 3070.8961633145809 367.57907891273499 582.56961372494698 1301.5131427571177 258.09709933400154 1627.4575206339359 168.10531684756279 845.56696125119925 4114.730710119009 210.90991993993521 301.62765404582024 385.90127623826265 1768.933058924973 454.50359289348125 685.18333314359188 181.6897047534585 341.22340686619282 313.56083215028048 142.87051554769278 546.70953992009163 23.645290143787861 1933.1194005459547 947.52714689075947 680.55942818522453 30.05131484568119 550.33999189734459 1711.3130338191986 792.13597402721643 1398.9874067306519 466.54463273286819 378.37579341977835 752.89857350289822 263.74342803657055 85.884439058601856 332.61785484850407 1050.8412987440825 115.78986747562885 94.122289694845676 383.5357124581933 345.89290411770344 49.040430441498756 895.85764449089766 361.38475711643696 145.75550094991922 574.57608009129763
leaf_count=1053 1885 4908 5330 1548 5725 4347 13034 185 1503 2586 3757 3587 2539 2099 964 3170 836 4625 1734 3977 4872 1249 4328 722 3797 7589 999 2294 1015 6988 2254 3911 1016 1116 1595 794 3783 90 4928 4752 4242 260 3008 4841 2798 5417 1474 1722 3462 2308 347 2221 7519 735 513 2152 1492 209 4760 2357 979 2488
internal_value=0.115193 0.0561979 0.151788 0.0792454 0.060696 0.124594 0.00729097 0.107667 0.177257 0.0825126 0.111954 0.0888994 0.143396 0.13317 0.0272239 0.157241 0.0889978 0.186873 0.032421 0.0216978 0.135551 0.103869 0.145673 0.129333 0.0983832 0.179193 0.128761 -0.0212794 0.146132 0.112769 0.113385 0.0425581 0.0685725 0.118477 0.0464867 0.05634 0.0179532 0.00551766 0.164927 0.0801347 0.0313831 0.0557692 0.0535317 0.15161 0.111997 0.118252 0.138908 0.130761 0.118993 -0.00954671 0.0496468 0.0291165 0.00487779 0.0802253 0.0202822 0.0735737 0.0951647 0.157469 0.0843398 0.0343729 0.0495915 0.0976452
internal_weight=45003.1 17228.6 27774.5 11710.2 7472.43 13432.5 5518.44 7068.84 14342 4217.94 4237.72 3787.74 6363.71 4630.47 3250.58 4654.14 2148.06 9687.82 3254.49 3050.87 2089.66 2661.33 3188.59 3281.1 2928.04 6616.92 1561.13 2267.86 1687.41 2198.33 1663.73 1361.88 1268.88 879.181 1289.9 1226.6 2027.89 734.858 2502.19 1004.24 1227.27 169.486 1126.41 2432.15 1003.05 1657.08 634.65 719.599 1186.61 565.371 741.3 475.488 1689 139.435 676.692 751.115 527.583 1982.16 1741.42 976.339 614.954 1029.08
internal_count=182788 100306 82482 59793 41735 51280 40513 30466 31202 21084 18058 18198 20814 16467 21792 12798 10286 18404 20651 20828 7772 11603 9628 12268 13567 13779 5300 18721 5887 9087 6938 8401 6612 3674 7517 6901 13750 5687 6190 4937 8025 1085 6595 7380 3797 6666 2196 2838 5010 4602 4104 3015 12427 825 4490 3886 2508 5137 8557 5922 3565 4742
is_linear=0
shrinkage=0.05


Tree=3
num_leaves=63
num_cat=0
split_feature=28 16 28 9 54 54 9 55 55 23 54 46 18 31 56 18 27 28 9 56 57 23 18 49 18 27 56 28 27 28 28 28 9 27 46 53 9 27 24 28 17 30 18 56 11 18 50 6 18 27 13 20 9 56 28 28 18 28 17 24 1 56
split_gain=29317.4 5546.66 3732.66 3249.37 1742.33 1079.45 943.346 911.967 883.726 834.049 698.094 540.567 529.541 528.863 476.325 428.767 407.875 369.167 364.702 346.6 329.847 356.867 327.979 327.116 324.482 320.554 314.618 300.703 283.969 281.026 264.461 264.24 327.614 262.176 261.076 252.733 236.443 232.795 210.573 207.459 190.144 189.461 187.751 175.925 164.243 164.014 161.56 160.16 158.568 154.012 152.436 148.869 148.668 146.957 146.67 146.483 146.113 143.34 149.141 143.042 140.04 139.393
threshold=-0.43241825121604111 4.5000000000000009 -0.90958733581045614 3.5000000000000004 0.61651583710407254 0.61651583710407254 4.5000000000000009 0.21111111111111117 0.12678571428571431 0.0011764705882357787 0.99218750000000022 1.0000000180025095e-35 0.033523268393900914 0.47222222222222227 0.12223963775687914 0.041115400891590416 1.5000000000000002 0.08058229640255847 2.5000000000000004 0.30962660548801418 0.1502688172043011 0.042500000000000211 0.037289089429432133 2.5000000000000004 0.034016802570830479 6.5000000000000009 0.099593327933080969 0.96583426160782737 3.5000000000000004 -0.18244870523563847 0.50401612877417989 0.9832602935281084 1.5000000000000002 4.5000000000000009 1.0000000180025095e-35 2.5000000000000004 2.5000000000000004 4.5000000000000009 0.086400000000000018 1.4362649974350694 3.4406250000000007 0.29285714285714287 0.042594432902501624 0.12514236902050116 3.5150000000000001 0.02973093626895348 0.17271825396825399 37.500000000000007 0.019955307206712701 3.5000000000000004 28.500000000000004 3.4146410256410271 4.5000000000000009 0.10519222584763797 1.1547005383792521 -1.3498527422930344 0.02497617912751118 1.0427016064814765 3.3946428571428577 0.086100000000000024 9.5000000000000018 0.14408000781517125
decision_type=8 8 10 2 10 8 2 10 8 8 8 2 8 10 8 10 10 10 2 10 8 10 10 10 10 10 10 8 10 10 10 10 2 8 2 10 2 10 10 8 10 10 10 10 8 10 2 8 10 8 2 8 2 10 10 10 10 10 10 10 2 10
left_child=2 3 8 5 12 17 18 13 19 11 23 15 36 29 30 25 45 -2 -4 24 44 -22 34 41 52 -6 -12 -14 -9 -5 42 32 -16 59 -19 -20 39 46 -28 48 -25 -8 -7 -24 -11 -10 -13 -18 -3 -34 -17 -37 -1 -35 61 -54 -33 -27 -59 -15 -40 -39
right_child=1 4 6 7 9 14 10 28 16 20 26 37 27 33 31 50 47 22 35 -21 21 -23 43 40 -26 57 38 -29 -30 -31 -32 56 49 53 -36 51 -38 54 60 -41 -42 -43 -44 -45 -46 -47 -48 -49 -50 -51 -52 -53 55 -55 -56 -57 -58 58 -60 -61 -62 -63
leaf_value=0.16522671764460686 0.09778747265127552 0.12047276823438369 0.16239346091519224 0.06897757561805376 0.11421948694758986 0.11581625861213617 0.039781731210004612 0.051398354424803352 0.13168640045510513 0.02412234464476681 0.082882876734572175 0.096582835296730105 0.0034557790953089734 0.10341169672554847 0.16150282103338859 -0.016396581683922398 0.12899657311436577 0.096124457058040111 0.13777816785225985 0.17786045878516535 -0.0052180577280562714 0.084284080091432678 0.0032299687967740571 0.087309509028225707 0.16473244526483993 0.10430841368249458 0.13735886212277518 -0.033830893654003935 0.014170096739764005 0.032559634974086024 0.062373597625117475 0.09703781148019075 0.14283387913276463 0.014495653781786456 0.049329996820823507 0.088244055482380956 -0.0048109976380788181 0.020577258932233399 0.11757882807854492 0.0060834355141694552 0.12944843599359257 0.088537704040776266 0.071395596508620721 0.077036099440839764 -0.026006519479946873 0.15479206609828342 0.004348666536731609 0.09942215156637442 0.045906598976794145 0.11243451261353982 0.065655168173579567 0.12493293836041644 0.15080761660697642 0.068780809360118614 -0.0083041484948129674 0.12581124309729241 -0.0019727895639738489 0.041127289161245986 0.107216690432196 0.07294618819526083 0.081694836979257279 0.061656055466335284
leaf_weight=619.93057936429977 1102.1523734852672 83.324078567326069 875.8105955272913 913.87263481318951 700.59097596257925 1088.879118680954 548.84755302965641 780.18334683030844 1094.0502732247114 244.64847784489393 607.00841926038265 229.44934193044901 1033.199999846518 1090.7837666720152 691.94381525367498 138.77195084840059 1778.0385229587555 620.18629468977451 1644.1036532074213 2476.2823810577393 198.89877551048994 253.08966533094645 312.23561199754477 1485.3194510564208 4507.6570357233286 190.60505219548941 1337.5720745921135 1134.3980466425419 1491.4319725558162 1260.2297879159451 459.60627368837595 145.36647860705853 595.04777355492115 161.52725815027952 573.88884552568197 544.69285933673382 474.03426577150822 532.62658095359802 1651.4927598685026 312.34280142188072 326.5609567463398 312.81667256355286 304.36977710574865 108.89806198328733 492.0148351341486 2577.4662529826164 59.865060232579708 616.51678563654423 493.95056960731745 1389.6867743805051 95.599053129553795 561.51483237743378 1117.7467594444752 546.40321581065655 231.1508212685585 1232.2400033026934 50.10566920787096 440.10807074606419 105.9049820676446 595.70262653380632 325.47198660671711 337.28403136879206
leaf_count=1123 4431 311 1797 4518 2672 3633 2923 4196 2738 1624 2468 1011 7541 4436 1523 1077 5043 2572 4299 3090 1440 1321 2202 6099 7430 761 3577 9712 9977 7619 2243 536 1647 1034 3110 2052 3428 3391 5275 2133 1085 1388 1448 611 3925 4806 367 2115 2804 4946 565 1756 2206 2877 1689 3279 324 2531 482 2837 1238 1851
internal_value=0.101699 0.059219 0.137417 0.0777236 0.0252565 0.100587 0.113808 0.052847 0.15248 0.0468206 0.102545 0.0606203 -0.000700538 0.0657208 0.115028 0.0797804 0.137436 0.0754774 0.134294 0.161647 0.0112728 0.0448984 0.0602539 0.0828434 0.156278 0.0900064 0.115977 -0.016058 0.0269561 0.0478677 0.0952626 0.127779 0.131877 0.0819312 0.0736344 0.125346 0.0237109 0.037585 0.122037 0.0389088 0.0949043 0.057482 0.106112 0.022315 -0.00935855 0.147907 0.0774977 0.121382 0.0566695 0.121549 0.017072 0.106867 0.143446 0.0563947 0.0270976 0.137701 0.0716583 0.0669776 0.053946 0.0926506 0.111671 0.0365044
internal_weight=48305.5 22064.4 26241.1 14282.5 7781.86 7442.37 10221.2 6840.13 16019.9 4250.61 6595.09 3061.96 3531.25 4568.52 4725.01 1671.58 6066.07 2717.36 3626.12 9953.86 1188.65 451.988 1615.21 2673.54 7477.57 1437.21 3921.55 2167.6 2271.62 2174.1 1852.86 2872.15 2676.68 2394.42 1194.08 2750.31 1363.65 1390.38 3314.54 889.617 1811.88 861.664 1393.25 421.134 736.663 3671.52 289.314 2394.56 577.275 1984.73 234.371 1106.21 2969.92 707.93 1101.06 2349.99 195.472 736.618 546.013 1686.49 1976.96 869.911
internal_count=183143 117356 65787 66720 50636 29226 33957 37494 31830 24707 24053 16397 25929 23321 16300 8088 14702 12926 9904 17128 8310 2761 8495 11495 14038 6446 12558 17253 14173 12137 7324 8976 8116 11184 5682 8107 8676 8309 10090 5248 7184 4311 5081 2813 5549 7544 1378 7158 3115 6593 1642 3808 6608 3911 6931 5485 860 3774 3013 7273 6513 5242
is_linear=0
shrinkage=0.05


end of trees

feature_importances:
trial_time_zscore=36
post_position=26
rider_track_win_rate=25
relative_win_strength=22
predicted_race_time_rank=21
field_trial_std=19
trial_time_diff_from_best=18
trial_deviation=10
handicap_meters=9
field_avg_trial=7
computed_trial_deviation=7
gap_to_top_rival=5
generation=4
handicap_range_in_field=4
rider_wet_win_rate=4
top3_rate_10=3
avg_finish_30=3
race_number=2
trial_time_rank=2
avg_trial_time_90d=2
trial_vs_avg_90d=2
top2_rate_10=2
handicap_group=2
track_temperature=1
trial_time=1
avg_trial_time_30d=1
win_rate_30=1
top3_rate_30=1
avg_finish_10=1
finish_std_10=1
total_races=1
predicted_vs_handicap=1
field_avg_win_rate=1
field_avg_finish=1
form_rank_in_field=1
rider_wet_top3_rate=1

parameters:
[boosting: gbdt]
[objective: binary]
[metric: binary_logloss]
[tree_learner: serial]
[device_type: cpu]
[data_sample_strategy: bagging]
[data: ]
[valid: ]
[num_iterations: 1000]
[learning_rate: 0.05]
[num_leaves: 63]
[num_threads: 0]
[seed: 42]
[deterministic: 0]
[force_col_wise: 0]
[force_row_wise: 0]
[histogram_pool_size: -1]
[max_depth: -1]
[min_data_in_leaf: 50]
[min_sum_hessian_in_leaf: 0.001]
[bagging_fraction: 0.9]
[pos_bagging_fraction: 1]
[neg_bagging_fraction: 1]
[bagging_freq: 1]
[bagging_seed: 400]
[bagging_by_query: 0]
[feature_fraction: 0.9]
[feature_fraction_bynode: 1]
[feature_fraction_seed: 30056]
[extra_trees: 0]
[extra_seed: 12879]
[early_stopping_round: 0]
[early_stopping_min_delta: 0]
[first_metric_only: 0]
[max_delta_step: 0]
[lambda_l1: 0]
[lambda_l2: 0]
[linear_lambda: 0]
[min_gain_to_split: 0]
[drop_rate: 0.1]
[max_drop: 50]
[skip_drop: 0.5]
[xgboost_dart_mode: 0]
[uniform_drop: 0]
[drop_seed: 17869]
[top_rate: 0.2]
[other_rate: 0.1]
[min_data_per_group: 100]
[max_cat_threshold: 32]
[cat_l2: 10]
[cat_smooth: 10]
[max_cat_to_onehot: 4]
[top_k: 20]
[monotone_constraints: ]
[monotone_constraints_method: basic]
[monotone_penalty: 0]
[feature_contri: ]
[forcedsplits_filename: ]
[refit_decay_rate: 0.9]
[cegb_tradeoff: 1]
[cegb_penalty_split: 0]
[cegb_penalty_feature_lazy: ]
[cegb_penalty_feature_coupled: ]
[path_smooth: 0]
[interaction_constraints: ]
[verbosity: -1]
[saved_feature_importance_type: 0]
[use_quantized_grad: 0]
[num_grad_quant_bins: 4]
[quant_train_renew_leaf: 0]
[stochastic_rounding: 1]
[linear_tree: 0]
[max_bin: 255]
[max_bin_by_feature: ]
[min_data_in_bin: 3]
[bin_construct_sample_cnt: 200000]
[data_random_seed: 175]
[is_enable_sparse: 1]
[enable_bundle: 1]
[use_missing: 1]
[zero_as_missing: 0]
[feature_pre_filter: 1]
[pre_partition: 0]
[two_round: 0]
[header: 0]
[label_column: ]
[weight_column: ]
[group_column: ]
[ignore_column: ]
[categorical_feature: 0,2,3,7]
[forcedbins_filename: ]
[precise_float_parser: 0]
[parser_config_file: ]
[objective_seed: 16083]
[num_class: 1]
[is_unbalance: 1]
[scale_pos_weight: 1]
[sigmoid: 1]
[boost_from_average: 1]
[reg_sqrt: 0]
[alpha: 0.9]
[fair_c: 1]
[poisson_max_delta_step: 0.7]
[tweedie_variance_power: 1.5]
[lambdarank_truncation_level: 30]
[lambdarank_norm: 1]
[label_gain: ]
[lambdarank_position_bias_regularization: 0]
[eval_at: ]
[multi_error_top_k: 1]
[auc_mu_weights: ]
[num_machines: 1]
[local_listen_port: 12400]
[time_out: 120]
[machine_list_filename: ]
[machines: ]
[gpu_platform_id: -1]
[gpu_device_id: -1]
[gpu_use_dp: 0]
[num_gpu: 1]

end of parameters

pandas_categorical:[]
